{"type":"LSTM","options":{"inputSize":118,"inputRange":118,"hiddenLayers":[20,20],"outputSize":118,"decayRate":0.999,"smoothEps":1e-8,"regc":0.000001,"clipval":5,"maxPredictionLength":100,"dataFormatter":{"values":[["-C-------","-C--P----","-C--PC---","-C--PCP--","-C--PCP-C","-C-PPCP-C","CC-PPCP-C","CC-PPCPPC","CCCPPCPPC"],["--P------","--P-C----","--P-CP---","--P-CP-C-","--PPCP-C-","C-PPCP-C-","C-PPCPPC-","C-PPCPPCC"],["--------P","C-------P","C----P--P","C---CP--P","C---CP-PP","C---CPCPP","CP--CPCPP","CPC-CPCPP"],["-------C-","-P-----C-","-P-----CC","PP-----CC","PP---C-CC","PP-P-C-CC","PPCP-C-CC"],["C--------","C----P---","C---CP---","C---CP--P","C-C-CP--P","C-C-CP-PP","C-CCCP-PP","CPCCCP-PP","CPCCCPCPP"],["-------C-","P------C-","P--C---C-","P--C---CP","P--CC--CP","P-PCC--CP","PCPCC--CP"],["-P-------","-P------C","-P-P----C","-P-P--C-C","-PPP--C-C","CPPP--C-C","CPPPP-C-C","CPPPP-CCC"],["----C----","---PC----","-C-PC----","-C-PC--P-","CC-PC--P-","CCPPC--P-","CCPPCC-P-","CCPPCCPP-","CCPPCCPPC"],["--------P","-----C--P","----PC--P","----PCC-P","---PPCC-P","C--PPCC-P","CP-PPCC-P","CP-PPCCCP","CPPPPCCCP"],["--C------","--C-----P","--C-C---P","P-C-C---P","PCC-C---P","PCC-C--PP","PCCCC--PP","PCCCCP-PP","PCCCCPCPP"],["------P--","-----CP--","P----CP--","PC---CP--","PC---CP-P","PC---CPCP","PCP--CPCP","PCP-CCPCP"],["----P----","C---P----","C-P-P----","C-P-P-C--","C-P-P-C-P","C-P-P-CCP","C-PPP-CCP","C-PPPCCCP","CPPPPCCCP"],["-C-------","-C-P-----","-C-P--C--","PC-P--C--","PC-P--CC-","PC-P--CCP","PCCP--CCP","PCCP-PCCP","PCCPCPCCP"],["------C--","--P---C--","--P-C-C--","--P-C-C-P","--P-CCC-P","P-P-CCC-P","P-PCCCC-P"],["--C------","--C--P---","--CC-P---","--CC-P-P-","--CC-PCP-","P-CC-PCP-","P-CCCPCP-"]],"indexTable":{"-C-------":0,"-C--P----":1,"-C--PC---":2,"-C--PCP--":3,"-C--PCP-C":4,"-C-PPCP-C":5,"CC-PPCP-C":6,"CC-PPCPPC":7,"CCCPPCPPC":8,"--P------":9,"--P-C----":10,"--P-CP---":11,"--P-CP-C-":12,"--PPCP-C-":13,"C-PPCP-C-":14,"C-PPCPPC-":15,"C-PPCPPCC":16,"--------P":17,"C-------P":18,"C----P--P":19,"C---CP--P":20,"C---CP-PP":21,"C---CPCPP":22,"CP--CPCPP":23,"CPC-CPCPP":24,"-------C-":25,"-P-----C-":26,"-P-----CC":27,"PP-----CC":28,"PP---C-CC":29,"PP-P-C-CC":30,"PPCP-C-CC":31,"C--------":32,"C----P---":33,"C---CP---":34,"C-C-CP--P":35,"C-C-CP-PP":36,"C-CCCP-PP":37,"CPCCCP-PP":38,"CPCCCPCPP":39,"P------C-":40,"P--C---C-":41,"P--C---CP":42,"P--CC--CP":43,"P-PCC--CP":44,"PCPCC--CP":45,"-P-------":46,"-P------C":47,"-P-P----C":48,"-P-P--C-C":49,"-PPP--C-C":50,"CPPP--C-C":51,"CPPPP-C-C":52,"CPPPP-CCC":53,"----C----":54,"---PC----":55,"-C-PC----":56,"-C-PC--P-":57,"CC-PC--P-":58,"CCPPC--P-":59,"CCPPCC-P-":60,"CCPPCCPP-":61,"CCPPCCPPC":62,"-----C--P":63,"----PC--P":64,"----PCC-P":65,"---PPCC-P":66,"C--PPCC-P":67,"CP-PPCC-P":68,"CP-PPCCCP":69,"CPPPPCCCP":70,"--C------":71,"--C-----P":72,"--C-C---P":73,"P-C-C---P":74,"PCC-C---P":75,"PCC-C--PP":76,"PCCCC--PP":77,"PCCCCP-PP":78,"PCCCCPCPP":79,"------P--":80,"-----CP--":81,"P----CP--":82,"PC---CP--":83,"PC---CP-P":84,"PC---CPCP":85,"PCP--CPCP":86,"PCP-CCPCP":87,"----P----":88,"C---P----":89,"C-P-P----":90,"C-P-P-C--":91,"C-P-P-C-P":92,"C-P-P-CCP":93,"C-PPP-CCP":94,"C-PPPCCCP":95,"-C-P-----":96,"-C-P--C--":97,"PC-P--C--":98,"PC-P--CC-":99,"PC-P--CCP":100,"PCCP--CCP":101,"PCCP-PCCP":102,"PCCPCPCCP":103,"------C--":104,"--P---C--":105,"--P-C-C--":106,"--P-C-C-P":107,"--P-CCC-P":108,"P-P-CCC-P":109,"P-PCCCC-P":110,"--C--P---":111,"--CC-P---":112,"--CC-P-P-":113,"--CC-PCP-":114,"P-CC-PCP-":115,"P-CCCPCP-":116,"unrecognized":117},"characterTable":{"0":"-C-------","1":"-C--P----","2":"-C--PC---","3":"-C--PCP--","4":"-C--PCP-C","5":"-C-PPCP-C","6":"CC-PPCP-C","7":"CC-PPCPPC","8":"CCCPPCPPC","9":"--P------","10":"--P-C----","11":"--P-CP---","12":"--P-CP-C-","13":"--PPCP-C-","14":"C-PPCP-C-","15":"C-PPCPPC-","16":"C-PPCPPCC","17":"--------P","18":"C-------P","19":"C----P--P","20":"C---CP--P","21":"C---CP-PP","22":"C---CPCPP","23":"CP--CPCPP","24":"CPC-CPCPP","25":"-------C-","26":"-P-----C-","27":"-P-----CC","28":"PP-----CC","29":"PP---C-CC","30":"PP-P-C-CC","31":"PPCP-C-CC","32":"C--------","33":"C----P---","34":"C---CP---","35":"C-C-CP--P","36":"C-C-CP-PP","37":"C-CCCP-PP","38":"CPCCCP-PP","39":"CPCCCPCPP","40":"P------C-","41":"P--C---C-","42":"P--C---CP","43":"P--CC--CP","44":"P-PCC--CP","45":"PCPCC--CP","46":"-P-------","47":"-P------C","48":"-P-P----C","49":"-P-P--C-C","50":"-PPP--C-C","51":"CPPP--C-C","52":"CPPPP-C-C","53":"CPPPP-CCC","54":"----C----","55":"---PC----","56":"-C-PC----","57":"-C-PC--P-","58":"CC-PC--P-","59":"CCPPC--P-","60":"CCPPCC-P-","61":"CCPPCCPP-","62":"CCPPCCPPC","63":"-----C--P","64":"----PC--P","65":"----PCC-P","66":"---PPCC-P","67":"C--PPCC-P","68":"CP-PPCC-P","69":"CP-PPCCCP","70":"CPPPPCCCP","71":"--C------","72":"--C-----P","73":"--C-C---P","74":"P-C-C---P","75":"PCC-C---P","76":"PCC-C--PP","77":"PCCCC--PP","78":"PCCCCP-PP","79":"PCCCCPCPP","80":"------P--","81":"-----CP--","82":"P----CP--","83":"PC---CP--","84":"PC---CP-P","85":"PC---CPCP","86":"PCP--CPCP","87":"PCP-CCPCP","88":"----P----","89":"C---P----","90":"C-P-P----","91":"C-P-P-C--","92":"C-P-P-C-P","93":"C-P-P-CCP","94":"C-PPP-CCP","95":"C-PPPCCCP","96":"-C-P-----","97":"-C-P--C--","98":"PC-P--C--","99":"PC-P--CC-","100":"PC-P--CCP","101":"PCCP--CCP","102":"PCCP-PCCP","103":"PCCPCPCCP","104":"------C--","105":"--P---C--","106":"--P-C-C--","107":"--P-C-C-P","108":"--P-CCC-P","109":"P-P-CCC-P","110":"P-PCCCC-P","111":"--C--P---","112":"--CC-P---","113":"--CC-P-P-","114":"--CC-PCP-","115":"P-CC-PCP-","116":"P-CCCPCP-","117":null},"characters":["-C-------","-C--P----","-C--PC---","-C--PCP--","-C--PCP-C","-C-PPCP-C","CC-PPCP-C","CC-PPCPPC","CCCPPCPPC","--P------","--P-C----","--P-CP---","--P-CP-C-","--PPCP-C-","C-PPCP-C-","C-PPCPPC-","C-PPCPPCC","--------P","C-------P","C----P--P","C---CP--P","C---CP-PP","C---CPCPP","CP--CPCPP","CPC-CPCPP","-------C-","-P-----C-","-P-----CC","PP-----CC","PP---C-CC","PP-P-C-CC","PPCP-C-CC","C--------","C----P---","C---CP---","C-C-CP--P","C-C-CP-PP","C-CCCP-PP","CPCCCP-PP","CPCCCPCPP","P------C-","P--C---C-","P--C---CP","P--CC--CP","P-PCC--CP","PCPCC--CP","-P-------","-P------C","-P-P----C","-P-P--C-C","-PPP--C-C","CPPP--C-C","CPPPP-C-C","CPPPP-CCC","----C----","---PC----","-C-PC----","-C-PC--P-","CC-PC--P-","CCPPC--P-","CCPPCC-P-","CCPPCCPP-","CCPPCCPPC","-----C--P","----PC--P","----PCC-P","---PPCC-P","C--PPCC-P","CP-PPCC-P","CP-PPCCCP","CPPPPCCCP","--C------","--C-----P","--C-C---P","P-C-C---P","PCC-C---P","PCC-C--PP","PCCCC--PP","PCCCCP-PP","PCCCCPCPP","------P--","-----CP--","P----CP--","PC---CP--","PC---CP-P","PC---CPCP","PCP--CPCP","PCP-CCPCP","----P----","C---P----","C-P-P----","C-P-P-C--","C-P-P-C-P","C-P-P-CCP","C-PPP-CCP","C-PPPCCCP","-C-P-----","-C-P--C--","PC-P--C--","PC-P--CC-","PC-P--CCP","PCCP--CCP","PCCP-PCCP","PCCPCPCCP","------C--","--P---C--","--P-C-C--","--P-C-C-P","--P-CCC-P","P-P-CCC-P","P-PCCCC-P","--C--P---","--CC-P---","--CC-P-P-","--CC-PCP-","P-CC-PCP-","P-CCCPCP-","unrecognized"],"specialIndexes":[117]}},"input":{"rows":119,"columns":118,"weights":{"0":0.6974701285362244,"1":-0.15806972980499268,"2":-0.48659881949424744,"3":-0.07437289506196976,"4":0.6660979390144348,"5":-1.1446027755737305,"6":-0.28647518157958984,"7":-0.5041298866271973,"8":0.025684254243969917,"9":-0.47603464126586914,"10":0.17291806638240814,"11":-0.3075026869773865,"12":1.2993558645248413,"13":1.0813822746276855,"14":-0.8508023619651794,"15":0.4014814794063568,"16":-0.011064715683460236,"17":0.06395291537046432,"18":-0.7450846433639526,"19":0.3436911702156067,"20":-0.38281282782554626,"21":0.7258253693580627,"22":-0.5789724588394165,"23":-1.288151502609253,"24":0.11769132316112518,"25":1.1292784214019775,"26":-1.0593550205230713,"27":0.4732998013496399,"28":1.056936264038086,"29":0.18533889949321747,"30":-0.28130611777305603,"31":0.5631288886070251,"32":0.02904500998556614,"33":-0.46885934472084045,"34":-0.3477025032043457,"35":-0.17307084798812866,"36":-0.25244057178497314,"37":0.701651394367218,"38":0.11126858741044998,"39":-0.5304828882217407,"40":0.494737833738327,"41":0.09144216775894165,"42":-0.7672513127326965,"43":-0.09743805229663849,"44":0.23255199193954468,"45":0.31573858857154846,"46":-0.5565783381462097,"47":0.737371563911438,"48":-0.4519816040992737,"49":0.8356217741966248,"50":-0.12030825018882751,"51":-0.1856880784034729,"52":0.1894557923078537,"53":0.14705143868923187,"54":0.44274333119392395,"55":0.043009188026189804,"56":0.39029428362846375,"57":1.1731361150741577,"58":0.060363564640283585,"59":0.20174290239810944,"60":0.0712701827287674,"61":1.0590168237686157,"62":-0.7472641468048096,"63":0.37464386224746704,"64":0.30471229553222656,"65":-0.13295428454875946,"66":0.17801691591739655,"67":1.0689129829406738,"68":-0.7148756384849548,"69":0.06826844811439514,"70":-0.9253138303756714,"71":-0.6799992918968201,"72":0.04601789265871048,"73":0.3873829245567322,"74":-0.8055453896522522,"75":0.07400897145271301,"76":0.09951376169919968,"77":0.7636618614196777,"78":0.3448176085948944,"79":-0.7870175242424011,"80":-0.6414957046508789,"81":0.05740804970264435,"82":-0.6516044735908508,"83":0.16425511240959167,"84":-0.7714667916297913,"85":-0.897470235824585,"86":-0.06166381761431694,"87":-0.13683979213237762,"88":-0.3256841003894806,"89":0.5425277352333069,"90":-0.9347530007362366,"91":0.7687270641326904,"92":-0.41804489493370056,"93":-0.8551544547080994,"94":-0.6287604570388794,"95":0.47317996621131897,"96":-0.17946593463420868,"97":-0.682045578956604,"98":-0.9070324301719666,"99":-0.3908340036869049,"100":0.8890721797943115,"101":0.23549696803092957,"102":0.48033618927001953,"103":-0.7073544263839722,"104":0.5258635878562927,"105":0.3177125155925751,"106":-0.5916734933853149,"107":0.44549569487571716,"108":-0.4002037048339844,"109":-0.35143354535102844,"110":-1.4183353185653687,"111":0.8326951265335083,"112":-0.3247406482696533,"113":0.609052836894989,"114":0.7300112247467041,"115":-0.39183521270751953,"116":-0.19640997052192688,"117":-0.593865692615509,"118":2.281299114227295,"119":1.4684326648712158,"120":0.4680597484111786,"121":-0.8880163431167603,"122":-0.3611045479774475,"123":-1.0777685642242432,"124":-1.7745386362075806,"125":-2.381586790084839,"126":-1.7941819429397583,"127":-1.3629260063171387,"128":2.6221089363098145,"129":0.6086951494216919,"130":1.0269681215286255,"131":1.3988168239593506,"132":-2.71055269241333,"133":1.6254897117614746,"134":-1.0275107622146606,"135":0.9056549072265625,"136":-1.738420844078064,"137":-0.9016116261482239,"138":-1.939755916595459,"139":2.835191249847412,"140":-1.2983577251434326,"141":-0.2621263861656189,"142":2.1133999824523926,"143":2.615326404571533,"144":0.09356646239757538,"145":1.3978252410888672,"146":0.7598733305931091,"147":0.31549084186553955,"148":-0.12513676285743713,"149":0.3282337188720703,"150":1.907322883605957,"151":-2.061535120010376,"152":-2.2322030067443848,"153":-0.06859930604696274,"154":-2.298182249069214,"155":2.5145673751831055,"156":-1.628609299659729,"157":-2.779958963394165,"158":1.6558516025543213,"159":2.7675600051879883,"160":-1.2409483194351196,"161":-0.7699705958366394,"162":2.4304261207580566,"163":-1.519803524017334,"164":-1.506235957145691,"165":1.07876455783844,"166":-0.3780328929424286,"167":2.7088258266448975,"168":0.0949176549911499,"169":2.4100441932678223,"170":-2.419844627380371,"171":1.1357001066207886,"172":-0.8907952904701233,"173":0.2896004021167755,"174":-0.36470943689346313,"175":1.249476671218872,"176":0.6072760820388794,"177":0.8489994406700134,"178":0.6384296417236328,"179":2.5983853340148926,"180":-0.6149210333824158,"181":0.3585660755634308,"182":-1.9810236692428589,"183":-2.480337381362915,"184":1.0757777690887451,"185":2.618959665298462,"186":-2.3386194705963135,"187":-1.6763191223144531,"188":-1.1456623077392578,"189":-1.285575270652771,"190":-0.9873816967010498,"191":-1.9496973752975464,"192":-0.4709726572036743,"193":-2.3090600967407227,"194":-2.1356992721557617,"195":2.4228641986846924,"196":1.5382254123687744,"197":-0.9808436036109924,"198":-0.9439865946769714,"199":1.5424044132232666,"200":0.5871747136116028,"201":-2.0645947456359863,"202":-2.848264217376709,"203":-0.09655550122261047,"204":-0.3633285462856293,"205":0.4275871515274048,"206":2.440851926803589,"207":1.1274805068969727,"208":-2.5622620582580566,"209":1.0340193510055542,"210":-2.2043139934539795,"211":-1.1391874551773071,"212":2.337521553039551,"213":0.03655030205845833,"214":-2.044137954711914,"215":-2.361488103866577,"216":-1.376478910446167,"217":0.3222585916519165,"218":2.590416431427002,"219":-1.2599241733551025,"220":2.034327983856201,"221":-0.7676934599876404,"222":-0.9888320565223694,"223":1.7998631000518799,"224":-2.7044730186462402,"225":0.3287038505077362,"226":-1.611312747001648,"227":0.07751015573740005,"228":-1.0219707489013672,"229":1.0361847877502441,"230":0.9257756471633911,"231":1.0633211135864258,"232":1.9852544069290161,"233":0.4434318244457245,"234":-0.0100552411749959,"235":-0.36527809500694275,"236":2.1541051864624023,"237":-2.1716721057891846,"238":1.8846611976623535,"239":-2.1749308109283447,"240":-1.8639423847198486,"241":-1.9553982019424438,"242":-1.5985219478607178,"243":-1.8727428913116455,"244":-0.8264800310134888,"245":2.0651352405548096,"246":2.0507426261901855,"247":-2.1649506092071533,"248":2.3875999450683594,"249":2.033007860183716,"250":1.6445741653442383,"251":-2.7581889629364014,"252":-2.024731397628784,"253":1.8484123945236206,"254":0.8582891821861267,"255":3.1663689613342285,"256":-2.051710844039917,"257":-1.738345742225647,"258":-1.9109212160110474,"259":-2.070223569869995,"260":2.7274837493896484,"261":-1.4827275276184082,"262":1.9240760803222656,"263":2.2835545539855957,"264":1.6286555528640747,"265":1.8052610158920288,"266":-2.109792709350586,"267":2.167792558670044,"268":1.7247049808502197,"269":-1.8979921340942383,"270":-2.441828966140747,"271":-2.0977964401245117,"272":-2.286848783493042,"273":2.5924923419952393,"274":2.1471126079559326,"275":-3.7929799556732178,"276":0.8747531175613403,"277":1.8946651220321655,"278":-2.6566965579986572,"279":-3.7281107902526855,"280":2.4315030574798584,"281":-2.306929588317871,"282":-2.9496164321899414,"283":1.876949429512024,"284":-1.9300072193145752,"285":2.3133740425109863,"286":1.953277587890625,"287":1.6092795133590698,"288":-1.2878499031066895,"289":-2.0530107021331787,"290":-2.0572690963745117,"291":-2.366628885269165,"292":1.8264204263687134,"293":2.2167372703552246,"294":2.62174916267395,"295":1.775651216506958,"296":1.9900619983673096,"297":2.3521547317504883,"298":1.1953831911087036,"299":2.023770332336426,"300":-1.8305031061172485,"301":-1.5819190740585327,"302":4.120405197143555,"303":2.6790664196014404,"304":1.9196456670761108,"305":-1.8880956172943115,"306":2.237077236175537,"307":-2.3943469524383545,"308":-1.7576583623886108,"309":-1.6983227729797363,"310":-2.3787505626678467,"311":-1.8765889406204224,"312":2.47082257270813,"313":1.861231803894043,"314":1.4468425512313843,"315":-2.1042048931121826,"316":-1.7687630653381348,"317":-2.879847526550293,"318":-1.746836543083191,"319":-0.9623047709465027,"320":-1.5946136713027954,"321":-2.3532230854034424,"322":-1.1097290515899658,"323":-1.8876004219055176,"324":1.6219515800476074,"325":2.4119584560394287,"326":-2.2156879901885986,"327":2.0833566188812256,"328":2.7761435508728027,"329":-2.2421669960021973,"330":0.1104285717010498,"331":2.0011520385742188,"332":-1.887393593788147,"333":-2.0572540760040283,"334":-2.259622812271118,"335":2.075549602508545,"336":2.165328025817871,"337":3.6707780361175537,"338":2.168968915939331,"339":1.6203464269638062,"340":-1.414209008216858,"341":2.1467530727386475,"342":3.650472640991211,"343":2.1155784130096436,"344":-1.8288742303848267,"345":-1.6549341678619385,"346":-2.4004483222961426,"347":2.144379138946533,"348":1.7969235181808472,"349":1.4980614185333252,"350":-1.6102321147918701,"351":-1.9274725914001465,"352":1.4874008893966675,"353":-3.317234516143799,"354":0.9772393107414246,"355":-4.360024929046631,"356":3.945296287536621,"357":-4.270363807678223,"358":-3.3513576984405518,"359":-1.687173843383789,"360":-0.25640738010406494,"361":-0.07822777330875397,"362":5.305874824523926,"363":3.4328231811523438,"364":1.9828135967254639,"365":-2.8385818004608154,"366":3.227893829345703,"367":-0.2607657313346863,"368":-1.0807721614837646,"369":-4.262770652770996,"370":-0.6032746434211731,"371":1.4043976068496704,"372":4.088313579559326,"373":3.338563919067383,"374":0.044504616409540176,"375":-3.484529972076416,"376":-0.22929415106773376,"377":-2.572612762451172,"378":2.541029691696167,"379":-0.03733588755130768,"380":3.9455742835998535,"381":0.5523697137832642,"382":2.050729990005493,"383":3.332306146621704,"384":-2.8803834915161133,"385":2.08059024810791,"386":0.1678507775068283,"387":-4.019793510437012,"388":-0.2542015314102173,"389":-3.9185123443603516,"390":-2.321704626083374,"391":0.24013112485408783,"392":4.1355743408203125,"393":-0.8428739309310913,"394":-6.28179931640625,"395":-0.018640747293829918,"396":-1.3704525232315063,"397":-4.5736589431762695,"398":3.4132115840911865,"399":-2.3330273628234863,"400":-0.6114181876182556,"401":2.819737672805786,"402":-1.1690335273742676,"403":-0.10470805317163467,"404":4.655722141265869,"405":-0.07385564595460892,"406":0.7904732823371887,"407":-4.572001934051514,"408":-0.46403414011001587,"409":-3.9248247146606445,"410":3.760234832763672,"411":0.9889976382255554,"412":4.123377323150635,"413":1.9991799592971802,"414":4.430271148681641,"415":0.024888532236218452,"416":-1.9338793754577637,"417":0.2639997601509094,"418":-0.08435161411762238,"419":-0.12275300920009613,"420":0.2451331466436386,"421":3.028074264526367,"422":3.511119842529297,"423":-2.2914562225341797,"424":1.4792739152908325,"425":-2.2890334129333496,"426":-2.681727886199951,"427":0.15485864877700806,"428":-3.4438328742980957,"429":-4.015622615814209,"430":3.572019338607788,"431":0.4911564290523529,"432":-1.1189044713974,"433":-2.4891202449798584,"434":-1.2060176134109497,"435":-5.11428165435791,"436":-2.660198211669922,"437":-3.6878156661987305,"438":2.2733170986175537,"439":-2.2593560218811035,"440":5.58815860748291,"441":-4.108304977416992,"442":0.45432114601135254,"443":3.1686739921569824,"444":-1.2878742218017578,"445":3.568592071533203,"446":1.1519122123718262,"447":-2.5248236656188965,"448":-4.705161094665527,"449":2.523186683654785,"450":-0.8926386833190918,"451":-4.002579212188721,"452":-0.11667485535144806,"453":3.7243356704711914,"454":0.0641627088189125,"455":5.725018501281738,"456":0.6597440838813782,"457":-4.31229305267334,"458":0.3755778670310974,"459":0.42563915252685547,"460":0.40552467107772827,"461":1.412107229232788,"462":0.17119234800338745,"463":-2.583082914352417,"464":-0.9698284268379211,"465":0.594021737575531,"466":0.3043016195297241,"467":3.36114764213562,"468":-4.00339412689209,"469":-1.149559736251831,"470":3.644482374191284,"471":-2.507244348526001,"472":2.2929611206054688,"473":-0.8559539914131165,"474":2.525604486465454,"475":-0.4713383913040161,"476":-3.027906894683838,"477":-1.2858976125717163,"478":-2.721975564956665,"479":-2.4866793155670166,"480":1.4075285196304321,"481":1.7487150430679321,"482":3.577253580093384,"483":-4.205093860626221,"484":0.9203193187713623,"485":0.5572359561920166,"486":-3.1140341758728027,"487":-1.2619322538375854,"488":-2.927006244659424,"489":1.7063275575637817,"490":0.8562320470809937,"491":1.977597951889038,"492":-3.594298839569092,"493":-3.011537551879883,"494":-1.2847187519073486,"495":-0.9328497648239136,"496":3.4894070625305176,"497":1.3814460039138794,"498":-0.08107294142246246,"499":3.961404323577881,"500":1.7817931175231934,"501":1.7184034585952759,"502":-1.2911772727966309,"503":2.1569406986236572,"504":3.2345187664031982,"505":-0.0283200703561306,"506":-0.8399516344070435,"507":-2.570493459701538,"508":-2.737025737762451,"509":2.1747734546661377,"510":0.6515176892280579,"511":-2.174607276916504,"512":-1.19515061378479,"513":2.6232237815856934,"514":-0.690278947353363,"515":-0.6964314579963684,"516":3.085043430328369,"517":-3.968026876449585,"518":-3.485872268676758,"519":2.242074728012085,"520":-0.9123975038528442,"521":2.2723443508148193,"522":-0.37720632553100586,"523":2.8612146377563477,"524":-3.216219425201416,"525":-0.7744043469429016,"526":-2.8680522441864014,"527":-1.5103156566619873,"528":0.45256516337394714,"529":1.2320703268051147,"530":1.376717209815979,"531":2.9726648330688477,"532":0.9424796104431152,"533":2.9625537395477295,"534":-1.1808645725250244,"535":1.0607901811599731,"536":-3.620453119277954,"537":-2.6959457397460938,"538":1.9151430130004883,"539":3.8975090980529785,"540":3.1256918907165527,"541":-3.4205548763275146,"542":2.555232524871826,"543":-1.5944563150405884,"544":-1.146459698677063,"545":-3.572295904159546,"546":-0.827747642993927,"547":-3.592512845993042,"548":-2.596297264099121,"549":2.874349594116211,"550":3.0529322624206543,"551":-1.1153863668441772,"552":-1.9579432010650635,"553":-0.6888870000839233,"554":-1.0647190809249878,"555":-3.292003631591797,"556":-2.7355408668518066,"557":-1.4732179641723633,"558":1.0003511905670166,"559":-0.780405580997467,"560":2.703839063644409,"561":0.8685643672943115,"562":-2.7134628295898438,"563":1.8611873388290405,"564":-3.2954061031341553,"565":-1.1894532442092896,"566":-0.6485023498535156,"567":2.6689634323120117,"568":-3.0192534923553467,"569":-1.4814916849136353,"570":-2.2022197246551514,"571":1.831424355506897,"572":2.4625916481018066,"573":3.999805212020874,"574":2.614781141281128,"575":-0.48361265659332275,"576":-1.738992691040039,"577":3.5775954723358154,"578":-2.201951742172241,"579":2.737483263015747,"580":-3.5412087440490723,"581":-1.7982043027877808,"582":-2.164377450942993,"583":1.6410616636276245,"584":3.1315746307373047,"585":-1.1850820779800415,"586":0.025652874261140823,"587":-1.5439661741256714,"588":-0.05383655056357384,"589":-1.6877650022506714,"590":3.129338026046753,"591":-2.0360429286956787,"592":1.3507144451141357,"593":1.9396692514419556,"594":-1.2062941789627075,"595":-3.314748525619507,"596":1.052561640739441,"597":-2.764958381652832,"598":-2.6012609004974365,"599":1.9238345623016357,"600":2.6994996070861816,"601":-0.8115607500076294,"602":1.9051257371902466,"603":2.433391571044922,"604":-1.8071348667144775,"605":-1.8732548952102661,"606":-3.175349712371826,"607":2.8295414447784424,"608":0.9625184535980225,"609":2.678600788116455,"610":-3.1337356567382812,"611":-0.3196733593940735,"612":-2.541712760925293,"613":-2.232032299041748,"614":2.461517095565796,"615":2.6478629112243652,"616":-0.8876296281814575,"617":2.7357983589172363,"618":2.2456507682800293,"619":2.22906231880188,"620":-1.8731744289398193,"621":1.9976140260696411,"622":-1.0539122819900513,"623":-0.37662962079048157,"624":-3.2059197425842285,"625":-1.6212443113327026,"626":-3.3124217987060547,"627":0.4621635675430298,"628":1.7626333236694336,"629":-2.731339454650879,"630":-1.4455121755599976,"631":3.2480125427246094,"632":-2.3070592880249023,"633":-1.4362906217575073,"634":3.0781776905059814,"635":1.3730295896530151,"636":-3.1891822814941406,"637":0.2666487991809845,"638":-2.0121986865997314,"639":0.9863133430480957,"640":-2.3866450786590576,"641":-1.3092678785324097,"642":1.2086812257766724,"643":-1.8462920188903809,"644":-0.2717806100845337,"645":-2.17289662361145,"646":1.722065806388855,"647":2.1478147506713867,"648":0.9452787637710571,"649":3.3830933570861816,"650":1.7186671495437622,"651":2.726267099380493,"652":-2.059424638748169,"653":2.509294033050537,"654":1.4591509103775024,"655":-2.8924295902252197,"656":-2.4302456378936768,"657":2.030388593673706,"658":2.1149849891662598,"659":-0.49739816784858704,"660":2.1043405532836914,"661":-1.927045226097107,"662":-2.300600290298462,"663":0.8436646461486816,"664":-2.1531782150268555,"665":-1.6620643138885498,"666":1.5719934701919556,"667":-0.22864869236946106,"668":-1.23977530002594,"669":-3.079543113708496,"670":-2.1439881324768066,"671":-1.4601821899414062,"672":-2.0087571144104004,"673":1.7711355686187744,"674":1.3510037660598755,"675":-2.152273654937744,"676":0.7832380533218384,"677":-1.9912981986999512,"678":2.5826008319854736,"679":-1.7588706016540527,"680":-3.0258965492248535,"681":2.904162883758545,"682":0.48852604627609253,"683":-3.4194390773773193,"684":-1.3821475505828857,"685":1.5558494329452515,"686":-3.111154317855835,"687":-2.0556280612945557,"688":-2.8515124320983887,"689":3.792248487472534,"690":2.8776144981384277,"691":1.2217991352081299,"692":-0.2676137685775757,"693":-1.7120400667190552,"694":1.3982001543045044,"695":-0.5274484157562256,"696":-2.8062703609466553,"697":2.5313680171966553,"698":0.23507378995418549,"699":-2.405297040939331,"700":-3.3284237384796143,"701":2.385679244995117,"702":0.7250926494598389,"703":0.5038851499557495,"704":-1.71503746509552,"705":-1.620851993560791,"706":0.4804532825946808,"707":-2.3860716819763184,"708":-1.516296625137329,"709":-5.184206485748291,"710":5.615861892700195,"711":3.503572463989258,"712":-6.27411413192749,"713":-0.4928954541683197,"714":3.182372808456421,"715":-0.7174062728881836,"716":-3.102389097213745,"717":5.680300712585449,"718":1.6419105529785156,"719":-5.902984619140625,"720":1.3072823286056519,"721":-2.440547227859497,"722":3.8935225009918213,"723":-2.8296520709991455,"724":-5.665833950042725,"725":-0.5056136846542358,"726":5.221249580383301,"727":1.9356346130371094,"728":-0.5784615278244019,"729":-4.360517978668213,"730":2.1477105617523193,"731":-1.6096653938293457,"732":2.25862717628479,"733":-3.8184449672698975,"734":2.8125803470611572,"735":1.8011623620986938,"736":1.9022361040115356,"737":2.759331464767456,"738":-6.071143627166748,"739":3.0492398738861084,"740":-3.285226345062256,"741":0.38448721170425415,"742":4.905755996704102,"743":-4.133153438568115,"744":-1.514740228652954,"745":-2.5667285919189453,"746":3.071261167526245,"747":2.850489854812622,"748":-2.668304920196533,"749":-0.39049971103668213,"750":4.949591636657715,"751":1.8270025253295898,"752":-0.6492379903793335,"753":0.6471848487854004,"754":-0.44287732243537903,"755":-0.332964152097702,"756":1.6103057861328125,"757":-4.483348369598389,"758":-0.8909417390823364,"759":-1.6710423231124878,"760":2.9443094730377197,"761":-1.5773835182189941,"762":-2.9014389514923096,"763":-2.4140944480895996,"764":1.8996564149856567,"765":-0.03555978462100029,"766":4.128154277801514,"767":5.8456268310546875,"768":3.103329658508301,"769":-0.9824154376983643,"770":1.7749714851379395,"771":-0.38188979029655457,"772":-1.9064289331436157,"773":2.0688259601593018,"774":-4.37133264541626,"775":-0.14628298580646515,"776":5.9330620765686035,"777":-3.2463738918304443,"778":3.1370644569396973,"779":-1.0856887102127075,"780":-0.5230710506439209,"781":-3.07589054107666,"782":-1.6971492767333984,"783":-5.7584943771362305,"784":5.730780601501465,"785":-1.9992927312850952,"786":-2.0221235752105713,"787":1.228440761566162,"788":-0.5159201622009277,"789":-0.7178128361701965,"790":-1.8291813135147095,"791":4.366913318634033,"792":1.9658725261688232,"793":-2.920051097869873,"794":-2.0899150371551514,"795":-2.8275859355926514,"796":3.340641498565674,"797":-2.5244152545928955,"798":-2.473677158355713,"799":1.644584059715271,"800":3.904494524002075,"801":0.022075895220041275,"802":3.0636649131774902,"803":6.25663423538208,"804":-4.661743640899658,"805":0.3080359399318695,"806":2.199495553970337,"807":4.434521675109863,"808":-0.1839623898267746,"809":3.8245606422424316,"810":0.595794141292572,"811":2.461760997772217,"812":-0.29815390706062317,"813":-3.31762957572937,"814":1.6439586877822876,"815":2.843015670776367,"816":0.2037573754787445,"817":-4.758670330047607,"818":-1.7578922510147095,"819":1.8432353734970093,"820":-1.75459623336792,"821":-0.4973607659339905,"822":-0.03886517882347107,"823":1.7141040563583374,"824":0.31346091628074646,"825":2.469165802001953,"826":-1.9995393753051758,"827":5.274536609649658,"828":0.5272369384765625,"829":5.193527698516846,"830":-0.6771714091300964,"831":3.665637493133545,"832":-1.0090417861938477,"833":3.7305479049682617,"834":5.078089714050293,"835":-5.011097431182861,"836":1.4118108749389648,"837":-1.8403644561767578,"838":-3.930633306503296,"839":-5.049681663513184,"840":-0.01265812385827303,"841":1.1133614778518677,"842":3.0985453128814697,"843":-0.4179022014141083,"844":-2.064425230026245,"845":-4.829895973205566,"846":3.0294299125671387,"847":2.9551239013671875,"848":3.326496124267578,"849":5.733875274658203,"850":-1.0505350828170776,"851":-0.9860211610794067,"852":0.7535207271575928,"853":2.0573294162750244,"854":-3.580214738845825,"855":-4.9228620529174805,"856":6.0171356201171875,"857":-4.429940700531006,"858":2.897364377975464,"859":0.18056145310401917,"860":2.272047281265259,"861":4.815045356750488,"862":2.880499839782715,"863":-2.15657901763916,"864":-6.664752006530762,"865":-2.157231092453003,"866":1.2239503860473633,"867":-2.671569585800171,"868":4.388015270233154,"869":4.676653861999512,"870":-2.153515338897705,"871":-6.911111831665039,"872":1.8849601745605469,"873":-0.3389316201210022,"874":4.799819469451904,"875":-0.6811974048614502,"876":2.380140781402588,"877":1.8181447982788086,"878":0.1567552238702774,"879":2.1601145267486572,"880":1.2564167976379395,"881":6.89271879196167,"882":-4.7098164558410645,"883":-3.76922607421875,"884":-5.642889499664307,"885":1.705471158027649,"886":-6.742696285247803,"887":-2.221552848815918,"888":1.4750136137008667,"889":-3.958566665649414,"890":-2.265967607498169,"891":0.8530589938163757,"892":-4.849909782409668,"893":-2.146575689315796,"894":-0.37195447087287903,"895":-2.8070068359375,"896":-0.9012869596481323,"897":2.987725257873535,"898":4.386857986450195,"899":-3.715749979019165,"900":6.146037578582764,"901":-2.6532044410705566,"902":-4.104684352874756,"903":0.16783714294433594,"904":0.7162086367607117,"905":2.8283519744873047,"906":3.1209776401519775,"907":0.5932500958442688,"908":2.590120553970337,"909":-4.275655269622803,"910":-4.088490009307861,"911":6.232310771942139,"912":2.3192732334136963,"913":4.703065395355225,"914":-2.6810967922210693,"915":-1.8443853855133057,"916":3.439661979675293,"917":-0.9386075735092163,"918":-0.775866687297821,"919":2.3493950366973877,"920":2.9784786701202393,"921":-0.6032618880271912,"922":1.6463375091552734,"923":0.46039557456970215,"924":2.357178211212158,"925":-0.8705030679702759,"926":-1.9529109001159668,"927":6.925411701202393,"928":0.6065573692321777,"929":4.055429458618164,"930":-0.02283957041800022,"931":2.1856422424316406,"932":2.2438700199127197,"933":-2.9274933338165283,"934":-0.8589470982551575,"935":3.1557204723358154,"936":3.332880735397339,"937":-1.983813762664795,"938":-1.2634658813476562,"939":-6.116061210632324,"940":2.3623061180114746,"941":0.7526634335517883,"942":-5.483803749084473,"943":1.830722451210022,"944":-6.474164009094238,"945":-0.08214625716209412,"946":-1.094964861869812,"947":-3.7881720066070557,"948":0.9682237505912781,"949":2.684608221054077,"950":0.9703816771507263,"951":3.0386812686920166,"952":3.103762149810791,"953":-0.6144606471061707,"954":-2.137134313583374,"955":-1.9721027612686157,"956":-1.0196499824523926,"957":-2.228600025177002,"958":1.876441478729248,"959":-1.152774691581726,"960":0.1413455754518509,"961":2.769514799118042,"962":-1.4518789052963257,"963":-0.12095938622951508,"964":2.975144147872925,"965":5.377748489379883,"966":5.147221565246582,"967":0.8992879986763,"968":-2.8101024627685547,"969":0.24973070621490479,"970":-4.0905327796936035,"971":1.6050492525100708,"972":-3.8291172981262207,"973":-1.728379487991333,"974":0.5608808994293213,"975":-2.1122255325317383,"976":-2.142446279525757,"977":3.571132183074951,"978":0.30882471799850464,"979":-0.2541368305683136,"980":4.742351531982422,"981":-1.065398097038269,"982":-0.6843642592430115,"983":1.8699727058410645,"984":-1.2463866472244263,"985":-5.042714595794678,"986":-0.06852090358734131,"987":-0.14731307327747345,"988":-2.8355586528778076,"989":-1.5559407472610474,"990":3.9585931301116943,"991":-0.01662267930805683,"992":-2.7605700492858887,"993":-0.7742279767990112,"994":-0.2734104096889496,"995":-0.8963313102722168,"996":1.0400723218917847,"997":0.9893878698348999,"998":1.9769856929779053,"999":0.32037046551704407,"1000":-4.585662364959717,"1001":-0.255127489566803,"1002":1.0170083045959473,"1003":-2.601959466934204,"1004":-1.1490187644958496,"1005":-1.7003921270370483,"1006":-1.163577675819397,"1007":-0.5213531851768494,"1008":-0.20523995161056519,"1009":5.490413665771484,"1010":3.4396026134490967,"1011":-5.087925910949707,"1012":0.029257822781801224,"1013":2.065767288208008,"1014":-0.5870347619056702,"1015":1.377267837524414,"1016":2.9265024662017822,"1017":1.182600498199463,"1018":2.4991230964660645,"1019":6.4424333572387695,"1020":-0.7166692018508911,"1021":-1.2124502658843994,"1022":-1.4593929052352905,"1023":0.9229820370674133,"1024":2.5931198596954346,"1025":0.2389756590127945,"1026":1.387290596961975,"1027":2.949320077896118,"1028":2.534167766571045,"1029":0.7407380938529968,"1030":5.276187419891357,"1031":4.819640159606934,"1032":-1.4105433225631714,"1033":-1.3501979112625122,"1034":1.6052011251449585,"1035":-2.278488874435425,"1036":0.3434646725654602,"1037":0.567206859588623,"1038":0.516536295413971,"1039":4.491140842437744,"1040":5.051949977874756,"1041":1.1726272106170654,"1042":-0.17071613669395447,"1043":-2.5405168533325195,"1044":-1.3205790519714355,"1045":1.905285358428955,"1046":2.2971580028533936,"1047":-1.4986989498138428,"1048":6.825695991516113,"1049":3.637857437133789,"1050":4.806400299072266,"1051":-0.21016675233840942,"1052":0.11381939798593521,"1053":0.9185903072357178,"1054":1.685597538948059,"1055":1.0822508335113525,"1056":-2.925353765487671,"1057":-5.360030651092529,"1058":1.7566479444503784,"1059":-5.260448455810547,"1060":-5.323897838592529,"1061":-0.8535788059234619,"1062":4.726553440093994,"1063":2.506051540374756,"1064":0.5553085207939148,"1065":-0.8546540141105652,"1066":-0.2370712161064148,"1067":0.067144475877285,"1068":-2.9964747428894043,"1069":-0.6219702959060669,"1070":-2.9197545051574707,"1071":-0.2346450388431549,"1072":4.437853813171387,"1073":-1.1395409107208252,"1074":-0.22011587023735046,"1075":3.524764060974121,"1076":-2.788952350616455,"1077":1.6544169187545776,"1078":-0.6487817168235779,"1079":0.194130077958107,"1080":-0.523316502571106,"1081":-1.208526611328125,"1082":1.5208576917648315,"1083":-1.4683419466018677,"1084":-4.354709625244141,"1085":1.1488615274429321,"1086":3.9001264572143555,"1087":-1.3328170776367188,"1088":-0.004216592758893967,"1089":-2.9362597465515137,"1090":-0.25982189178466797,"1091":-0.61014723777771,"1092":0.3205486536026001,"1093":-0.8030965924263,"1094":1.5806382894515991,"1095":-2.744671583175659,"1096":-0.40293195843696594,"1097":0.81203693151474,"1098":-4.8965020179748535,"1099":3.153045177459717,"1100":-0.8277413249015808,"1101":-2.1666247844696045,"1102":2.6571896076202393,"1103":3.051422595977783,"1104":2.7112159729003906,"1105":0.014096846804022789,"1106":4.236673355102539,"1107":-3.653400182723999,"1108":-0.4790777266025543,"1109":1.4068297147750854,"1110":3.201209545135498,"1111":1.7044373750686646,"1112":0.577378511428833,"1113":2.976431369781494,"1114":-1.7368969917297363,"1115":0.41421955823898315,"1116":-1.8165994882583618,"1117":1.588840365409851,"1118":0.5279330611228943,"1119":-2.649343967437744,"1120":-0.21232306957244873,"1121":3.5795578956604004,"1122":1.3230966329574585,"1123":0.7241578102111816,"1124":2.551306962966919,"1125":-1.8714312314987183,"1126":-2.6485211849212646,"1127":-3.6908111572265625,"1128":0.11673875153064728,"1129":4.371016025543213,"1130":-0.3733960688114166,"1131":-4.438845157623291,"1132":1.8951053619384766,"1133":2.359312057495117,"1134":0.03683636710047722,"1135":-3.765728235244751,"1136":-0.2627086639404297,"1137":-0.5897579789161682,"1138":-1.1136515140533447,"1139":2.2454705238342285,"1140":2.333150625228882,"1141":-0.047590214759111404,"1142":-0.31355977058410645,"1143":1.7629176378250122,"1144":0.6641640663146973,"1145":-2.1892969608306885,"1146":-4.042600631713867,"1147":0.8681482076644897,"1148":-3.6463372707366943,"1149":0.8780086040496826,"1150":-0.3214951157569885,"1151":1.5943739414215088,"1152":-2.176826000213623,"1153":1.4687004089355469,"1154":-0.7810167074203491,"1155":-1.0263556241989136,"1156":2.0568735599517822,"1157":-2.1273105144500732,"1158":-3.7220966815948486,"1159":-0.24721123278141022,"1160":-2.1729323863983154,"1161":2.3078315258026123,"1162":4.376672744750977,"1163":2.1690335273742676,"1164":0.9313797950744629,"1165":3.0704565048217773,"1166":-3.0477097034454346,"1167":2.16568922996521,"1168":-3.5219037532806396,"1169":-1.3144248723983765,"1170":-2.202524185180664,"1171":1.1012417078018188,"1172":-2.213595390319824,"1173":0.08275631815195084,"1174":-2.401496171951294,"1175":-1.8601223230361938,"1176":0.6573724746704102,"1177":2.9545836448669434,"1178":-2.464470624923706,"1179":2.281825304031372,"1180":1.0262459516525269,"1181":1.394545316696167,"1182":2.5357885360717773,"1183":-1.2551230192184448,"1184":-2.3177599906921387,"1185":-1.7949243783950806,"1186":-1.6588083505630493,"1187":-2.1255133152008057,"1188":1.705344319343567,"1189":1.2157974243164062,"1190":1.5037288665771484,"1191":-1.818764090538025,"1192":-4.270691871643066,"1193":0.23649205267429352,"1194":3.1820015907287598,"1195":2.9106080532073975,"1196":2.6195950508117676,"1197":1.5412118434906006,"1198":-1.1920318603515625,"1199":-2.6798205375671387,"1200":1.7044483423233032,"1201":-2.3844003677368164,"1202":-1.9778162240982056,"1203":-0.6471206545829773,"1204":0.8055300116539001,"1205":-2.7959606647491455,"1206":2.442617416381836,"1207":-2.729285717010498,"1208":2.072614908218384,"1209":0.9166529178619385,"1210":-0.037714697420597076,"1211":1.8902229070663452,"1212":2.0075197219848633,"1213":-1.0824499130249023,"1214":-0.8731846213340759,"1215":-1.2602773904800415,"1216":-1.8306978940963745,"1217":-0.5154896378517151,"1218":-3.2592287063598633,"1219":3.9021878242492676,"1220":2.4543724060058594,"1221":2.459392547607422,"1222":4.03444242477417,"1223":3.454045534133911,"1224":0.8561974763870239,"1225":-0.9187354445457458,"1226":3.8487203121185303,"1227":2.5828311443328857,"1228":2.7549216747283936,"1229":0.18320737779140472,"1230":1.1678261756896973,"1231":2.116389036178589,"1232":-2.3340024948120117,"1233":1.9067976474761963,"1234":-2.9148190021514893,"1235":-0.32048189640045166,"1236":1.7514451742172241,"1237":-4.031062602996826,"1238":-3.2623131275177,"1239":2.3687312602996826,"1240":1.138649582862854,"1241":-0.03712599724531174,"1242":2.5269358158111572,"1243":0.5277671813964844,"1244":-1.904996395111084,"1245":-2.2876293659210205,"1246":-2.6815619468688965,"1247":2.03312349319458,"1248":3.3078715801239014,"1249":-1.4840229749679565,"1250":0.6827680468559265,"1251":-0.32920336723327637,"1252":-0.38111767172813416,"1253":-2.873936653137207,"1254":-0.5098767280578613,"1255":-1.5787982940673828,"1256":-2.444654941558838,"1257":0.9169163107872009,"1258":2.465546131134033,"1259":-0.6805886626243591,"1260":-1.6405152082443237,"1261":0.5868968963623047,"1262":1.7830393314361572,"1263":-1.696467638015747,"1264":-2.6274232864379883,"1265":-0.8309977054595947,"1266":-2.7992358207702637,"1267":-2.956723690032959,"1268":-3.403554916381836,"1269":1.410233497619629,"1270":-1.178432583808899,"1271":1.813164472579956,"1272":0.7840873599052429,"1273":-0.7485495209693909,"1274":3.815429449081421,"1275":1.9073857069015503,"1276":-2.2739124298095703,"1277":-1.145353078842163,"1278":-0.06450650095939636,"1279":2.0560555458068848,"1280":0.40776368975639343,"1281":1.9585946798324585,"1282":2.1853976249694824,"1283":2.1141438484191895,"1284":-1.5291688442230225,"1285":1.846015453338623,"1286":-1.3131225109100342,"1287":-2.1407887935638428,"1288":-3.7745962142944336,"1289":-1.874613642692566,"1290":-0.5026910305023193,"1291":2.0183348655700684,"1292":-1.971460223197937,"1293":2.1620330810546875,"1294":-2.049485683441162,"1295":2.4882428646087646,"1296":2.0184059143066406,"1297":1.905002236366272,"1298":1.5181329250335693,"1299":2.1575217247009277,"1300":0.10252172499895096,"1301":-1.5727590322494507,"1302":-4.041586875915527,"1303":-0.4434792101383209,"1304":-2.0679080486297607,"1305":-0.3445427119731903,"1306":3.8332908153533936,"1307":-1.3091434240341187,"1308":3.000314950942993,"1309":-3.069986343383789,"1310":-3.646932601928711,"1311":-3.596721887588501,"1312":3.6364383697509766,"1313":2.5197157859802246,"1314":4.006413459777832,"1315":-0.14460650086402893,"1316":0.04879938066005707,"1317":-3.429044008255005,"1318":0.20242689549922943,"1319":0.11281740665435791,"1320":-4.070377826690674,"1321":3.069277286529541,"1322":3.9622397422790527,"1323":-4.022133827209473,"1324":3.739084243774414,"1325":0.04369846731424332,"1326":0.2856985926628113,"1327":-4.293905258178711,"1328":0.7636778354644775,"1329":-3.609236240386963,"1330":1.1071373224258423,"1331":-2.8371877670288086,"1332":0.3763490915298462,"1333":4.221495628356934,"1334":-0.8350589275360107,"1335":-0.12364467233419418,"1336":-1.5857324600219727,"1337":-1.6378655433654785,"1338":1.963361382484436,"1339":0.16270864009857178,"1340":4.127362251281738,"1341":3.6693687438964844,"1342":0.2559506893157959,"1343":-3.6601476669311523,"1344":0.10000607371330261,"1345":2.852590799331665,"1346":4.166262626647949,"1347":0.2742517292499542,"1348":3.6123218536376953,"1349":1.7226229906082153,"1350":-1.1775168180465698,"1351":0.481128990650177,"1352":-3.1119112968444824,"1353":2.9176721572875977,"1354":4.181461811065674,"1355":-4.282130718231201,"1356":-3.673360586166382,"1357":3.33205509185791,"1358":3.8469879627227783,"1359":0.017820926383137703,"1360":3.7746803760528564,"1361":-3.7986156940460205,"1362":-1.1962411403656006,"1363":-2.2936582565307617,"1364":-3.983741521835327,"1365":2.6307950019836426,"1366":0.074569471180439,"1367":-3.219043016433716,"1368":-3.990888833999634,"1369":0.2140049785375595,"1370":3.6504065990448,"1371":-2.838930130004883,"1372":2.8858485221862793,"1373":-3.787438154220581,"1374":-2.249691963195801,"1375":0.36308541893959045,"1376":2.205470323562622,"1377":-0.16649062931537628,"1378":0.21334242820739746,"1379":0.39740270376205444,"1380":1.4586164951324463,"1381":-0.9586607813835144,"1382":-4.134823322296143,"1383":3.3865644931793213,"1384":-0.45115387439727783,"1385":1.9532920122146606,"1386":0.08100432902574539,"1387":1.775147795677185,"1388":-1.2467771768569946,"1389":1.7752200365066528,"1390":-0.6923006772994995,"1391":0.1481602042913437,"1392":1.2303894758224487,"1393":-0.12176968902349472,"1394":-1.5949715375900269,"1395":-0.3381659686565399,"1396":0.23488183319568634,"1397":3.934539556503296,"1398":0.2552611827850342,"1399":3.6100661754608154,"1400":0.9189010262489319,"1401":3.8035941123962402,"1402":-3.2551662921905518,"1403":1.4319899082183838,"1404":-2.083791494369507,"1405":-2.4806644916534424,"1406":-0.22750957310199738,"1407":3.142742156982422,"1408":0.40133821964263916,"1409":0.022495945915579796,"1410":-3.7945716381073,"1411":3.7750632762908936,"1412":0.17947116494178772,"1413":3.8282456398010254,"1414":3.9693210124969482,"1415":3.570777177810669,"1416":0.8214619159698486,"1417":4.115420341491699,"1418":-3.7687642574310303,"1419":-3.854534864425659,"1420":-0.48243826627731323,"1421":2.9698476791381836,"1422":-1.4381635189056396,"1423":3.04071044921875,"1424":3.9637227058410645,"1425":-0.07558413594961166,"1426":0.9650125503540039,"1427":0.2798013389110565,"1428":-0.4736464321613312,"1429":-3.366037607192993,"1430":0.018951386213302612,"1431":0.7524381279945374,"1432":2.939196825027466,"1433":-0.2534911036491394,"1434":-0.4581853449344635,"1435":-4.1714372634887695,"1436":2.9202849864959717,"1437":3.9254496097564697,"1438":3.064439296722412,"1439":3.868494987487793,"1440":-3.681519031524658,"1441":-4.052941799163818,"1442":-0.28047898411750793,"1443":4.072649002075195,"1444":-4.156747341156006,"1445":-0.3545147776603699,"1446":3.373554229736328,"1447":-3.832939624786377,"1448":1.4441747665405273,"1449":-0.40718576312065125,"1450":3.541217565536499,"1451":0.13622483611106873,"1452":4.016031742095947,"1453":-3.394571542739868,"1454":-0.31358572840690613,"1455":4.268021106719971,"1456":0.8451887369155884,"1457":-3.1543092727661133,"1458":3.621089458465576,"1459":0.3237287700176239,"1460":-0.07286158204078674,"1461":-3.85187029838562,"1462":3.08290433883667,"1463":0.6671348214149475,"1464":0.1555875539779663,"1465":-3.7787811756134033,"1466":3.9257280826568604,"1467":1.21860671043396,"1468":-1.3315815925598145,"1469":0.9887802004814148,"1470":-0.9292158484458923,"1471":0.2959947884082794,"1472":-0.3998708426952362,"1473":-4.543948650360107,"1474":-3.943204879760742,"1475":-0.05052006617188454,"1476":-4.2381463050842285,"1477":-3.6067843437194824,"1478":0.6620723009109497,"1479":-0.25427842140197754,"1480":-4.0353569984436035,"1481":3.042008399963379,"1482":-4.082454681396484,"1483":-2.907007932662964,"1484":0.260776549577713,"1485":-0.07703805714845657,"1486":-3.8811426162719727,"1487":4.330165863037109,"1488":3.952949047088623,"1489":-0.5071998834609985,"1490":0.4347211718559265,"1491":-0.09753207862377167,"1492":0.026119859889149666,"1493":0.36660894751548767,"1494":1.5835970640182495,"1495":4.328016757965088,"1496":3.657843589782715,"1497":0.4521426260471344,"1498":4.040891170501709,"1499":-0.6021025776863098,"1500":-0.5685147643089294,"1501":4.129586696624756,"1502":0.22577166557312012,"1503":0.3318957984447479,"1504":-4.026045799255371,"1505":-0.04242347180843353,"1506":3.487285852432251,"1507":-0.2517079710960388,"1508":-0.9900129437446594,"1509":4.389761924743652,"1510":1.353940486907959,"1511":-0.18451936542987823,"1512":-0.15713109076023102,"1513":-3.813678026199341,"1514":3.4864771366119385,"1515":-3.155418872833252,"1516":-3.856677770614624,"1517":3.675131320953369,"1518":0.6493287682533264,"1519":0.25734928250312805,"1520":-1.2890644073486328,"1521":0.4440101385116577,"1522":-0.1344882845878601,"1523":-3.0303919315338135,"1524":-0.997819721698761,"1525":4.0961737632751465,"1526":3.392174482345581,"1527":-3.198103904724121,"1528":-3.7339913845062256,"1529":-4.050941467285156,"1530":3.8190066814422607,"1531":-2.932704448699951,"1532":0.049115076661109924,"1533":0.44223886728286743,"1534":3.9338135719299316,"1535":3.745114326477051,"1536":-4.07990026473999,"1537":-3.9437294006347656,"1538":-0.3371162712574005,"1539":0.9318127036094666,"1540":-3.5065677165985107,"1541":0.6540732383728027,"1542":3.8961880207061768,"1543":-3.6094396114349365,"1544":0.5852055549621582,"1545":-4.175264358520508,"1546":-1.831296682357788,"1547":-0.9401907324790955,"1548":0.2527523934841156,"1549":2.532024621963501,"1550":4.21000337600708,"1551":4.127925872802734,"1552":-4.240368366241455,"1553":-2.911916494369507,"1554":3.7736990451812744,"1555":3.9724504947662354,"1556":0.9333760142326355,"1557":1.1492748260498047,"1558":-0.4120185077190399,"1559":-0.40555885434150696,"1560":0.16585031151771545,"1561":4.659637451171875,"1562":-1.2159422636032104,"1563":-0.38496631383895874,"1564":2.500566005706787,"1565":-1.3972065448760986,"1566":2.48829984664917,"1567":-4.0734543800354,"1568":0.4896705150604248,"1569":-0.03810539469122887,"1570":-0.28012606501579285,"1571":4.188711643218994,"1572":-1.1994646787643433,"1573":0.6254354119300842,"1574":3.4464879035949707,"1575":-2.9211065769195557,"1576":0.73885178565979,"1577":0.7375547885894775,"1578":-0.9949796199798584,"1579":-3.8043739795684814,"1580":3.4635753631591797,"1581":3.4937143325805664,"1582":-0.07851085811853409,"1583":3.590789318084717,"1584":3.9302713871002197,"1585":0.5617012977600098,"1586":-1.9123002290725708,"1587":0.4955817461013794,"1588":-0.2460484504699707,"1589":0.48739150166511536,"1590":0.04865293577313423,"1591":-0.726173996925354,"1592":-4.035177230834961,"1593":0.14250615239143372,"1594":-0.0027873425278812647,"1595":-0.28177928924560547,"1596":2.7395873069763184,"1597":-0.672008752822876,"1598":-2.2395081520080566,"1599":-2.1762709617614746,"1600":0.49549615383148193,"1601":0.21798112988471985,"1602":-3.7928099632263184,"1603":-0.6633113622665405,"1604":-3.8778586387634277,"1605":0.27526023983955383,"1606":0.4894316792488098,"1607":-0.697027325630188,"1608":0.6205937266349792,"1609":4.013397693634033,"1610":-3.550659656524658,"1611":3.7956247329711914,"1612":3.5418756008148193,"1613":0.13656781613826752,"1614":3.72194766998291,"1615":0.7230527997016907,"1616":1.8635034561157227,"1617":-0.8115146160125732,"1618":-2.884934425354004,"1619":1.013437271118164,"1620":-0.939064085483551,"1621":3.2557625770568848,"1622":-4.001513481140137,"1623":3.929543972015381,"1624":0.23387791216373444,"1625":4.26710319519043,"1626":-3.264495372772217,"1627":0.20746728777885437,"1628":0.3823499083518982,"1629":0.19366608560085297,"1630":3.7862651348114014,"1631":-4.141558647155762,"1632":0.30522605776786804,"1633":-1.099911093711853,"1634":-0.189817413687706,"1635":0.03616170957684517,"1636":4.2604851722717285,"1637":0.5062958598136902,"1638":-1.1219091415405273,"1639":3.7740442752838135,"1640":-4.408552646636963,"1641":-3.209437847137451,"1642":-0.7780396938323975,"1643":3.512284755706787,"1644":0.5422848463058472,"1645":0.21647213399410248,"1646":-3.6795756816864014,"1647":-0.676138699054718,"1648":4.157357692718506,"1649":-0.12230945378541946,"1650":-0.2712705731391907,"1651":1.903017520904541,"1652":0.4295007586479187,"1653":0.958135187625885,"1654":-4.246256351470947,"1655":0.1663866937160492,"1656":-0.18676725029945374,"1657":4.2062554359436035,"1658":-0.03450759872794151,"1659":4.388224124908447,"1660":4.116101264953613,"1661":-3.844266653060913,"1662":0.10826065391302109,"1663":-0.1612943708896637,"1664":-0.5745144486427307,"1665":-4.143677711486816,"1666":0.300910621881485,"1667":0.9467194080352783,"1668":3.9544811248779297,"1669":0.05161856859922409,"1670":-3.4707694053649902,"1671":-4.118874549865723,"1672":3.54774808883667,"1673":3.978699207305908,"1674":3.705768346786499,"1675":4.258719444274902,"1676":-4.21385383605957,"1677":-0.27854517102241516,"1678":-0.3294225335121155,"1679":0.010368984192609787,"1680":-3.699197292327881,"1681":-3.496669054031372,"1682":4.184770107269287,"1683":-3.7893989086151123,"1684":-0.5688518285751343,"1685":0.06330806016921997,"1686":4.1625566482543945,"1687":3.5159847736358643,"1688":3.944586753845215,"1689":-0.1874244213104248,"1690":-3.29106068611145,"1691":0.3935588598251343,"1692":0.3558143675327301,"1693":-3.999987840652466,"1694":0.4154704809188843,"1695":0.35560640692710876,"1696":-3.7846250534057617,"1697":0.6068981885910034,"1698":4.028343677520752,"1699":-0.006434154696762562,"1700":0.10229169577360153,"1701":-0.2465999871492386,"1702":-0.32858288288116455,"1703":-0.19900669157505035,"1704":-0.04014113172888756,"1705":0.15994682908058167,"1706":-0.004692029673606157,"1707":4.282732009887695,"1708":-3.945896863937378,"1709":-4.016892910003662,"1710":-4.023288249969482,"1711":-0.12641264498233795,"1712":-4.13517427444458,"1713":-3.120535135269165,"1714":0.13410069048404694,"1715":-3.564021587371826,"1716":-0.17290382087230682,"1717":-0.4678454101085663,"1718":-1.5309237241744995,"1719":-3.9891116619110107,"1720":-3.7469847202301025,"1721":-0.13109026849269867,"1722":-4.122699737548828,"1723":4.2753520011901855,"1724":3.7371392250061035,"1725":-0.38160261511802673,"1726":4.424335956573486,"1727":3.932481050491333,"1728":-4.163627624511719,"1729":-0.24252602458000183,"1730":0.3461639881134033,"1731":4.130265235900879,"1732":3.6793386936187744,"1733":0.24248859286308289,"1734":2.6281144618988037,"1735":0.07804929465055466,"1736":0.18464483320713043,"1737":4.017673492431641,"1738":-0.11284386366605759,"1739":4.093498229980469,"1740":-0.63351970911026,"1741":0.10758652538061142,"1742":4.47485876083374,"1743":0.08684753626585007,"1744":-1.0888079404830933,"1745":4.371842861175537,"1746":0.16170823574066162,"1747":0.08331616967916489,"1748":3.9642293453216553,"1749":0.10895795375108719,"1750":4.134385108947754,"1751":-3.8464412689208984,"1752":-4.302071571350098,"1753":0.05018099397420883,"1754":0.0083010233938694,"1755":0.1110067144036293,"1756":0.19568108022212982,"1757":0.21231088042259216,"1758":3.6990742683410645,"1759":-4.101266384124756,"1760":-0.1610906571149826,"1761":3.8212413787841797,"1762":4.56887674331665,"1763":-4.022533893585205,"1764":-0.03111606277525425,"1765":-3.666595220565796,"1766":3.787461280822754,"1767":-3.651061534881592,"1768":-4.077558517456055,"1769":0.03722386807203293,"1770":4.320446968078613,"1771":1.5203783512115479,"1772":-0.17717675864696503,"1773":-0.38542670011520386,"1774":-4.001417636871338,"1775":-3.876621961593628,"1776":-3.4733002185821533,"1777":-3.7227418422698975,"1778":-0.0801076889038086,"1779":-0.0717468112707138,"1780":3.9896247386932373,"1781":-0.07786773890256882,"1782":0.035201139748096466,"1783":0.4637329876422882,"1784":-0.13677458465099335,"1785":1.0428240299224854,"1786":-0.07846561074256897,"1787":3.8842475414276123,"1788":-2.6476223468780518,"1789":-0.2827834486961365,"1790":-4.406149864196777,"1791":3.862833261489868,"1792":-2.902446746826172,"1793":-0.15762731432914734,"1794":-0.4468524754047394,"1795":0.2100723683834076,"1796":-0.2250278890132904,"1797":3.8278374671936035,"1798":4.348849773406982,"1799":1.0667012929916382,"1800":0.4206891357898712,"1801":-0.16704633831977844,"1802":3.631577730178833,"1803":0.07431469112634659,"1804":-4.001766681671143,"1805":1.3789740800857544,"1806":-3.9343748092651367,"1807":4.189520835876465,"1808":-0.7244470715522766,"1809":-3.6412158012390137,"1810":1.5754998922348022,"1811":3.877074718475342,"1812":0.15769995748996735,"1813":0.5015875697135925,"1814":4.352301597595215,"1815":0.21645411849021912,"1816":-0.20531649887561798,"1817":0.43827295303344727,"1818":-2.7362940311431885,"1819":4.022475242614746,"1820":0.12030373513698578,"1821":3.6592953205108643,"1822":-4.5080695152282715,"1823":0.2476745843887329,"1824":-3.917572021484375,"1825":0.4118848145008087,"1826":-3.7177844047546387,"1827":-0.14461587369441986,"1828":-0.32108744978904724,"1829":0.2470695823431015,"1830":-4.510645389556885,"1831":0.13907475769519806,"1832":1.0708636045455933,"1833":0.3074548840522766,"1834":-4.086615085601807,"1835":-4.502627372741699,"1836":-0.3648429811000824,"1837":3.2190377712249756,"1838":0.11383063346147537,"1839":-3.043590545654297,"1840":-0.3109389841556549,"1841":-3.7181944847106934,"1842":-0.24615035951137543,"1843":-4.329753398895264,"1844":0.019978391006588936,"1845":-0.25305062532424927,"1846":-1.0377284288406372,"1847":3.8889381885528564,"1848":4.1266326904296875,"1849":-3.6570444107055664,"1850":-4.336893081665039,"1851":4.384042263031006,"1852":-0.017489157617092133,"1853":-3.663174867630005,"1854":-3.950549364089966,"1855":0.17672757804393768,"1856":-4.469371318817139,"1857":-4.3112945556640625,"1858":2.0131733417510986,"1859":3.404003381729126,"1860":-4.028531074523926,"1861":0.4821493923664093,"1862":-3.8078832626342773,"1863":-3.7566285133361816,"1864":4.48629903793335,"1865":4.113719463348389,"1866":-3.970777750015259,"1867":-0.48565003275871277,"1868":-3.7109270095825195,"1869":4.22931432723999,"1870":3.912384033203125,"1871":3.7702269554138184,"1872":0.1786821037530899,"1873":0.3407677412033081,"1874":-4.141206741333008,"1875":3.0056498050689697,"1876":-3.889064311981201,"1877":0.0029962370172142982,"1878":-3.6530017852783203,"1879":-0.19456139206886292,"1880":-3.6923277378082275,"1881":3.4569907188415527,"1882":1.7196476459503174,"1883":0.5481005907058716,"1884":3.7004480361938477,"1885":-3.7776060104370117,"1886":0.14064256846904755,"1887":0.21955300867557526,"1888":4.684526443481445,"1889":4.345559120178223,"1890":-0.4014788269996643,"1891":0.011524563655257225,"1892":-3.5712759494781494,"1893":-0.241862490773201,"1894":-0.34763890504837036,"1895":-0.5350170135498047,"1896":4.056884288787842,"1897":-0.020538391545414925,"1898":4.330688953399658,"1899":-4.069034099578857,"1900":-3.934976816177368,"1901":-4.019925594329834,"1902":4.159610748291016,"1903":0.8126828074455261,"1904":3.51764178276062,"1905":0.2438504546880722,"1906":0.06850588321685791,"1907":-4.2250075340271,"1908":3.415321111679077,"1909":-0.08536245673894882,"1910":-0.1225886419415474,"1911":1.0724412202835083,"1912":-3.8886425495147705,"1913":-4.340405464172363,"1914":4.071941375732422,"1915":-0.03181800618767738,"1916":-3.794818162918091,"1917":-3.078624963760376,"1918":0.13322287797927856,"1919":-0.1517888307571411,"1920":-0.19912570714950562,"1921":-4.029751300811768,"1922":2.721116065979004,"1923":3.619304895401001,"1924":-0.0019194444175809622,"1925":-0.05617612227797508,"1926":0.26232531666755676,"1927":4.052343368530273,"1928":4.831307888031006,"1929":-0.050396569073200226,"1930":4.496721267700195,"1931":4.3453145027160645,"1932":-3.6566739082336426,"1933":-3.700439453125,"1934":-0.05155985429883003,"1935":0.6227498650550842,"1936":4.072013854980469,"1937":-0.16547513008117676,"1938":3.178410291671753,"1939":0.14588548243045807,"1940":-0.21599391102790833,"1941":0.27605006098747253,"1942":-4.255432605743408,"1943":4.342519283294678,"1944":0.22711777687072754,"1945":-3.805715799331665,"1946":-4.6065673828125,"1947":0.19688186049461365,"1948":0.06472910940647125,"1949":-3.874614953994751,"1950":4.128440856933594,"1951":-0.278287798166275,"1952":-0.07063834369182587,"1953":-4.924055576324463,"1954":-3.660491943359375,"1955":-1.5091909170150757,"1956":-0.028826327994465828,"1957":-4.743489742279053,"1958":-3.891387701034546,"1959":4.1970930099487305,"1960":-0.38225057721138,"1961":-4.646644115447998,"1962":0.19274578988552094,"1963":-0.12344495207071304,"1964":-0.43059590458869934,"1965":0.19313855469226837,"1966":4.617610454559326,"1967":4.049439907073975,"1968":3.0450663566589355,"1969":0.2841225266456604,"1970":0.15189027786254883,"1971":-0.09360848367214203,"1972":-4.175828456878662,"1973":0.40954354405403137,"1974":-3.989938259124756,"1975":1.4957202672958374,"1976":-4.346816539764404,"1977":1.5979363918304443,"1978":4.107975006103516,"1979":0.26668813824653625,"1980":-0.3916438817977905,"1981":0.3185983896255493,"1982":0.07526589930057526,"1983":0.08876652270555496,"1984":-0.651710033416748,"1985":-0.025706695392727852,"1986":3.886516571044922,"1987":4.048098564147949,"1988":-4.141481399536133,"1989":3.905151844024658,"1990":0.2804543077945709,"1991":3.855975389480591,"1992":-3.8760149478912354,"1993":0.2248038947582245,"1994":-0.4565734565258026,"1995":-3.9699203968048096,"1996":-0.23261353373527527,"1997":0.7162435054779053,"1998":4.13885498046875,"1999":-3.6755690574645996,"2000":-4.039090156555176,"2001":0.15508338809013367,"2002":-0.11539696156978607,"2003":3.815539598464966,"2004":0.07887253165245056,"2005":3.8364908695220947,"2006":3.528033971786499,"2007":2.091066360473633,"2008":-2.974503517150879,"2009":-1.2905857563018799,"2010":-0.25159189105033875,"2011":-3.5265650749206543,"2012":-2.2406256198883057,"2013":0.8050408363342285,"2014":0.015548660419881344,"2015":-2.694955825805664,"2016":2.424880266189575,"2017":-1.985371708869934,"2018":-1.8183159828186035,"2019":-0.1421578973531723,"2020":0.1852084845304489,"2021":2.536466598510742,"2022":0.3384299576282501,"2023":2.335639715194702,"2024":-1.6142772436141968,"2025":-1.6135066747665405,"2026":-3.466825246810913,"2027":3.7029192447662354,"2028":-1.6928584575653076,"2029":2.23555326461792,"2030":-0.16939538717269897,"2031":-1.0781184434890747,"2032":0.05454501137137413,"2033":2.289118528366089,"2034":-2.5554184913635254,"2035":-1.2271654605865479,"2036":1.3775898218154907,"2037":-2.449089288711548,"2038":3.0209808349609375,"2039":-1.739619493484497,"2040":-3.6317758560180664,"2041":3.5553438663482666,"2042":-0.5867711901664734,"2043":2.919379472732544,"2044":-2.052172899246216,"2045":-1.0087385177612305,"2046":2.685676097869873,"2047":4.057850360870361,"2048":0.6326096653938293,"2049":2.0938336849212646,"2050":1.447275161743164,"2051":-2.0563831329345703,"2052":0.5098643898963928,"2053":1.7841405868530273,"2054":3.656749963760376,"2055":3.279811382293701,"2056":0.007155630271881819,"2057":2.9583847522735596,"2058":-2.646101951599121,"2059":0.7530686855316162,"2060":-3.309349775314331,"2061":2.5719614028930664,"2062":-3.470771074295044,"2063":-0.7158786058425903,"2064":-3.174928903579712,"2065":3.3587229251861572,"2066":-3.2963221073150635,"2067":-0.410050630569458,"2068":1.9662641286849976,"2069":-0.84035325050354,"2070":-2.197002410888672,"2071":-4.092711448669434,"2072":-3.9849741458892822,"2073":-0.3794694244861603,"2074":-1.309546947479248,"2075":-1.4013510942459106,"2076":-0.17243188619613647,"2077":0.31869766116142273,"2078":1.4350985288619995,"2079":-3.697268009185791,"2080":1.312272071838379,"2081":3.365654468536377,"2082":-1.7851982116699219,"2083":2.1366703510284424,"2084":3.3731484413146973,"2085":-3.5511226654052734,"2086":0.15911702811717987,"2087":2.344316244125366,"2088":1.1575117111206055,"2089":-2.9111995697021484,"2090":-3.643962860107422,"2091":1.9967968463897705,"2092":-2.193788528442383,"2093":1.527535080909729,"2094":0.1766868680715561,"2095":2.368823766708374,"2096":0.48845750093460083,"2097":2.881669044494629,"2098":-3.190530776977539,"2099":-2.8321454524993896,"2100":1.6859220266342163,"2101":-3.7988922595977783,"2102":-2.8154776096343994,"2103":-0.258095920085907,"2104":-2.66808819770813,"2105":3.859546184539795,"2106":-0.09061191231012344,"2107":3.6473217010498047,"2108":2.6095643043518066,"2109":2.852193593978882,"2110":-3.4656872749328613,"2111":2.8780629634857178,"2112":-3.1323201656341553,"2113":-1.224501609802246,"2114":-2.4253950119018555,"2115":2.0863757133483887,"2116":-2.3449416160583496,"2117":-0.6385951042175293,"2118":0.2699531018733978,"2119":-3.457991361618042,"2120":1.8650298118591309,"2121":0.19872120022773743,"2122":-3.713019847869873,"2123":2.1279144287109375,"2124":-0.6859616637229919,"2125":1.19281804561615,"2126":-2.270159959793091,"2127":1.4335741996765137,"2128":1.30156672000885,"2129":2.0274665355682373,"2130":-1.0425431728363037,"2131":0.4734099209308624,"2132":1.9372687339782715,"2133":-1.1335715055465698,"2134":-0.8949331045150757,"2135":-1.550869345664978,"2136":-1.4577032327651978,"2137":-1.3612908124923706,"2138":0.9673101305961609,"2139":1.2831931114196777,"2140":3.1594491004943848,"2141":-1.7218656539916992,"2142":-0.005408698692917824,"2143":-1.3404206037521362,"2144":3.2123777866363525,"2145":-0.49753281474113464,"2146":0.009560227394104004,"2147":2.2923882007598877,"2148":-1.072752594947815,"2149":-1.3644355535507202,"2150":1.1586147546768188,"2151":-2.4360883235931396,"2152":-2.758152723312378,"2153":-1.179508924484253,"2154":0.8973395824432373,"2155":-2.1808414459228516,"2156":1.1206376552581787,"2157":-0.8511131405830383,"2158":2.7375943660736084,"2159":0.2124972641468048,"2160":4.628288745880127,"2161":-2.0245985984802246,"2162":-1.2239069938659668,"2163":0.5201119184494019,"2164":0.7558427453041077,"2165":-4.111788272857666,"2166":1.194413423538208,"2167":0.9684540629386902,"2168":-1.57072913646698,"2169":-0.7334834337234497,"2170":2.4041740894317627,"2171":-0.20945021510124207,"2172":1.1057121753692627,"2173":-0.6032441258430481,"2174":1.3996342420578003,"2175":0.5507755875587463,"2176":-0.4770345091819763,"2177":1.1478748321533203,"2178":2.7810864448547363,"2179":1.5507296323776245,"2180":1.748932957649231,"2181":-1.2517763376235962,"2182":-0.7529496550559998,"2183":-2.083214044570923,"2184":2.4381983280181885,"2185":-1.9715310335159302,"2186":-0.11849348992109299,"2187":-1.6430916786193848,"2188":2.8667893409729004,"2189":0.6681965589523315,"2190":-1.6588220596313477,"2191":-1.6427453756332397,"2192":-1.0633268356323242,"2193":0.9293646216392517,"2194":-0.8358634114265442,"2195":1.3682230710983276,"2196":2.5384104251861572,"2197":4.624128341674805,"2198":1.368703007698059,"2199":-0.27895069122314453,"2200":-0.9102797508239746,"2201":-0.15767152607440948,"2202":0.573419988155365,"2203":1.4642832279205322,"2204":1.9087871313095093,"2205":-2.9586687088012695,"2206":2.124945878982544,"2207":-1.226271390914917,"2208":0.0033024356234818697,"2209":2.2979111671447754,"2210":3.203951597213745,"2211":2.0884242057800293,"2212":-3.7729451656341553,"2213":-2.082068681716919,"2214":2.6849443912506104,"2215":-1.7167938947677612,"2216":0.09208957105875015,"2217":1.2620525360107422,"2218":-3.875147581100464,"2219":-1.6860806941986084,"2220":0.8883851766586304,"2221":0.3889165222644806,"2222":1.8348444700241089,"2223":-1.6306324005126953,"2224":-2.858412504196167,"2225":1.172325611114502,"2226":0.39204055070877075,"2227":1.9671448469161987,"2228":-1.6046127080917358,"2229":0.6993089318275452,"2230":1.257174015045166,"2231":-2.0614778995513916,"2232":-0.30505695939064026,"2233":2.4579362869262695,"2234":1.7164900302886963,"2235":-3.018558979034424,"2236":-1.4659490585327148,"2237":0.7808948755264282,"2238":-2.300135374069214,"2239":1.5333105325698853,"2240":1.9763425588607788,"2241":1.2039560079574585,"2242":2.2085580825805664,"2243":2.5150363445281982,"2244":2.1152892112731934,"2245":3.102184534072876,"2246":-2.5605785846710205,"2247":2.011373281478882,"2248":-2.638700246810913,"2249":2.299044370651245,"2250":2.4570953845977783,"2251":2.999234199523926,"2252":1.5542112588882446,"2253":2.225862503051758,"2254":-2.4432520866394043,"2255":-1.772180199623108,"2256":2.1057865619659424,"2257":1.3316501379013062,"2258":1.6253106594085693,"2259":-2.6867527961730957,"2260":1.5003879070281982,"2261":-1.7790902853012085,"2262":1.2008872032165527,"2263":-3.2477619647979736,"2264":1.8209503889083862,"2265":2.9811458587646484,"2266":3.969054698944092,"2267":-1.5360091924667358,"2268":2.3908724784851074,"2269":-1.7939646244049072,"2270":-1.7746753692626953,"2271":-2.4032013416290283,"2272":-2.2028229236602783,"2273":-1.1441442966461182,"2274":-1.87581205368042,"2275":-3.2405872344970703,"2276":1.3957819938659668,"2277":1.8975083827972412,"2278":1.1941758394241333,"2279":-2.0452167987823486,"2280":2.5192201137542725,"2281":1.2780269384384155,"2282":2.8360862731933594,"2283":-1.2380038499832153,"2284":2.9014060497283936,"2285":2.397400379180908,"2286":-0.8773474097251892,"2287":-1.7921913862228394,"2288":-2.7659878730773926,"2289":-3.357184886932373,"2290":2.6772589683532715,"2291":-1.9143718481063843,"2292":2.324359893798828,"2293":-2.96456241607666,"2294":1.240783929824829,"2295":-2.332951784133911,"2296":1.8049083948135376,"2297":1.8912935256958008,"2298":2.9180703163146973,"2299":-1.4821686744689941,"2300":-1.8373141288757324,"2301":2.6557517051696777,"2302":1.724973201751709,"2303":-1.0945433378219604,"2304":2.278770923614502,"2305":-4.829250812530518,"2306":-3.618727207183838,"2307":-2.585474729537964,"2308":-2.441622734069824,"2309":-1.0473051071166992,"2310":2.057407855987549,"2311":-2.9305264949798584,"2312":-1.511481523513794,"2313":1.6592522859573364,"2314":-0.08047807961702347,"2315":-3.4995875358581543,"2316":1.7795244455337524,"2317":-2.4641454219818115,"2318":3.426480770111084,"2319":-1.7393043041229248,"2320":-0.8018607497215271,"2321":2.034921884536743,"2322":1.6651716232299805,"2323":-1.3018368482589722,"2324":-2.2009387016296387,"2325":1.6136542558670044,"2326":-2.1887271404266357,"2327":1.819610834121704,"2328":1.6582202911376953,"2329":1.7021079063415527,"2330":-1.3578325510025024,"2331":-2.438206434249878,"2332":1.556602120399475,"2333":-3.040343999862671,"2334":2.720034599304199,"2335":1.8654183149337769,"2336":-0.7021529078483582,"2337":-2.2731525897979736,"2338":0.2738388478755951,"2339":1.7963240146636963,"2340":1.9590009450912476,"2341":2.1540966033935547,"2342":-1.533217430114746,"2343":2.573399305343628,"2344":-3.2637014389038086,"2345":2.75921630859375,"2346":-3.0700788497924805,"2347":-2.759127140045166,"2348":1.6554266214370728,"2349":-0.9546123743057251,"2350":1.9041898250579834,"2351":1.7597123384475708,"2352":1.3117551803588867,"2353":-2.5632846355438232,"2354":-1.7077654600143433,"2355":1.7355207204818726,"2356":-2.2806637287139893,"2357":0.9916992783546448,"2358":1.509729266166687,"2359":2.827714681625366,"2360":1.8554860353469849,"2361":-0.22257214784622192,"2362":-1.0156848430633545,"2363":0.41164955496788025,"2364":2.020000457763672,"2365":-1.8761554956436157,"2366":6.832175254821777,"2367":-3.1304690837860107,"2368":1.986085295677185,"2369":1.0866384506225586,"2370":-3.3384881019592285,"2371":4.536807060241699,"2372":2.7541849613189697,"2373":4.03037691116333,"2374":-0.4939859211444855,"2375":-4.613309383392334,"2376":-1.566928744316101,"2377":2.504817247390747,"2378":-0.10851846635341644,"2379":6.337161064147949,"2380":-2.9754390716552734,"2381":-0.786540150642395,"2382":-2.987617254257202,"2383":-2.2933034896850586,"2384":2.005340337753296,"2385":3.40263295173645,"2386":-0.3049912452697754,"2387":-1.4873791933059692,"2388":-0.5952063202857971,"2389":3.738830327987671,"2390":2.355971336364746,"2391":-1.0258445739746094,"2392":2.4020066261291504,"2393":-2.1438870429992676,"2394":-4.561861515045166,"2395":3.6164731979370117,"2396":2.561898946762085,"2397":1.4381076097488403,"2398":5.688625335693359,"2399":-4.622406005859375,"2400":-1.1866766214370728,"2401":4.291834354400635,"2402":-2.043174982070923,"2403":-4.91174840927124,"2404":1.8815839290618896,"2405":-0.6437529921531677,"2406":1.9482380151748657,"2407":-3.5204248428344727,"2408":-0.9768052697181702,"2409":2.790525197982788,"2410":1.2391009330749512,"2411":-2.717602252960205,"2412":-1.9258220195770264,"2413":-1.9594807624816895,"2414":-0.6580784320831299,"2415":-5.635422706604004,"2416":-2.925926446914673,"2417":3.6499812602996826,"2418":1.9631434679031372,"2419":-1.5238789319992065,"2420":-1.8919870853424072,"2421":3.230107069015503,"2422":-4.696723937988281,"2423":4.6629157066345215,"2424":3.7466561794281006,"2425":-1.4423197507858276,"2426":1.3951823711395264,"2427":-4.055429458618164,"2428":1.377834677696228,"2429":1.8835999965667725,"2430":1.6150704622268677,"2431":-5.030797481536865,"2432":-5.390151023864746,"2433":2.0773568153381348,"2434":-6.054586410522461,"2435":3.3800599575042725,"2436":3.1364033222198486,"2437":0.7126690149307251,"2438":0.6041331887245178,"2439":-3.45674467086792,"2440":-3.3849995136260986,"2441":-4.129929542541504,"2442":-6.200059413909912,"2443":0.9669999480247498,"2444":2.925906181335449,"2445":0.7425759434700012,"2446":4.466865062713623,"2447":-0.048451103270053864,"2448":5.940063953399658,"2449":1.8059227466583252,"2450":-1.8323817253112793,"2451":1.5600059032440186,"2452":0.5633289217948914,"2453":-2.3704800605773926,"2454":-4.577282428741455,"2455":-2.022475242614746,"2456":1.3380701541900635,"2457":-0.3888450860977173,"2458":-5.634279251098633,"2459":-1.0066500902175903,"2460":3.338050127029419,"2461":2.2684566974639893,"2462":-1.5164778232574463,"2463":-3.635282278060913,"2464":2.210667133331299,"2465":-0.9999877214431763,"2466":-1.8492649793624878,"2467":3.4344263076782227,"2468":4.610717296600342,"2469":0.18688327074050903,"2470":-2.633427619934082,"2471":-1.8311164379119873,"2472":5.710262775421143,"2473":3.2017276287078857,"2474":-2.6269371509552,"2475":-1.0573874711990356,"2476":4.0515241622924805,"2477":-4.917447566986084,"2478":2.5568244457244873,"2479":-1.2638599872589111,"2480":0.3411796987056732,"2481":-3.9757330417633057,"2482":-0.032114360481500626,"2483":-1.7837885618209839,"2484":1.430807113647461,"2485":1.867090106010437,"2486":3.2517242431640625,"2487":1.7712544202804565,"2488":0.6937451958656311,"2489":-0.9868871569633484,"2490":5.066568374633789,"2491":1.3747782707214355,"2492":3.1004438400268555,"2493":-1.9681322574615479,"2494":3.0219597816467285,"2495":-1.9561647176742554,"2496":-0.09387163072824478,"2497":2.3601205348968506,"2498":1.5226141214370728,"2499":-2.1019256114959717,"2500":-1.8357157707214355,"2501":-4.032289981842041,"2502":0.9076789617538452,"2503":-2.5923328399658203,"2504":2.0407071113586426,"2505":-2.1863901615142822,"2506":2.3604719638824463,"2507":3.3307318687438965,"2508":-0.6998699903488159,"2509":2.317751169204712,"2510":-1.1418771743774414,"2511":-3.1268153190612793,"2512":0.9512521028518677,"2513":-2.0618860721588135,"2514":-2.0655179023742676,"2515":-2.4667840003967285,"2516":3.273617744445801,"2517":-2.2277638912200928,"2518":-1.5153857469558716,"2519":-1.6434786319732666,"2520":2.3397715091705322,"2521":-3.156036615371704,"2522":3.280198812484741,"2523":-1.612541675567627,"2524":-1.4641321897506714,"2525":0.7196812629699707,"2526":2.13968563079834,"2527":-1.306632399559021,"2528":3.5797038078308105,"2529":-2.764817476272583,"2530":1.5036925077438354,"2531":-2.4990527629852295,"2532":1.9633806943893433,"2533":-2.2617974281311035,"2534":1.5320011377334595,"2535":-0.07690689712762833,"2536":2.425992012023926,"2537":0.9387746453285217,"2538":2.4773366451263428,"2539":-1.3378962278366089,"2540":-5.022942543029785,"2541":-2.127082586288452,"2542":3.7112972736358643,"2543":1.2774087190628052,"2544":-3.180685520172119,"2545":3.5180001258850098,"2546":1.6767104864120483,"2547":-0.19327685236930847,"2548":-3.681814193725586,"2549":-1.5869255065917969,"2550":-0.14250174164772034,"2551":1.9191428422927856,"2552":-4.565907001495361,"2553":-0.509893000125885,"2554":1.7622753381729126,"2555":-0.9388274550437927,"2556":-1.9478800296783447,"2557":-3.566051959991455,"2558":-2.0919079780578613,"2559":-3.109922170639038,"2560":-1.0694351196289062,"2561":0.045909736305475235,"2562":-1.859816551208496,"2563":-1.5515742301940918,"2564":3.808361768722534,"2565":-3.6682803630828857,"2566":-3.6855454444885254,"2567":4.236935615539551,"2568":-3.3946197032928467,"2569":3.4177708625793457,"2570":1.53658926486969,"2571":-3.438854694366455,"2572":-3.7101552486419678,"2573":0.770217776298523,"2574":-1.6961668729782104,"2575":-3.5780482292175293,"2576":1.3923077583312988,"2577":0.9477207064628601,"2578":-1.06204092502594,"2579":3.1897740364074707,"2580":-3.883333921432495,"2581":-2.11275053024292,"2582":1.4490885734558105,"2583":-1.5111291408538818,"2584":-2.315363883972168,"2585":2.8137242794036865,"2586":1.9225431680679321,"2587":-2.769453525543213,"2588":-0.6124652028083801,"2589":-2.586066722869873,"2590":-4.334658622741699,"2591":2.5649118423461914,"2592":-1.1864293813705444,"2593":2.221968173980713,"2594":3.4350767135620117,"2595":-5.424860000610352,"2596":-2.20076584815979,"2597":-1.2800703048706055,"2598":-4.0058794021606445,"2599":-4.417634010314941,"2600":0.2014140486717224,"2601":-1.7753480672836304,"2602":2.9183709621429443,"2603":1.3675979375839233,"2604":3.639961004257202,"2605":0.34429672360420227,"2606":-3.608208179473877,"2607":-0.424341082572937,"2608":2.206132411956787,"2609":2.6372756958007812,"2610":-2.8386950492858887,"2611":-2.5316579341888428,"2612":0.5652887225151062,"2613":5.006908893585205,"2614":-2.1388566493988037,"2615":4.279361724853516,"2616":3.095076084136963,"2617":2.268315315246582,"2618":2.0387959480285645,"2619":-2.056218147277832,"2620":-5.189919471740723,"2621":2.9887630939483643,"2622":-2.0693907737731934,"2623":1.470906138420105,"2624":1.2708138227462769,"2625":2.6382694244384766,"2626":0.1650599241256714,"2627":0.09471357613801956,"2628":-0.10916205495595932,"2629":-1.270150065422058,"2630":-4.726132869720459,"2631":-0.42571738362312317,"2632":3.058309316635132,"2633":4.648726463317871,"2634":1.7462644577026367,"2635":-1.0470893383026123,"2636":-3.8290207386016846,"2637":-1.6378644704818726,"2638":-5.260647296905518,"2639":-5.007390975952148,"2640":-5.183366298675537,"2641":0.6737992763519287,"2642":4.3679399490356445,"2643":3.0808985233306885,"2644":-2.566366195678711,"2645":-1.1400307416915894,"2646":3.4779040813446045,"2647":-1.9554411172866821,"2648":1.3842614889144897,"2649":-0.21380415558815002,"2650":0.21583731472492218,"2651":-3.2851462364196777,"2652":0.36624592542648315,"2653":3.368708372116089,"2654":1.5675702095031738,"2655":-0.717155933380127,"2656":1.499440312385559,"2657":1.0131397247314453,"2658":-0.8619325757026672,"2659":2.935530185699463,"2660":2.4655351638793945,"2661":3.237766742706299,"2662":3.8342254161834717,"2663":-6.609592914581299,"2664":2.2656357288360596,"2665":3.1239092350006104,"2666":2.4567294120788574,"2667":-3.9354467391967773,"2668":0.3170318901538849,"2669":4.6410908699035645,"2670":-4.376586437225342,"2671":3.9601244926452637,"2672":3.3060343265533447,"2673":-1.1771413087844849,"2674":-2.5525052547454834,"2675":-2.063643455505371,"2676":-0.5085936784744263,"2677":-4.801733016967773,"2678":-4.1117401123046875,"2679":0.7315366268157959,"2680":3.1897265911102295,"2681":-1.027186393737793,"2682":2.665668249130249,"2683":-1.365850806236267,"2684":-0.9617436528205872,"2685":1.612359642982483,"2686":-1.6401567459106445,"2687":2.3696975708007812,"2688":2.8961877822875977,"2689":-2.8550868034362793,"2690":-2.4463107585906982,"2691":0.6100785136222839,"2692":3.5005064010620117,"2693":-1.111333966255188,"2694":-5.259388446807861,"2695":2.720156192779541,"2696":2.0685813426971436,"2697":0.1794520616531372,"2698":2.465212345123291,"2699":-3.247360944747925,"2700":0.6467568874359131,"2701":4.078513145446777,"2702":2.0569632053375244,"2703":1.1891651153564453,"2704":4.309935092926025,"2705":-2.1253902912139893,"2706":-2.2597768306732178,"2707":-1.7807519435882568,"2708":5.768033027648926,"2709":-0.9986940026283264,"2710":0.8918367028236389,"2711":-2.6622495651245117,"2712":3.741091012954712,"2713":-3.2668800354003906,"2714":5.120716571807861,"2715":1.1272121667861938,"2716":3.147343635559082,"2717":0.3924773037433624,"2718":-0.9608448147773743,"2719":0.7254216074943542,"2720":-1.7073436975479126,"2721":-0.5074863433837891,"2722":-2.8207600116729736,"2723":-1.0968044996261597,"2724":3.4777212142944336,"2725":1.0117161273956299,"2726":-2.768594741821289,"2727":-1.4584897756576538,"2728":4.001252174377441,"2729":1.657187819480896,"2730":-0.4954811930656433,"2731":-0.5217882394790649,"2732":4.028032302856445,"2733":-2.6859915256500244,"2734":-2.4395859241485596,"2735":-1.499658465385437,"2736":-0.5868045091629028,"2737":2.5069992542266846,"2738":-1.415138602256775,"2739":-2.893364191055298,"2740":3.6356799602508545,"2741":-1.078752040863037,"2742":0.9627283215522766,"2743":-1.7904950380325317,"2744":4.1483154296875,"2745":-2.5156548023223877,"2746":1.5811491012573242,"2747":0.017065543681383133,"2748":1.9710086584091187,"2749":3.318481206893921,"2750":-4.725372791290283,"2751":-2.5950429439544678,"2752":-2.9158666133880615,"2753":1.9886772632598877,"2754":1.563746452331543,"2755":3.9248554706573486,"2756":4.034637451171875,"2757":3.3822712898254395,"2758":1.9276013374328613,"2759":-0.8180574178695679,"2760":-0.3284437656402588,"2761":2.537397623062134,"2762":2.522822141647339,"2763":1.8985460996627808,"2764":-2.3008551597595215,"2765":2.373011589050293,"2766":-2.7852022647857666,"2767":1.063235878944397,"2768":-4.396300315856934,"2769":3.1345136165618896,"2770":-1.8803375959396362,"2771":-2.112283706665039,"2772":-3.176759719848633,"2773":4.816697597503662,"2774":-4.188173294067383,"2775":-2.7997283935546875,"2776":2.3640949726104736,"2777":-3.1911215782165527,"2778":-5.027376174926758,"2779":-3.2444963455200195,"2780":-4.410834312438965,"2781":-0.515417218208313,"2782":-1.6320561170578003,"2783":-2.744389772415161,"2784":-3.8311219215393066,"2785":1.8457767963409424,"2786":-0.2151540368795395,"2787":-3.0318121910095215,"2788":2.350912570953369,"2789":-0.41928863525390625,"2790":-3.4838974475860596,"2791":2.2962279319763184,"2792":2.0116074085235596,"2793":2.518902063369751,"2794":1.3448965549468994,"2795":4.011562824249268,"2796":3.435849666595459,"2797":-1.1630491018295288,"2798":-2.956320285797119,"2799":3.047732353210449,"2800":-3.5527586936950684,"2801":0.866457998752594,"2802":2.0626535415649414,"2803":-2.1027297973632812,"2804":2.194002389907837,"2805":0.5683034062385559,"2806":-1.4459288120269775,"2807":0.6766169667243958,"2808":3.177886962890625,"2809":-0.8495558500289917,"2810":-3.6813454627990723,"2811":1.4085464477539062,"2812":2.295142412185669,"2813":0.4615836441516876,"2814":-2.537846803665161,"2815":0.5854178667068481,"2816":0.030622221529483795,"2817":2.7477786540985107,"2818":-2.49412202835083,"2819":-3.393937349319458,"2820":-5.053959369659424,"2821":-0.9808933138847351,"2822":-3.0901646614074707,"2823":1.5304811000823975,"2824":1.9499001502990723,"2825":-1.5763839483261108,"2826":-2.823732376098633,"2827":1.07620370388031,"2828":-0.5085368156433105,"2829":4.08281135559082,"2830":-4.117729663848877,"2831":2.570486307144165,"2832":-1.7976429462432861,"2833":1.3202940225601196,"2834":-2.2510550022125244,"2835":-1.952329397201538,"2836":4.11079216003418,"2837":0.7728701233863831,"2838":3.016535758972168,"2839":1.586215853691101,"2840":2.2724413871765137,"2841":0.6012413501739502,"2842":-2.30603289604187,"2843":-1.5624582767486572,"2844":-0.9981117248535156,"2845":-0.8685534596443176,"2846":1.9132325649261475,"2847":-1.582527756690979,"2848":0.3275880813598633,"2849":2.1392714977264404,"2850":-3.307483196258545,"2851":2.922262191772461,"2852":2.083143472671509,"2853":-0.8410559296607971,"2854":1.4964754581451416,"2855":1.3277066946029663,"2856":0.6636714935302734,"2857":2.590487241744995,"2858":-3.6922104358673096,"2859":1.2125591039657593,"2860":-2.0434770584106445,"2861":1.7535364627838135,"2862":1.8258366584777832,"2863":-2.820061683654785,"2864":-1.1136072874069214,"2865":-1.5037686824798584,"2866":-3.536025285720825,"2867":-1.8595314025878906,"2868":2.8088090419769287,"2869":2.4983489513397217,"2870":1.7521988153457642,"2871":0.42333126068115234,"2872":-2.0992164611816406,"2873":-1.5488170385360718,"2874":-2.8915786743164062,"2875":-2.3703625202178955,"2876":-2.6660125255584717,"2877":-1.405524492263794,"2878":1.719483494758606,"2879":-1.4609590768814087,"2880":-2.248467206954956,"2881":-0.9206587076187134,"2882":2.2962183952331543,"2883":-2.5870707035064697,"2884":2.659452438354492,"2885":0.20957134664058685,"2886":1.9781708717346191,"2887":-2.1573941707611084,"2888":-3.3023159503936768,"2889":0.00628312211483717,"2890":-0.1988820731639862,"2891":-2.890363931655884,"2892":-1.6605559587478638,"2893":-1.390441656112671,"2894":-1.8940255641937256,"2895":2.6640355587005615,"2896":-0.4527066946029663,"2897":2.5977368354797363,"2898":2.689304828643799,"2899":-2.3059544563293457,"2900":1.4136178493499756,"2901":1.2861803770065308,"2902":1.5146914720535278,"2903":-2.3817708492279053,"2904":-0.46219485998153687,"2905":3.598240613937378,"2906":-2.5549228191375732,"2907":3.7278242111206055,"2908":1.7183178663253784,"2909":-1.8526750802993774,"2910":-2.892395496368408,"2911":-2.7045116424560547,"2912":2.3819568157196045,"2913":-2.5909247398376465,"2914":-3.479496717453003,"2915":2.241478443145752,"2916":2.6382968425750732,"2917":2.1890335083007812,"2918":2.1890523433685303,"2919":-0.9119263291358948,"2920":1.6047933101654053,"2921":0.7603541612625122,"2922":1.6443405151367188,"2923":-1.866416573524475,"2924":1.8110923767089844,"2925":-2.6980578899383545,"2926":-2.9030356407165527,"2927":1.9979803562164307,"2928":2.8951473236083984,"2929":0.6794797778129578,"2930":-3.052037239074707,"2931":1.7718966007232666,"2932":2.5261290073394775,"2933":1.511826992034912,"2934":3.6290528774261475,"2935":-2.843771457672119,"2936":2.6160309314727783,"2937":2.1924102306365967,"2938":2.482913017272949,"2939":-2.4914073944091797,"2940":1.9418240785598755,"2941":1.6784979104995728,"2942":1.1219466924667358,"2943":-0.9889097809791565,"2944":1.3791488409042358,"2945":-1.3491967916488647,"2946":-3.589108467102051,"2947":-2.090169906616211,"2948":-1.6762875318527222,"2949":-2.755220651626587,"2950":1.8603895902633667,"2951":-3.6890299320220947,"2952":3.941370725631714,"2953":1.186079502105713,"2954":-4.466261863708496,"2955":-1.290158987045288,"2956":-2.8194360733032227,"2957":-2.877260684967041,"2958":-2.398761510848999,"2959":4.10761022567749,"2960":3.9998979568481445,"2961":-1.0013890266418457,"2962":-2.5365145206451416,"2963":0.5961689352989197,"2964":3.3798298835754395,"2965":1.7754874229431152,"2966":-1.5329023599624634,"2967":-1.538398265838623,"2968":1.4267646074295044,"2969":-3.1439969539642334,"2970":-0.5760695934295654,"2971":-3.0199954509735107,"2972":-1.8305103778839111,"2973":-4.650598526000977,"2974":-2.6993472576141357,"2975":-3.6524581909179688,"2976":3.6004385948181152,"2977":-0.4089682102203369,"2978":2.086135149002075,"2979":-1.4894832372665405,"2980":2.0463144779205322,"2981":4.772823810577393,"2982":1.158510684967041,"2983":3.590374708175659,"2984":3.217393398284912,"2985":-0.1422557234764099,"2986":-1.9973191022872925,"2987":-0.9460161328315735,"2988":-1.9103195667266846,"2989":4.441840648651123,"2990":1.4189790487289429,"2991":0.4958778917789459,"2992":0.9932867288589478,"2993":3.2782304286956787,"2994":-3.6498167514801025,"2995":1.1132408380508423,"2996":-1.0475746393203735,"2997":3.6030261516571045,"2998":-0.08870279788970947,"2999":-3.905154228210449,"3000":-4.553624153137207,"3001":2.004288911819458,"3002":-0.7486287355422974,"3003":2.1014349460601807,"3004":-3.087240219116211,"3005":0.703801155090332,"3006":-0.6946440935134888,"3007":-3.407702684402466,"3008":-1.7273578643798828,"3009":2.5069451332092285,"3010":0.46705758571624756,"3011":-3.616370677947998,"3012":1.4361841678619385,"3013":-0.11455604434013367,"3014":-2.7129015922546387,"3015":-1.4013153314590454,"3016":-0.4620298743247986,"3017":1.4702980518341064,"3018":4.713006973266602,"3019":-3.443925380706787,"3020":-2.713083028793335,"3021":3.3690426349639893,"3022":-1.9449307918548584,"3023":-1.3213355541229248,"3024":3.361236095428467,"3025":-4.963902950286865,"3026":-2.593491315841675,"3027":-2.5942230224609375,"3028":1.5056800842285156,"3029":3.2711410522460938,"3030":-1.2943834066390991,"3031":1.170013189315796,"3032":-0.73374342918396,"3033":3.8209266662597656,"3034":-3.017484188079834,"3035":0.9101232886314392,"3036":-3.213730812072754,"3037":-2.965616226196289,"3038":1.0518290996551514,"3039":-0.7282333970069885,"3040":2.995826482772827,"3041":-2.4092788696289062,"3042":-2.0798699855804443,"3043":3.132092237472534,"3044":3.4651522636413574,"3045":-0.5267179608345032,"3046":-1.006222128868103,"3047":2.1427204608917236,"3048":2.8057310581207275,"3049":3.9871084690093994,"3050":-3.411109685897827,"3051":-4.536411762237549,"3052":3.964769124984741,"3053":3.841172218322754,"3054":-0.3301810920238495,"3055":-0.6165989637374878,"3056":-0.6289505958557129,"3057":-1.7711315155029297,"3058":-2.8222155570983887,"3059":-3.1841673851013184,"3060":2.9826080799102783,"3061":3.767230749130249,"3062":-1.6706581115722656,"3063":2.211545944213867,"3064":-1.995397925376892,"3065":0.3870084285736084,"3066":4.148529529571533,"3067":2.12054705619812,"3068":1.1277879476547241,"3069":-0.7037050724029541,"3070":2.705597400665283,"3071":-2.650693893432617,"3072":1.178017020225525,"3073":-1.94463312625885,"3074":2.8211684226989746,"3075":2.216287612915039,"3076":1.487323522567749,"3077":2.910959482192993,"3078":0.564396321773529,"3079":1.4400105476379395,"3080":1.8188265562057495,"3081":2.535717725753784,"3082":2.0983071327209473,"3083":-2.3489723205566406,"3084":2.102660894393921,"3085":0.7133416533470154,"3086":2.939467191696167,"3087":-1.4042747020721436,"3088":2.882584571838379,"3089":0.019685937091708183,"3090":-2.3644354343414307,"3091":-3.321247100830078,"3092":-4.1516432762146,"3093":-3.0703189373016357,"3094":1.9579877853393555,"3095":-1.7930039167404175,"3096":3.254594326019287,"3097":2.9829838275909424,"3098":-0.6726112365722656,"3099":3.0427682399749756,"3100":-1.1174490451812744,"3101":-0.911129355430603,"3102":-0.8226813673973083,"3103":0.19848354160785675,"3104":-0.017873065546154976,"3105":-3.595496892929077,"3106":2.9223034381866455,"3107":-0.7013490796089172,"3108":-2.2403323650360107,"3109":-2.501546859741211,"3110":0.4511464238166809,"3111":-2.7534019947052,"3112":0.20850695669651031,"3113":1.6084678173065186,"3114":1.758262038230896,"3115":2.124373197555542,"3116":0.24750776588916779,"3117":-3.333125352859497,"3118":1.720337986946106,"3119":-3.1140174865722656,"3120":-0.00030417495872825384,"3121":-2.8047049045562744,"3122":-0.11598251014947891,"3123":-2.1493327617645264,"3124":2.920388698577881,"3125":1.1702642440795898,"3126":1.5822697877883911,"3127":2.4781296253204346,"3128":0.269472599029541,"3129":-2.8168883323669434,"3130":-2.888314962387085,"3131":1.9135048389434814,"3132":2.654905080795288,"3133":-0.05083896219730377,"3134":-0.7261821031570435,"3135":-1.5509172677993774,"3136":3.3431496620178223,"3137":-1.9852294921875,"3138":-2.5187878608703613,"3139":-1.157004714012146,"3140":-2.2546660900115967,"3141":2.2185420989990234,"3142":-3.2243120670318604,"3143":-0.4216919243335724,"3144":1.6528282165527344,"3145":-3.0292654037475586,"3146":-2.65360164642334,"3147":-1.667834758758545,"3148":-2.3006298542022705,"3149":-2.1773054599761963,"3150":-1.9951879978179932,"3151":2.4799396991729736,"3152":-2.0589470863342285,"3153":0.3677902817726135,"3154":1.7019743919372559,"3155":-2.70689058303833,"3156":0.2510170638561249,"3157":1.0193983316421509,"3158":2.1565072536468506,"3159":2.1445279121398926,"3160":3.0986223220825195,"3161":-1.0162111520767212,"3162":-1.1751329898834229,"3163":-0.6814353466033936,"3164":-3.050269842147827,"3165":-2.792053699493408,"3166":0.06048966571688652,"3167":1.0776317119598389,"3168":-0.3041589856147766,"3169":-0.2634109854698181,"3170":-0.9489006400108337,"3171":-2.0358264446258545,"3172":3.970348358154297,"3173":-3.350222587585449,"3174":-1.5097254514694214,"3175":2.6258468627929688,"3176":2.4358813762664795,"3177":-3.4820220470428467,"3178":2.7304656505584717,"3179":-1.4215621948242188,"3180":1.555354356765747,"3181":3.1731555461883545,"3182":-2.000753164291382,"3183":-0.2828448414802551,"3184":3.4827234745025635,"3185":1.1478646993637085,"3186":2.5518457889556885,"3187":-1.86013662815094,"3188":0.08108242601156235,"3189":-0.23563939332962036,"3190":1.7985529899597168,"3191":-3.354419231414795,"3192":3.114079236984253,"3193":-5.624971866607666,"3194":2.0668647289276123,"3195":-0.05571025609970093,"3196":-2.6862852573394775,"3197":2.9379518032073975,"3198":6.203388690948486,"3199":7.823606967926025,"3200":0.40251100063323975,"3201":0.6291075348854065,"3202":1.6436148881912231,"3203":4.883825302124023,"3204":0.48337236046791077,"3205":-0.4854269325733185,"3206":-0.8130694627761841,"3207":-2.471912384033203,"3208":-7.346904754638672,"3209":-8.175540924072266,"3210":-5.204918384552002,"3211":2.6386144161224365,"3212":-0.7605835795402527,"3213":-2.394951820373535,"3214":4.602422714233398,"3215":2.4955625534057617,"3216":-0.3199865520000458,"3217":0.8355996012687683,"3218":-0.0928809866309166,"3219":-1.311382532119751,"3220":-4.318209171295166,"3221":-2.8444600105285645,"3222":3.257974863052368,"3223":2.395665407180786,"3224":1.4026716947555542,"3225":3.1285104751586914,"3226":1.0667734146118164,"3227":3.1852667331695557,"3228":-3.406031608581543,"3229":-1.6452858448028564,"3230":-3.7306406497955322,"3231":4.8155670166015625,"3232":0.8224973678588867,"3233":4.2518696784973145,"3234":-1.9782787561416626,"3235":0.04186819866299629,"3236":-2.028668165206909,"3237":0.603743851184845,"3238":-0.8033783435821533,"3239":-4.039973258972168,"3240":1.9770957231521606,"3241":-0.08691447228193283,"3242":2.6118388175964355,"3243":5.4704718589782715,"3244":0.061614781618118286,"3245":-2.427605152130127,"3246":1.30009925365448,"3247":0.36730465292930603,"3248":-4.728077411651611,"3249":5.09043550491333,"3250":4.474864959716797,"3251":-2.412344455718994,"3252":-0.9686681032180786,"3253":-2.205618381500244,"3254":-1.751376986503601,"3255":1.6955156326293945,"3256":-2.562655210494995,"3257":-4.523266792297363,"3258":-7.736921787261963,"3259":5.734227180480957,"3260":-3.7148232460021973,"3261":2.295705795288086,"3262":1.9941314458847046,"3263":1.8601490259170532,"3264":0.5322232842445374,"3265":-4.831068515777588,"3266":-6.681612014770508,"3267":-5.884581565856934,"3268":-6.039187431335449,"3269":2.6469242572784424,"3270":-2.963813066482544,"3271":-0.5662438869476318,"3272":0.858487069606781,"3273":-2.3981502056121826,"3274":-2.242906332015991,"3275":3.3145968914031982,"3276":-0.6680987477302551,"3277":3.499276638031006,"3278":1.3551509380340576,"3279":-4.151316165924072,"3280":-4.539083480834961,"3281":-3.035165786743164,"3282":0.7007210850715637,"3283":-0.6652352213859558,"3284":-2.0006191730499268,"3285":-1.868312120437622,"3286":2.6726980209350586,"3287":-4.21972131729126,"3288":1.2980926036834717,"3289":-2.0109429359436035,"3290":1.566049337387085,"3291":0.020124385133385658,"3292":-2.0033934116363525,"3293":2.7818217277526855,"3294":0.5769038200378418,"3295":-3.545734405517578,"3296":-1.0806770324707031,"3297":5.999408721923828,"3298":2.040318012237549,"3299":8.389147758483887,"3300":-6.639126300811768,"3301":-4.399819850921631,"3302":8.84841537475586,"3303":-2.257603645324707,"3304":-4.465672016143799,"3305":-1.6939831972122192,"3306":-3.4138338565826416,"3307":0.5451716184616089,"3308":0.02986029163002968,"3309":-0.027455445379018784,"3310":2.5938754081726074,"3311":3.1936020851135254,"3312":6.299042701721191,"3313":1.164042592048645,"3314":-5.4465131759643555,"3315":-4.389604091644287,"3316":2.7230026721954346,"3317":-0.6098676919937134,"3318":-1.9241855144500732,"3319":-3.379974365234375,"3320":0.29864099621772766,"3321":3.563739776611328,"3322":-1.17389976978302,"3323":3.4904696941375732,"3324":4.512324810028076,"3325":2.825871229171753,"3326":3.7911064624786377,"3327":-1.4860819578170776,"3328":1.2130999565124512,"3329":1.342712640762329,"3330":-4.513380527496338,"3331":5.215137004852295,"3332":-1.3988676071166992,"3333":3.025557518005371,"3334":-2.4995968341827393,"3335":0.9842687249183655,"3336":-3.153071641921997,"3337":-2.051450729370117,"3338":-1.1833505630493164,"3339":-3.4247663021087646,"3340":5.377382755279541,"3341":1.2346676588058472,"3342":1.632866382598877,"3343":-1.6874655485153198,"3344":-3.3341333866119385,"3345":-2.959113836288452,"3346":-6.50651216506958,"3347":-3.404151439666748,"3348":1.2565569877624512,"3349":2.5110116004943848,"3350":3.7966480255126953,"3351":-3.5631749629974365,"3352":-3.6314797401428223,"3353":1.4553253650665283,"3354":2.3937671184539795,"3355":-3.123934745788574,"3356":3.3880693912506104,"3357":-2.9773824214935303,"3358":3.1576621532440186,"3359":-2.946195602416992,"3360":1.4831879138946533,"3361":0.4209657311439514,"3362":3.2013256549835205,"3363":-1.9307076930999756,"3364":3.45145845413208,"3365":0.9981978535652161,"3366":-0.8003933429718018,"3367":1.747545838356018,"3368":1.1445986032485962,"3369":3.9493634700775146,"3370":3.1531553268432617,"3371":-1.7477149963378906,"3372":1.8236827850341797,"3373":3.01265549659729,"3374":3.8672187328338623,"3375":-3.1352648735046387,"3376":2.913750648498535,"3377":4.825895309448242,"3378":-0.8153547644615173,"3379":1.8016878366470337,"3380":3.0094027519226074,"3381":-0.9218812584877014,"3382":-3.304823637008667,"3383":-3.6651432514190674,"3384":3.7450342178344727,"3385":-4.865149974822998,"3386":0.5897638201713562,"3387":-0.1136990636587143,"3388":5.901619911193848,"3389":-0.9487386345863342,"3390":4.03741979598999,"3391":3.0378212928771973,"3392":-6.565827369689941,"3393":0.6699174046516418,"3394":-1.6899291276931763,"3395":-1.1214791536331177,"3396":3.72830867767334,"3397":-3.8827731609344482,"3398":-4.866106986999512,"3399":3.9781858921051025,"3400":5.45044469833374,"3401":-0.370478093624115,"3402":-0.4282864034175873,"3403":-2.9321212768554688,"3404":2.2811810970306396,"3405":2.7417104244232178,"3406":0.173574760556221,"3407":-0.7024229168891907,"3408":3.4091343879699707,"3409":-1.0985116958618164,"3410":4.428399562835693,"3411":-0.8821920156478882,"3412":2.899085521697998,"3413":1.6730692386627197,"3414":-2.0830790996551514,"3415":-2.007859706878662,"3416":-1.9500600099563599,"3417":-4.7636942863464355,"3418":0.06920701265335083,"3419":-4.950838088989258,"3420":-1.0660933256149292,"3421":-2.1789581775665283,"3422":1.82938814163208,"3423":4.803973197937012,"3424":-0.6136357188224792,"3425":5.312454700469971,"3426":1.0289136171340942,"3427":0.9453586935997009,"3428":1.2934430837631226,"3429":2.55310320854187,"3430":-3.5644402503967285,"3431":-1.2197272777557373,"3432":-1.040189504623413,"3433":3.651931047439575,"3434":-3.562628984451294,"3435":2.534860134124756,"3436":0.9886393547058105,"3437":1.0601415634155273,"3438":1.9350793361663818,"3439":-3.0748369693756104,"3440":-2.8144419193267822,"3441":-3.152831792831421,"3442":-0.8922462463378906,"3443":0.25265777111053467,"3444":-0.6689775586128235,"3445":3.443195104598999,"3446":3.0211122035980225,"3447":-0.20508740842342377,"3448":1.5835065841674805,"3449":-2.623912811279297,"3450":-3.8277907371520996,"3451":-4.979879379272461,"3452":4.825894832611084,"3453":-5.352740287780762,"3454":1.2611372470855713,"3455":-2.0955162048339844,"3456":-1.3056447505950928,"3457":5.058134078979492,"3458":1.8544834852218628,"3459":-0.7417048811912537,"3460":-0.5303586721420288,"3461":-0.08458214998245239,"3462":6.455896377563477,"3463":1.139665126800537,"3464":-0.6165002584457397,"3465":5.794156551361084,"3466":-0.28837907314300537,"3467":-2.980370283126831,"3468":-2.98563289642334,"3469":-4.333241939544678,"3470":3.9952070713043213,"3471":1.535348892211914,"3472":-3.6149706840515137,"3473":1.4781138896942139,"3474":-1.8749974966049194,"3475":0.08914640545845032,"3476":4.108211040496826,"3477":6.0608320236206055,"3478":-0.15022115409374237,"3479":-4.186295986175537,"3480":-2.3091824054718018,"3481":-0.8525492548942566,"3482":-0.39936915040016174,"3483":1.930452585220337,"3484":3.2505300045013428,"3485":-2.9684040546417236,"3486":2.8032658100128174,"3487":-5.679388999938965,"3488":-2.5420897006988525,"3489":0.18184062838554382,"3490":-0.9901347160339355,"3491":-3.7774393558502197,"3492":-0.5128670930862427,"3493":3.4425649642944336,"3494":2.894322633743286,"3495":-4.0616455078125,"3496":5.085856914520264,"3497":-3.6151533126831055,"3498":-0.740066647529602,"3499":1.3264838457107544,"3500":2.2243096828460693,"3501":1.6332364082336426,"3502":1.299239993095398,"3503":0.10099733620882034,"3504":-0.4353940784931183,"3505":0.2296154946088791,"3506":-5.589630126953125,"3507":5.711228370666504,"3508":0.6845496296882629,"3509":0.7371528148651123,"3510":1.734696626663208,"3511":-1.2283891439437866,"3512":1.1882429122924805,"3513":-3.5455715656280518,"3514":-0.9778209924697876,"3515":3.839059591293335,"3516":-0.1635083258152008,"3517":-5.589710712432861,"3518":-0.7936064600944519,"3519":2.8007712364196777,"3520":3.142793893814087,"3521":3.2788236141204834,"3522":-3.871518611907959,"3523":1.631115198135376,"3524":-3.924421787261963,"3525":3.141920804977417,"3526":-2.838043212890625,"3527":1.5746747255325317,"3528":2.344909191131592,"3529":1.1579526662826538,"3530":-1.6365649700164795,"3531":3.9842164516448975,"3532":3.44822359085083,"3533":-3.6161081790924072,"3534":-3.278625965118408,"3535":1.3869600296020508,"3536":-5.954896926879883,"3537":2.919567823410034,"3538":-2.5117344856262207,"3539":2.980085611343384,"3540":0.3409842550754547,"3541":-2.338857412338257,"3542":3.779435157775879,"3543":-1.80144202709198,"3544":-3.9985969066619873,"3545":-2.3836846351623535,"3546":-2.009307384490967,"3547":-0.4038349986076355,"3548":-2.3671751022338867,"3549":3.6409871578216553,"3550":4.185626029968262,"3551":-4.048135757446289,"3552":0.31001749634742737,"3553":-0.04149370267987251,"3554":-1.7874811887741089,"3555":-3.8461270332336426,"3556":-3.30294132232666,"3557":0.4396006464958191,"3558":1.1059335470199585,"3559":3.269376516342163,"3560":-1.9421343803405762,"3561":-2.338151216506958,"3562":0.0888761430978775,"3563":-0.4510854184627533,"3564":4.152676582336426,"3565":0.5805022716522217,"3566":3.2131540775299072,"3567":3.3935673236846924,"3568":1.1102230548858643,"3569":3.289114236831665,"3570":-3.7286808490753174,"3571":3.9764564037323,"3572":-2.316362142562866,"3573":-0.4662263095378876,"3574":-0.3266386389732361,"3575":-3.8074135780334473,"3576":-3.5068423748016357,"3577":0.8169339299201965,"3578":2.3107056617736816,"3579":2.0901577472686768,"3580":-4.584841251373291,"3581":0.007092767860740423,"3582":-0.35905659198760986,"3583":-3.3070592880249023,