{"type":"LSTM","options":{"inputSize":5,"inputRange":5,"hiddenLayers":[20,20],"outputSize":5,"decayRate":0.999,"smoothEps":1e-8,"regc":0.000001,"clipval":5,"maxPredictionLength":100,"dataFormatter":{"values":["----C---- ---PC---- ---PC-C-- P--PC-C-- P--PC-C-C P-PPC-C-C P-PPC-CCC","--C------ --C--P--- --C--PC-- -PC--PC-- -PCC-PC-- -PCCPPC-- -PCCPPCC- PPCCPPCC- PPCCPPCCC","--------P -C------P -C-----PP -C--C--PP -CP-C--PP -CP-CC-PP PCP-CC-PP PCP-CCCPP PCPPCCCPP","---C----- ---C--P-- ---C--PC- -P-C--PC- -P-CC-PC- -P-CC-PCP CP-CC-PCP CPPCC-PCP CPPCCCPCP","-----P--- -C---P--- PC---P--- PC-C-P--- PCPC-P--- PCPC-P-C- PCPC-PPC- PCPCCPPC-","-------C- ---P---C- --CP---C- --CPP--C- --CPPC-C- P-CPPC-C- P-CPPC-CC","----C---- ----C-P-- C---C-P-- C-P-C-P-- C-PCC-P-- CPPCC-P-- CPPCC-P-C","--------P C-------P C--P----P C--P--C-P C--P--CPP C-CP--CPP C-CP-PCPP C-CPCPCPP","-----C--- -----C-P- --C--C-P- --CP-C-P- -CCP-C-P- -CCPPC-P- -CCPPCCP- -CCPPCCPP CCCPPCCPP","---C----- P--C----- P-CC----- P-CC-P--- P-CCCP--- P-CCCP-P- P-CCCPCP-","C-------- C--P----- C--P--C-- C-PP--C-- C-PP--C-C CPPP--C-C CPPP-CC-C CPPPPCC-C CPPPPCCCC","-------P- ----C--P- --P-C--P- C-P-C--P- CPP-C--P- CPP-C-CP- CPP-CPCP- CPPCCPCP-"],"indexTable":{"-":0,"C":1," ":2,"P":3,"unrecognized":4},"characterTable":{"0":"-","1":"C","2":" ","3":"P","4":null},"characters":["-","C"," ","P","unrecognized"],"specialIndexes":[4]}},"input":{"rows":6,"columns":5,"weights":{"0":-0.0750834196805954,"1":0.1595665067434311,"2":0.007800954859703779,"3":0.2591509222984314,"4":-0.08143647760152817,"5":-0.5144136548042297,"6":0.7563905119895935,"7":0.31258946657180786,"8":0.08772748708724976,"9":0.036262962967157364,"10":1.3824012279510498,"11":-1.4409939050674438,"12":-0.9464715719223022,"13":0.0032798449974507093,"14":-0.4837510883808136,"15":1.0605177879333496,"16":0.5622465014457703,"17":-0.5537911057472229,"18":0.4037030339241028,"19":0.8878927826881409,"20":0.22034898400306702,"21":0.6120601892471313,"22":-1.162788987159729,"23":0.8203045725822449,"24":1.471925139427185,"25":0.0630088597536087,"26":-0.018755821511149406,"27":0.04742889106273651,"28":0.05117100104689598,"29":-0.01251846831291914}},"hiddenLayers":[{"inputMatrix":{"rows":20,"columns":5,"weights":{"0":0.7552492618560791,"1":1.3200019598007202,"2":-1.2011046409606934,"3":1.943221092224121,"4":0.33304381370544434,"5":0.6267586350440979,"6":-0.17806267738342285,"7":0.016885502263903618,"8":-0.6413546204566956,"9":-1.283640742301941,"10":0.738438069820404,"11":1.573801875114441,"12":-1.4635423421859741,"13":2.513739585876465,"14":0.5569433569908142,"15":-0.4459073543548584,"16":-0.02542983740568161,"17":0.9108189344406128,"18":-0.33642128109931946,"19":-1.0903383493423462,"20":0.6719334125518799,"21":-0.1522660106420517,"22":-0.1489693820476532,"23":0.23283018171787262,"24":-1.5524799823760986,"25":-0.4935761094093323,"26":-0.11096350103616714,"27":0.3489243984222412,"28":-0.17731808125972748,"29":-1.4009724855422974,"30":-0.637221097946167,"31":-0.48520317673683167,"32":0.38787055015563965,"33":-0.4292149841785431,"34":-0.10186395049095154,"35":0.610295295715332,"36":0.5892662405967712,"37":-1.480101466178894,"38":1.6064118146896362,"39":-0.78017258644104,"40":1.0406434535980225,"41":1.1559466123580933,"42":-1.347876787185669,"43":1.1647099256515503,"44":0.1782921701669693,"45":0.10963721573352814,"46":-0.536429226398468,"47":-0.36174529790878296,"48":0.6275652050971985,"49":-0.9087872505187988,"50":-0.0136331832036376,"51":-0.32967615127563477,"52":0.29524335265159607,"53":-0.7073031663894653,"54":-0.8323681354522705,"55":-0.2036566585302353,"56":0.35946422815322876,"57":0.03497904911637306,"58":0.08068614453077316,"59":0.711771547794342,"60":1.4753981828689575,"61":0.1004503145813942,"62":0.47915786504745483,"63":-0.6933783888816833,"64":-2.0607948303222656,"65":0.14877456426620483,"66":0.37121936678886414,"67":-0.8853400945663452,"68":0.9301538467407227,"69":-0.2839854061603546,"70":0.3128650188446045,"71":0.7183272242546082,"72":-2.2732481956481934,"73":1.9511644840240479,"74":-0.2773435413837433,"75":0.18176782131195068,"76":-0.1249302476644516,"77":-0.15539982914924622,"78":0.2885127365589142,"79":-1.3811588287353516,"80":0.20164693892002106,"81":1.525437831878662,"82":-0.8134980797767639,"83":1.1425225734710693,"84":2.209040880203247,"85":-0.22338689863681793,"86":1.5372570753097534,"87":-1.407505750656128,"88":2.0178050994873047,"89":0.18516325950622559,"90":0.10485195368528366,"91":-0.9618691205978394,"92":0.7443411946296692,"93":-1.4016900062561035,"94":-1.2545782327651978,"95":-0.4817715585231781,"96":2.114670753479004,"97":-0.3956957757472992,"98":1.040155053138733,"99":0.9701339602470398}},"inputHidden":{"rows":20,"columns":20,"weights":{"0":-2.6666359901428223,"1":0.01880764216184616,"2":-1.6148627996444702,"3":-0.4837935268878937,"4":0.41280850768089294,"5":-0.5015866756439209,"6":-1.20437753200531,"7":2.4028587341308594,"8":2.4953384399414062,"9":-0.052434999495744705,"10":1.3734370470046997,"11":-0.050238318741321564,"12":-0.32936492562294006,"13":-0.8979934453964233,"14":-0.5909287929534912,"15":1.234625220298767,"16":-1.0703184604644775,"17":0.3114728033542633,"18":-0.2820180058479309,"19":-0.6997422575950623,"20":0.46674254536628723,"21":-0.2782819867134094,"22":-0.8886845707893372,"23":1.9251012802124023,"24":-2.0753517150878906,"25":1.5750855207443237,"26":0.7552967071533203,"27":-0.9128075242042542,"28":-1.741953730583191,"29":-0.362964391708374,"30":0.2630441188812256,"31":-0.025760730728507042,"32":0.8469625115394592,"33":0.8346618413925171,"34":-1.0315402746200562,"35":-1.3158042430877686,"36":1.6896635293960571,"37":-0.5132776498794556,"38":-2.945051908493042,"39":-0.1099669560790062,"40":-0.06598319113254547,"41":2.018789768218994,"42":2.125441551208496,"43":-0.24527354538440704,"44":0.623934268951416,"45":-3.2902698516845703,"46":-0.7607240676879883,"47":-0.6059315204620361,"48":-0.17090192437171936,"49":-0.05561384558677673,"50":-0.39006903767585754,"51":0.14265500009059906,"52":0.7764248847961426,"53":0.22093114256858826,"54":0.8266451358795166,"55":1.3284409046173096,"56":-0.3494027256965637,"57":0.595273494720459,"58":0.83952796459198,"59":-1.6487607955932617,"60":-1.9568681716918945,"61":1.5991475582122803,"62":0.0904904156923294,"63":-3.149472713470459,"64":1.4958962202072144,"65":-0.682969868183136,"66":-2.0169692039489746,"67":0.18606717884540558,"68":0.5141457915306091,"69":1.807142734527588,"70":0.3059765696525574,"71":1.816329002380371,"72":0.005332709290087223,"73":-1.4445383548736572,"74":-0.2521285116672516,"75":0.649120569229126,"76":0.7813612818717957,"77":0.7510074973106384,"78":1.3253436088562012,"79":0.5731954574584961,"80":-0.49817216396331787,"81":0.862950325012207,"82":0.2146245241165161,"83":-2.6886634826660156,"84":0.7444921731948853,"85":-0.323303759098053,"86":-1.6272093057632446,"87":1.2039880752563477,"88":-1.0828220844268799,"89":1.5239852666854858,"90":-0.7804076671600342,"91":0.5749813318252563,"92":0.5615135431289673,"93":-1.0184696912765503,"94":-1.157954454421997,"95":-1.2038252353668213,"96":1.1112858057022095,"97":-1.4771052598953247,"98":0.7423386573791504,"99":0.03509331867098808,"100":1.016318678855896,"101":2.4495179653167725,"102":1.262285590171814,"103":1.7223787307739258,"104":-0.49068012833595276,"105":2.324592113494873,"106":-0.46026912331581116,"107":-1.0036238431930542,"108":-1.0896161794662476,"109":-0.3056384027004242,"110":0.49948248267173767,"111":2.2072794437408447,"112":-1.7329720258712769,"113":-1.0472568273544312,"114":-1.6179332733154297,"115":0.7596685886383057,"116":0.6984921097755432,"117":-1.309762716293335,"118":-0.7662850618362427,"119":0.6565206050872803,"120":-0.23341389000415802,"121":-0.5041235089302063,"122":0.019872412085533142,"123":-2.0332210063934326,"124":1.5727946758270264,"125":-0.353952020406723,"126":-1.2939212322235107,"127":1.7001054286956787,"128":-0.5458260774612427,"129":0.9099816679954529,"130":1.0416405200958252,"131":1.547157883644104,"132":-1.1378564834594727,"133":-1.8107506036758423,"134":2.1428027153015137,"135":1.20979642868042,"136":-0.037162914872169495,"137":1.474766731262207,"138":1.3910746574401855,"139":0.3745138943195343,"140":0.23431822657585144,"141":-0.4691597819328308,"142":0.3499337136745453,"143":2.2671797275543213,"144":-0.8294450044631958,"145":-0.7501974701881409,"146":0.018975291401147842,"147":0.355000376701355,"148":-0.5358548760414124,"149":-1.6010397672653198,"150":-1.2805529832839966,"151":-1.4357149600982666,"152":-2.781521797180176,"153":-2.3065478801727295,"154":0.8216162323951721,"155":0.7967329621315002,"156":0.2601580023765564,"157":1.371338129043579,"158":-1.1303763389587402,"159":0.8757398128509521,"160":-1.268294095993042,"161":1.1114152669906616,"162":-0.791205108165741,"163":1.1706836223602295,"164":1.3561190366744995,"165":-0.24652840197086334,"166":0.7932912707328796,"167":2.668944835662842,"168":1.3570477962493896,"169":1.028072714805603,"170":1.9880064725875854,"171":0.1619512289762497,"172":-0.6921370029449463,"173":-0.6841945052146912,"174":0.8766942024230957,"175":0.8398602604866028,"176":0.17704950273036957,"177":1.8431330919265747,"178":0.8702750205993652,"179":0.07331202924251556,"180":-0.6408274173736572,"181":1.8458408117294312,"182":-1.8555058240890503,"183":-2.7216365337371826,"184":0.10064475238323212,"185":-1.2253265380859375,"186":-1.5602442026138306,"187":0.0953247919678688,"188":-1.6469799280166626,"189":1.0878498554229736,"190":2.021076202392578,"191":1.5163097381591797,"192":-1.204846739768982,"193":-1.5261152982711792,"194":1.0440213680267334,"195":1.2341690063476562,"196":0.973732590675354,"197":0.6419538259506226,"198":0.160032257437706,"199":-1.0922694206237793,"200":0.8415179252624512,"201":-0.8880581259727478,"202":-0.4203609228134155,"203":-1.779497742652893,"204":1.7376539707183838,"205":1.4323363304138184,"206":-1.3577227592468262,"207":-2.2713265419006348,"208":-1.2957874536514282,"209":2.126335620880127,"210":-0.20303459465503693,"211":0.8509699106216431,"212":-0.14772702753543854,"213":-0.20637740194797516,"214":-0.289895623922348,"215":-1.346603512763977,"216":0.4881173372268677,"217":-1.0396040678024292,"218":-0.09317508339881897,"219":-1.697210431098938,"220":-1.5417672395706177,"221":-1.6039440631866455,"222":1.43350088596344,"223":-1.0384597778320312,"224":1.4585543870925903,"225":-0.1506083607673645,"226":-0.3251403272151947,"227":-0.46400728821754456,"228":2.574202299118042,"229":0.0011010203743353486,"230":-0.0655287653207779,"231":0.28827351331710815,"232":3.50402569770813,"233":-0.010795248672366142,"234":2.0022099018096924,"235":-0.6795622110366821,"236":0.161618173122406,"237":3.050290822982788,"238":1.5530824661254883,"239":-0.6193158626556396,"240":-1.0753612518310547,"241":-0.6183462142944336,"242":0.1859118491411209,"243":-0.4882211685180664,"244":-0.7396784424781799,"245":2.7061808109283447,"246":0.9826748371124268,"247":1.6406669616699219,"248":2.0306904315948486,"249":-0.6963381767272949,"250":0.470307320356369,"251":1.5565046072006226,"252":1.06435227394104,"253":1.8684850931167603,"254":0.9201086759567261,"255":-1.9249826669692993,"256":-1.7286077737808228,"257":0.7660137414932251,"258":1.260983943939209,"259":0.821575939655304,"260":0.03872281685471535,"261":3.0790278911590576,"262":3.0847232341766357,"263":-0.39877849817276,"264":1.2910245656967163,"265":-2.1682393550872803,"266":0.43804144859313965,"267":1.7102453708648682,"268":-0.6648016571998596,"269":3.341109037399292,"270":0.14617405831813812,"271":2.050884246826172,"272":0.1399247944355011,"273":0.9537952542304993,"274":0.09260290116071701,"275":0.9376071691513062,"276":2.7007884979248047,"277":-0.17504748702049255,"278":0.5584020614624023,"279":-0.9512050747871399,"280":-1.100090742111206,"281":0.6466859579086304,"282":2.1181492805480957,"283":-0.2002977579832077,"284":-0.5494055151939392,"285":0.17931179702281952,"286":0.6409679651260376,"287":0.9045926332473755,"288":1.1351362466812134,"289":0.09548836946487427,"290":-0.3773235082626343,"291":0.7632078528404236,"292":-2.356025218963623,"293":-0.5953261256217957,"294":0.7566819190979004,"295":1.3492183685302734,"296":1.5039595365524292,"297":0.6487380862236023,"298":-0.940969705581665,"299":0.019663885235786438,"300":0.3380495309829712,"301":-1.7403762340545654,"302":1.8485853672027588,"303":0.9246633052825928,"304":-0.25049030780792236,"305":1.3776835203170776,"306":1.6736401319503784,"307":-0.6904076337814331,"308":0.41758209466934204,"309":-0.4979828894138336,"310":1.8898900747299194,"311":1.7862565517425537,"312":-0.23575113713741302,"313":1.3729891777038574,"314":1.5002506971359253,"315":0.37930625677108765,"316":1.3565479516983032,"317":0.19651980698108673,"318":-1.1203060150146484,"319":0.7922282218933105,"320":-0.06887269765138626,"321":-0.2218218892812729,"322":-0.34442082047462463,"323":1.0807114839553833,"324":-0.8061175346374512,"325":-1.1628473997116089,"326":-0.019227612763643265,"327":2.0131986141204834,"328":-0.2943887710571289,"329":-1.367849588394165,"330":-0.02398006245493889,"331":-0.17757545411586761,"332":-1.5151430368423462,"333":-2.2441020011901855,"334":1.6118841171264648,"335":0.27506905794143677,"336":0.2068251073360443,"337":0.7777377963066101,"338":-1.2358638048171997,"339":0.21710649132728577,"340":-0.8649168014526367,"341":2.9224581718444824,"342":0.2722555100917816,"343":0.2963058054447174,"344":0.9108397960662842,"345":0.420030415058136,"346":0.2657026946544647,"347":0.9174013733863831,"348":0.7548031210899353,"349":0.6826807856559753,"350":0.18715660274028778,"351":0.28714194893836975,"352":-2.459949493408203,"353":0.03906906768679619,"354":0.0370633490383625,"355":1.3534519672393799,"356":1.586488127708435,"357":0.04111303389072418,"358":-1.0308537483215332,"359":1.2522990703582764,"360":1.1640567779541016,"361":0.4077460467815399,"362":-0.9513636827468872,"363":0.16229712963104248,"364":1.2517194747924805,"365":-0.4825926721096039,"366":-0.006150005850940943,"367":0.5616561770439148,"368":-1.1340783834457397,"369":-0.03194292262196541,"370":-1.5813777446746826,"371":-3.667546510696411,"372":0.9303561449050903,"373":1.5444051027297974,"374":-0.2175697535276413,"375":0.0533636100590229,"376":-0.767618715763092,"377":0.3239685595035553,"378":0.46170738339424133,"379":-1.298836350440979,"380":0.12698958814144135,"381":2.203927993774414,"382":-0.37530675530433655,"383":0.3386114537715912,"384":2.087472915649414,"385":-0.3920462131500244,"386":-0.012368036434054375,"387":0.5544551610946655,"388":0.021692505106329918,"389":1.6958866119384766,"390":0.4857560396194458,"391":0.12714453041553497,"392":-1.2336708307266235,"393":-2.371159076690674,"394":0.3040904700756073,"395":0.6980761289596558,"396":1.0885688066482544,"397":0.27532681822776794,"398":-0.25318360328674316,"399":0.6046797037124634}},"inputBias":{"rows":20,"columns":1,"weights":{"0":-2.06616473197937,"1":-2.0482940673828125,"2":-0.33526700735092163,"3":0.7635034918785095,"4":-0.08295730501413345,"5":1.932684302330017,"6":2.066509246826172,"7":0.3127855360507965,"8":2.424680709838867,"9":-0.8357755541801453,"10":-0.19518199563026428,"11":0.4701829254627228,"12":-2.471519708633423,"13":2.5165317058563232,"14":-1.127825140953064,"15":0.31618764996528625,"16":-1.3032923936843872,"17":0.25738367438316345,"18":0.0019862623885273933,"19":1.260057806968689}},"forgetMatrix":{"rows":20,"columns":5,"weights":{"0":-0.2046276032924652,"1":-1.0363783836364746,"2":0.36041101813316345,"3":-0.3640410006046295,"4":1.8079224824905396,"5":2.1851766109466553,"6":1.4622732400894165,"7":-1.7781622409820557,"8":2.49029803276062,"9":0.9645397067070007,"10":-0.4977535307407379,"11":-1.6439321041107178,"12":1.4935574531555176,"13":-2.385145425796509,"14":-1.9663403034210205,"15":0.6468489766120911,"16":-1.7358314990997314,"17":0.6923852562904358,"18":-1.6818668842315674,"19":-1.5183955430984497,"20":-0.013686682097613811,"21":0.7929195165634155,"22":0.43864431977272034,"23":-0.4335716664791107,"24":2.2645087242126465,"25":0.08690769225358963,"26":2.0494956970214844,"27":-0.5350964665412903,"28":0.9807747602462769,"29":0.7606500387191772,"30":-0.0724930539727211,"31":-1.1477159261703491,"32":0.7226167321205139,"33":-1.3415745496749878,"34":-0.19182831048965454,"35":-0.38327690958976746,"36":-0.08973323553800583,"37":0.5897740125656128,"38":-0.7496740221977234,"39":0.9674287438392639,"40":0.24501745402812958,"41":-1.1898107528686523,"42":0.2969508767127991,"43":-0.5794153809547424,"44":0.11596427857875824,"45":0.17722108960151672,"46":-2.1418817043304443,"47":0.7220913171768188,"48":-1.7188568115234375,"49":-1.398006558418274,"50":0.15574374794960022,"51":0.044840775430202484,"52":-0.3901061713695526,"53":0.5858694314956665,"54":1.0938763618469238,"55":-0.5943241715431213,"56":-2.371720552444458,"57":1.2919832468032837,"58":-1.85017991065979,"59":-2.206815719604492,"60":-0.5597254037857056,"61":0.8295084834098816,"62":-0.298587441444397,"63":1.6187248229980469,"64":-0.09875011444091797,"65":1.6045119762420654,"66":-0.34948182106018066,"67":-2.28458571434021,"68":2.5704009532928467,"69":2.406280994415283,"70":-0.9437046051025391,"71":-1.838189721107483,"72":0.36707624793052673,"73":-0.6709967255592346,"74":-2.700364828109741,"75":0.10949160158634186,"76":0.9134805202484131,"77":-1.347872018814087,"78":2.1868844032287598,"79":0.5295528769493103,"80":0.35171571373939514,"81":-0.09273645281791687,"82":0.18636858463287354,"83":-0.3069780468940735,"84":0.042242031544446945,"85":-0.7952147126197815,"86":-0.7151632308959961,"87":-0.3795921206474304,"88":0.3043137788772583,"89":0.09439992159605026,"90":1.2505507469177246,"91":-0.22044311463832855,"92":-0.3266197144985199,"93":0.13901925086975098,"94":-1.3763175010681152,"95":0.4405611455440521,"96":1.1593835353851318,"97":-0.49110811948776245,"98":0.42339739203453064,"99":-0.2879765033721924}},"forgetHidden":{"rows":20,"columns":20,"weights":{"0":1.4861648082733154,"1":0.09617011249065399,"2":-0.8533512949943542,"3":0.09286512434482574,"4":-1.7387665510177612,"5":-0.3148869574069977,"6":-0.5327699184417725,"7":-3.4689829349517822,"8":-2.8156323432922363,"9":-2.1133904457092285,"10":-2.214399576187134,"11":-2.684586763381958,"12":0.5613054633140564,"13":1.4240227937698364,"14":-1.288570761680603,"15":-2.213083505630493,"16":-0.9476251602172852,"17":-1.2596248388290405,"18":-0.3768131732940674,"19":-0.12677685916423798,"20":2.2376315593719482,"21":-0.625253438949585,"22":0.7731910347938538,"23":-0.9400028586387634,"24":-0.5713776350021362,"25":1.2811920642852783,"26":-1.3544741868972778,"27":-1.3638999462127686,"28":-0.8718149065971375,"29":-0.8970216512680054,"30":-1.0266177654266357,"31":1.303138017654419,"32":0.02861981838941574,"33":2.1606388092041016,"34":-0.5426105260848999,"35":-1.1700128316879272,"36":0.6645073294639587,"37":-1.7907418012619019,"38":-4.068283557891846,"39":-1.3036260604858398,"40":2.572676420211792,"41":-2.3783280849456787,"42":1.958373785018921,"43":1.5094671249389648,"44":1.7110329866409302,"45":0.835034191608429,"46":-1.2256325483322144,"47":0.36771419644355774,"48":-2.0799386501312256,"49":0.9235326647758484,"50":2.1378612518310547,"51":0.06703676283359528,"52":-1.5828567743301392,"53":-0.19158396124839783,"54":-1.868989109992981,"55":-1.2304108142852783,"56":-1.3079088926315308,"57":-1.5690966844558716,"58":-2.853057861328125,"59":-1.0546220541000366,"60":-1.5209146738052368,"61":-0.6988446116447449,"62":-1.1169084310531616,"63":-1.059653878211975,"64":0.8117892146110535,"65":1.0201666355133057,"66":-0.9254772067070007,"67":-0.945990800857544,"68":1.0700258016586304,"69":0.7988703846931458,"70":0.6776912808418274,"71":0.3262612521648407,"72":0.6672183275222778,"73":-0.004313802812248468,"74":0.15996591746807098,"75":0.15262041985988617,"76":-0.9154053926467896,"77":0.26919034123420715,"78":0.4456137716770172,"79":0.16579820215702057,"80":-1.189491868019104,"81":0.5390994548797607,"82":0.055979929864406586,"83":-0.5738198757171631,"84":2.50394606590271,"85":0.7899242043495178,"86":-1.003716230392456,"87":-1.8564397096633911,"88":0.03504788130521774,"89":2.228900909423828,"90":0.6921481490135193,"91":-0.6269320249557495,"92":0.2921874225139618,"93":-0.6673952341079712,"94":-0.9495612382888794,"95":0.12018141150474548,"96":1.3394873142242432,"97":-1.0518494844436646,"98":1.8128236532211304,"99":-0.43554309010505676,"100":0.6105840802192688,"101":-0.39178892970085144,"102":2.189011573791504,"103":0.5426338911056519,"104":-1.586954116821289,"105":0.6331356763839722,"106":1.5798940658569336,"107":-0.1903596669435501,"108":0.714851975440979,"109":-1.2210739850997925,"110":-1.5475049018859863,"111":0.8304833173751831,"112":-0.37803947925567627,"113":2.318101644515991,"114":0.37425848841667175,"115":-0.3089156448841095,"116":-1.2745521068572998,"117":-1.3688199520111084,"118":-2.713578701019287,"119":-1.5220757722854614,"120":-1.8773244619369507,"121":1.2589503526687622,"122":-0.9289051294326782,"123":-0.8463135361671448,"124":0.9591324925422668,"125":1.340896725654602,"126":-1.3267592191696167,"127":-0.8870500326156616,"128":1.0421748161315918,"129":1.0018813610076904,"130":0.0266408808529377,"131":-0.9401102662086487,"132":1.9919520616531372,"133":-0.20604607462882996,"134":-1.134528636932373,"135":1.1848207712173462,"136":0.14535869657993317,"137":-1.6509228944778442,"138":0.6818028688430786,"139":2.892334461212158,"140":1.6210123300552368,"141":0.4091496765613556,"142":0.8930532932281494,"143":1.0436838865280151,"144":0.4667453169822693,"145":-1.5274853706359863,"146":4.435121059417725,"147":-0.23708654940128326,"148":-3.0237879753112793,"149":0.34324589371681213,"150":-2.916337490081787,"151":-1.0901356935501099,"152":-1.618134617805481,"153":0.3119979798793793,"154":-0.27049875259399414,"155":0.7206337451934814,"156":-0.5472798943519592,"157":0.48987117409706116,"158":0.848298192024231,"159":-1.1599321365356445,"160":3.1712114810943604,"161":-1.235029697418213,"162":-0.649075448513031,"163":2.3460967540740967,"164":-2.050818681716919,"165":0.5507051944732666,"166":0.8789005279541016,"167":-0.6544234156608582,"168":-1.3701640367507935,"169":-3.003467559814453,"170":-3.410025119781494,"171":-0.6875899434089661,"172":-0.5810257196426392,"173":-0.8786576390266418,"174":-1.8782075643539429,"175":-1.9276964664459229,"176":-1.3284730911254883,"177":-2.3445348739624023,"178":-2.684994697570801,"179":-0.26723989844322205,"180":-1.5721654891967773,"181":0.32840996980667114,"182":-0.721053421497345,"183":-0.6240077018737793,"184":1.275281310081482,"185":1.1382147073745728,"186":-0.7142584919929504,"187":-1.5701647996902466,"188":0.43226224184036255,"189":1.1373897790908813,"190":0.7260227203369141,"191":0.039272114634513855,"192":0.8440945148468018,"193":-0.6811965107917786,"194":0.186479851603508,"195":-0.6353669762611389,"196":0.3482733368873596,"197":0.20261836051940918,"198":2.8880834579467773,"199":0.06362462788820267,"200":0.44567814469337463,"201":-1.2081786394119263,"202":-0.11057063192129135,"203":-0.3607252836227417,"204":1.1737951040267944,"205":-0.5089057683944702,"206":1.0006407499313354,"207":-0.515109658241272,"208":-3.044321298599243,"209":0.41420915722846985,"210":0.3478565812110901,"211":-0.026308266445994377,"212":-0.560765266418457,"213":-0.4327246844768524,"214":0.5902706384658813,"215":0.03936144337058067,"216":-1.0052070617675781,"217":0.013443048112094402,"218":3.196159601211548,"219":-1.4601887464523315,"220":-1.0864813327789307,"221":-0.2699437737464905,"222":-1.350847840309143,"223":-0.7818281650543213,"224":0.2560599744319916,"225":1.7157360315322876,"226":-0.41070619225502014,"227":0.8147637844085693,"228":0.8818644881248474,"229":1.034878134727478,"230":1.7896050214767456,"231":-0.14182719588279724,"232":0.23183569312095642,"233":0.630278468132019,"234":-1.8042995929718018,"235":0.4223439395427704,"236":-0.9364827275276184,"237":-1.630050539970398,"238":0.9549256563186646,"239":1.8026944398880005,"240":-0.44206079840660095,"241":0.7814849615097046,"242":1.3939391374588013,"243":0.919321596622467,"244":-1.2928657531738281,"245":-0.44336625933647156,"246":0.2367980033159256,"247":3.672881841659546,"248":-0.7494754791259766,"249":-2.9489662647247314,"250":-1.2239129543304443,"251":1.859243631362915,"252":-1.3237617015838623,"253":-1.4957398176193237,"254":-0.15391603112220764,"255":0.9637377262115479,"256":-0.5162489414215088,"257":-0.7691222429275513,"258":2.6049270629882812,"259":-0.14649169147014618,"260":2.8478145599365234,"261":-0.09665125608444214,"262":-0.8710659742355347,"263":1.3846784830093384,"264":0.041737355291843414,"265":0.01643635518848896,"266":-1.2265323400497437,"267":-0.05268951505422592,"268":-1.1459141969680786,"269":-0.15101446211338043,"270":-0.31639066338539124,"271":-1.3889881372451782,"272":-0.18432645499706268,"273":0.6039073467254639,"274":-0.9532819986343384,"275":-1.1554628610610962,"276":0.3303784728050232,"277":-0.3956105709075928,"278":-1.769073486328125,"279":-0.7218683362007141,"280":0.1988140046596527,"281":1.2125777006149292,"282":1.3343982696533203,"283":0.38677772879600525,"284":-0.28917035460472107,"285":-1.6605689525604248,"286":3.2070229053497314,"287":0.4940631091594696,"288":-0.23302127420902252,"289":-0.3447163999080658,"290":-0.07582569122314453,"291":0.4248913526535034,"292":-2.2488677501678467,"293":-0.563554048538208,"294":1.377515196800232,"295":0.12658895552158356,"296":-1.0294055938720703,"297":0.8912820816040039,"298":0.3232085406780243,"299":-2.454197645187378,"300":-0.327386736869812,"301":0.8035080432891846,"302":2.491119146347046,"303":0.03233278915286064,"304":-0.07322769612073898,"305":-1.6573100090026855,"306":1.0397038459777832,"307":0.4595455229282379,"308":-1.8540358543395996,"309":0.13930940628051758,"310":-1.71660578250885,"311":0.9865729212760925,"312":-0.9787870049476624,"313":-1.6251261234283447,"314":1.8121553659439087,"315":1.225969672203064,"316":-0.7023993134498596,"317":2.2517642974853516,"318":-0.9685063362121582,"319":-1.4422377347946167,"320":0.36841434240341187,"321":4.004204273223877,"322":-2.419434070587158,"323":-0.3458867371082306,"324":-0.5172804594039917,"325":1.0197714567184448,"326":0.22333002090454102,"327":1.1067360639572144,"328":-0.43813571333885193,"329":0.03643355146050453,"330":-3.514845371246338,"331":-0.7112627625465393,"332":1.806742548942566,"333":-1.3958946466445923,"334":-0.9480910301208496,"335":-1.5087989568710327,"336":-1.602217674255371,"337":1.6375563144683838,"338":0.6005979776382446,"339":1.96047043800354,"340":0.7450018525123596,"341":3.8427200317382812,"342":0.45516297221183777,"343":0.7542727589607239,"344":-1.0722447633743286,"345":-0.9798029661178589,"346":2.276275396347046,"347":-0.25295600295066833,"348":0.2387165129184723,"349":-0.37475696206092834,"350":-0.18807227909564972,"351":-0.6048315763473511,"352":-0.10700428485870361,"353":-0.6085774302482605,"354":0.17884333431720734,"355":1.556520700454712,"356":-1.500311255455017,"357":0.5582724213600159,"358":-0.7104499340057373,"359":-1.600132942199707,"360":-2.7816853523254395,"361":0.015328504145145416,"362":-2.49845290184021,"363":-0.7882058024406433,"364":1.3134578466415405,"365":1.3758538961410522,"366":-0.18037398159503937,"367":0.5266734957695007,"368":2.2627367973327637,"369":-0.27656564116477966,"370":0.810788631439209,"371":-1.0994288921356201,"372":2.029479742050171,"373":0.23626238107681274,"374":-1.9393086433410645,"375":-0.8927600383758545,"376":-1.4823788404464722,"377":-0.6669917702674866,"378":2.5549123287200928,"379":0.30595266819000244,"380":-0.336753249168396,"381":1.9243546724319458,"382":1.4505170583724976,"383":-0.22495734691619873,"384":1.202453374862671,"385":-0.7836976051330566,"386":0.20495831966400146,"387":0.3453473746776581,"388":-0.08913467079401016,"389":0.8066836595535278,"390":0.09090717136859894,"391":0.028465621173381805,"392":-1.1327927112579346,"393":-0.05692105367779732,"394":1.838087797164917,"395":1.9515196084976196,"396":1.3304059505462646,"397":0.9804324507713318,"398":-2.213057279586792,"399":-3.0151736736297607}},"forgetBias":{"rows":20,"columns":1,"weights":{"0":0,"1":0,"2":0,"3":0,"4":0,"5":0,"6":0,"7":0,"8":0,"9":0,"10":0,"11":0,"12":0,"13":0,"14":0,"15":0,"16":0,"17":0,"18":0,"19":0}},"outputMatrix":{"rows":20,"columns":5,"weights":{"0":1.5716222524642944,"1":0.9390308856964111,"2":-0.28258633613586426,"3":1.3772279024124146,"4":0.7032598853111267,"5":0.2583102881908417,"6":1.1433731317520142,"7":0.21877534687519073,"8":0.2612821161746979,"9":0.014210827648639679,"10":1.357403039932251,"11":-0.03609894961118698,"12":-2.161585807800293,"13":2.179888963699341,"14":-0.9441340565681458,"15":-0.9288110733032227,"16":0.773094892501831,"17":1.1135326623916626,"18":-0.6453037858009338,"19":0.3342527449131012,"20":0.014711515046656132,"21":-0.32931777834892273,"22":0.29584163427352905,"23":-0.7374306321144104,"24":-0.9517525434494019,"25":0.45477885007858276,"26":0.6424781084060669,"27":-1.0137076377868652,"28":1.2026331424713135,"29":-0.47348493337631226,"30":-1.2193924188613892,"31":0.6784781217575073,"32":1.6911702156066895,"33":-1.3222650289535522,"34":0.938757598400116,"35":0.1297920197248459,"36":0.40964391827583313,"37":-0.5175829529762268,"38":0.5486945509910583,"39":-0.22187457978725433,"40":1.350207805633545,"41":0.16099251806735992,"42":-1.5677906274795532,"43":1.6276196241378784,"44":0.6936966180801392,"45":-0.1202789768576622,"46":-0.30351004004478455,"47":0.13296005129814148,"48":0.18089459836483002,"49":-0.8153302669525146,"50":0.599186360836029,"51":0.08075888454914093,"52":0.14589747786521912,"53":0.2611537575721741,"54":-0.86672043800354,"55":0.7601552605628967,"56":0.4044044613838196,"57":-0.9377145171165466,"58":0.8857719302177429,"59":0.8917756676673889,"60":0.6674140691757202,"61":0.6325656175613403,"62":-0.17173945903778076,"63":0.9912198781967163,"64":-0.5244812965393066,"65":0.5678439736366272,"66":0.23124897480010986,"67":-1.6387934684753418,"68":1.7671655416488647,"69":0.7083125114440918,"70":-0.08799109607934952,"71":1.4947000741958618,"72":-0.9605197310447693,"73":1.6666467189788818,"74":0.4206574559211731,"75":0.06503705680370331,"76":-0.43206271529197693,"77":-0.6589881181716919,"78":0.8212427496910095,"79":-0.471932977437973,"80":0.927218496799469,"81":1.3755632638931274,"82":-0.9821476340293884,"83":1.4696065187454224,"84":1.0375698804855347,"85":-0.3612014651298523,"86":2.307203531265259,"87":-0.410058856010437,"88":1.564260721206665,"89":0.8823699951171875,"90":1.4805654287338257,"91":-0.9752545952796936,"92":1.362380862236023,"93":-0.7402864098548889,"94":-1.095743179321289,"95":-0.15079137682914734,"96":1.8522350788116455,"97":-0.6596744656562805,"98":0.9470126032829285,"99":1.4103597402572632}},"outputHidden":{"rows":20,"columns":20,"weights":{"0":0.045538414269685745,"1":1.7115906476974487,"2":-0.9204424023628235,"3":-2.400317668914795,"4":-0.4182039797306061,"5":-0.13808225095272064,"6":-1.348519206047058,"7":0.25985950231552124,"8":0.7721349596977234,"9":0.5737659335136414,"10":0.5357203483581543,"11":-0.5990757942199707,"12":0.6710401177406311,"13":1.6337534189224243,"14":-1.33697509765625,"15":-0.2670579254627228,"16":-1.3871526718139648,"17":-1.8561898469924927,"18":0.12061713635921478,"19":-0.12917688488960266,"20":0.840263843536377,"21":-1.953487515449524,"22":-0.2933659553527832,"23":0.9582793116569519,"24":-1.6620583534240723,"25":0.049464959651231766,"26":0.25136104226112366,"27":-2.198840379714966,"28":-2.391062021255493,"29":-1.7020609378814697,"30":0.2847100794315338,"31":2.391876459121704,"32":-0.44246983528137207,"33":1.9673991203308105,"34":-0.9559401273727417,"35":-1.662690281867981,"36":1.5433088541030884,"37":-1.0187801122665405,"38":-0.7161195278167725,"39":-1.289181113243103,"40":0.36451512575149536,"41":-2.413666248321533,"42":0.8085444569587708,"43":0.7626930475234985,"44":-0.5778787136077881,"45":0.654109001159668,"46":-1.8304181098937988,"47":-1.2533197402954102,"48":-0.8841997385025024,"49":-0.4000992178916931,"50":1.0781649351119995,"51":0.3801349401473999,"52":-1.9379006624221802,"53":-0.8612375259399414,"54":-1.587104082107544,"55":-1.694440484046936,"56":-1.5851067304611206,"57":0.2995637059211731,"58":-2.8068466186523438,"59":-0.01772124506533146,"60":-1.9956576824188232,"61":0.11056261509656906,"62":0.34519076347351074,"63":-2.2516825199127197,"64":1.1360948085784912,"65":0.23739482462406158,"66":-1.2074693441390991,"67":-1.271925926208496,"68":0.020523732528090477,"69":1.2798045873641968,"70":0.30162301659584045,"71":0.8044033050537109,"72":0.6719951033592224,"73":0.05483636260032654,"74":0.7890639901161194,"75":0.038768503814935684,"76":1.3709381818771362,"77":0.8603858947753906,"78":1.7338039875030518,"79":0.8447700142860413,"80":0.08121740818023682,"81":1.896773338317871,"82":0.19825078547000885,"83":-1.4408698081970215,"84":2.236569404602051,"85":-0.7125678658485413,"86":-1.1569675207138062,"87":1.3929216861724854,"88":-1.3574179410934448,"89":1.9447468519210815,"90":-0.1097126305103302,"91":0.07697554677724838,"92":-0.28313931822776794,"93":-0.617516815662384,"94":0.026788340881466866,"95":-0.09384985268115997,"96":1.7952032089233398,"97":-1.1313285827636719,"98":0.6689048409461975,"99":-0.3553621172904968,"100":1.046921730041504,"101":-0.27588874101638794,"102":0.13329675793647766,"103":2.1461920738220215,"104":0.41480347514152527,"105":1.745193362236023,"106":-0.5798375606536865,"107":-0.45955410599708557,"108":-0.3544466495513916,"109":0.11044007539749146,"110":-0.2169666886329651,"111":-0.7020971775054932,"112":-0.5224797129631042,"113":-0.10934355109930038,"114":-1.1968368291854858,"115":-0.008131418377161026,"116":-0.27023476362228394,"117":-1.9668831825256348,"118":-0.9371786713600159,"119":0.3410130739212036,"120":-0.39367198944091797,"121":-0.4317939579486847,"122":-0.2761954963207245,"123":-1.6118656396865845,"124":1.5309009552001953,"125":0.13847391307353973,"126":-1.3655894994735718,"127":1.092360019683838,"128":-0.6406481266021729,"129":0.9727454781532288,"130":0.7854966521263123,"131":0.541272759437561,"132":-0.32398879528045654,"133":-1.81304132938385,"134":1.6519161462783813,"135":0.9925901889801025,"136":0.09691514819860458,"137":1.6287038326263428,"138":0.7573348879814148,"139":0.036119695752859116,"140":2.6828043460845947,"141":-1.018997073173523,"142":0.7766003608703613,"143":2.3385987281799316,"144":-0.7458550333976746,"145":-1.3532763719558716,"146":2.3803064823150635,"147":0.29298606514930725,"148":-2.913971185684204,"149":-0.9438228011131287,"150":-0.5186998844146729,"151":-0.6235122084617615,"152":-3.221346139907837,"153":-0.8958206176757812,"154":0.6978909969329834,"155":0.05683246627449989,"156":0.012926486320793629,"157":1.2303434610366821,"158":-0.36460354924201965,"159":-0.8001053333282471,"160":1.8099244832992554,"161":-0.21327294409275055,"162":0.31179702281951904,"163":0.5461045503616333,"164":-1.0358808040618896,"165":-0.48429521918296814,"166":0.27106526494026184,"167":-0.5262763500213623,"168":-0.5594123005867004,"169":-0.7986232042312622,"170":1.4392991065979004,"171":0.29413050413131714,"172":-1.0890177488327026,"173":0.6102225184440613,"174":0.36977601051330566,"175":-0.004285417031496763,"176":-0.38635289669036865,"177":-1.6058415174484253,"178":-1.4891213178634644,"179":-0.983096182346344,"180":-0.5620650053024292,"181":2.1008148193359375,"182":-0.5040909051895142,"183":-1.8219343423843384,"184":0.744265079498291,"185":-0.8640590906143188,"186":-0.2575082778930664,"187":0.6155840158462524,"188":-1.7476718425750732,"189":1.6850470304489136,"190":2.0301096439361572,"191":1.6566702127456665,"192":-1.3536176681518555,"193":-0.29612183570861816,"194":0.7286005020141602,"195":1.7410340309143066,"196":1.564247965812683,"197":-0.4443204700946808,"198":0.49931687116622925,"199":-1.243094801902771,"200":0.5852531790733337,"201":-1.7779457569122314,"202":-0.5061782002449036,"203":-1.083846092224121,"204":0.5136341452598572,"205":1.0988407135009766,"206":-0.26858869194984436,"207":-1.1444661617279053,"208":-1.3817472457885742,"209":0.7197991013526917,"210":-0.1588386744260788,"211":1.1400095224380493,"212":1.1805559396743774,"213":-0.7065975069999695,"214":-0.657558262348175,"215":-1.230930209159851,"216":-0.9311816096305847,"217":0.07507782429456711,"218":0.25324445962905884,"219":-2.0211589336395264,"220":0.3304593563079834,"221":-0.4936325252056122,"222":-0.1264931857585907,"223":-0.48617085814476013,"224":1.8188121318817139,"225":3.1143789291381836,"226":-0.37879782915115356,"227":-1.613671064376831,"228":0.3346613943576813,"229":0.4057157635688782,"230":0.3469601571559906,"231":1.5279086828231812,"232":2.952198028564453,"233":1.4973317384719849,"234":-0.9595237374305725,"235":-2.2169389724731445,"236":0.9339956045150757,"237":-0.030786950141191483,"238":1.2202250957489014,"239":0.5888723134994507,"240":-0.755111813545227,"241":-2.4609744548797607,"242":0.8368450999259949,"243":-0.1975771188735962,"244":-1.064474105834961,"245":2.494292974472046,"246":1.2447850704193115,"247":2.4790613651275635,"248":0.864025354385376,"249":-0.7229021787643433,"250":0.7548993229866028,"251":2.6298956871032715,"252":0.9179117679595947,"253":0.958664059638977,"254":0.7673645615577698,"255":-2.7168655395507812,"256":-2.060614824295044,"257":-0.1446952223777771,"258":2.5049355030059814,"259":0.4629417657852173,"260":2.130303382873535,"261":-0.03733285143971443,"262":2.2042222023010254,"263":-0.3523976802825928,"264":0.17338338494300842,"265":-0.7788733839988708,"266":-1.0459473133087158,"267":-0.3329843580722809,"268":-1.408379077911377,"269":1.0188024044036865,"270":1.0975714921951294,"271":0.4663435220718384,"272":0.6303632259368896,"273":0.3639366030693054,"274":-0.21104846894741058,"275":-0.5392550826072693,"276":3.729001045227051,"277":-1.4046859741210938,"278":0.4167921543121338,"279":-0.40798550844192505,"280":-1.1016854047775269,"281":1.3133114576339722,"282":-0.41286376118659973,"283":1.4469246864318848,"284":-2.5585522651672363,"285":-0.12428649514913559,"286":1.05844247341156,"287":0.40313881635665894,"288":0.9452511072158813,"289":-3.1616079807281494,"290":-0.5829440951347351,"291":-0.823549211025238,"292":-2.3291149139404297,"293":0.34637346863746643,"294":0.05032181367278099,"295":0.6525691151618958,"296":-1.8636071681976318,"297":0.6197594404220581,"298":-0.8724509477615356,"299":-0.7787327170372009,"300":-0.8849251866340637,"301":-0.627181887626648,"302":0.7689935564994812,"303":0.6788226962089539,"304":-0.9442545771598816,"305":1.3342392444610596,"306":0.9051826596260071,"307":-0.11302360147237778,"308":1.5497149229049683,"309":-0.8999181985855103,"310":0.7431561350822449,"311":1.9873631000518799,"312":-0.06364467740058899,"313":1.4274133443832397,"314":0.8210771679878235,"315":0.612484872341156,"316":0.16280941665172577,"317":1.735598087310791,"318":-1.2721089124679565,"319":1.0066590309143066,"320":-0.8011032938957214,"321":0.14423561096191406,"322":-2.133962392807007,"323":0.5087314248085022,"324":-1.2393356561660767,"325":-0.04944944009184837,"326":0.37509098649024963,"327":3.2198328971862793,"328":1.0638418197631836,"329":-1.2361650466918945,"330":0.6051282286643982,"331":-0.9032055735588074,"332":1.332762598991394,"333":-0.9320654273033142,"334":0.6549955010414124,"335":-0.9333785176277161,"336":-1.8600749969482422,"337":1.164132833480835,"338":1.3994128704071045,"339":-0.44213438034057617,"340":0.3421440124511719,"341":2.8832204341888428,"342":1.3047703504562378,"343":0.9390331506729126,"344":-0.7898045778274536,"345":0.2726651132106781,"346":0.9387403726577759,"347":-0.9777226448059082,"348":-0.7350706458091736,"349":-1.139864206314087,"350":-0.7225384712219238,"351":-0.7545379996299744,"352":-2.3644320964813232,"353":0.13584022223949432,"354":1.5784797668457031,"355":0.5165085792541504,"356":1.5595288276672363,"357":0.3134995996952057,"358":-1.0017578601837158,"359":-1.0567585229873657,"360":0.6094648241996765,"361":-0.35599979758262634,"362":-0.5720725655555725,"363":0.003462227527052164,"364":1.3207594156265259,"365":0.14289164543151855,"366":0.023234136402606964,"367":0.8995382785797119,"368":-0.7116537094116211,"369":0.006968565285205841,"370":-0.7286228537559509,"371":-1.8616973161697388,"372":2.6650867462158203,"373":2.4276175498962402,"374":0.24545329809188843,"375":-0.9262480139732361,"376":-2.1489036083221436,"377":-0.7265313267707825,"378":3.6021976470947266,"379":-0.8443763852119446,"380":-0.6332232356071472,"381":1.8487575054168701,"382":0.031110579147934914,"383":-0.35559794306755066,"384":2.1482431888580322,"385":0.18203772604465485,"386":-0.7121257781982422,"387":-0.3064507246017456,"388":0.19342036545276642,"389":2.1694176197052,"390":1.3891515731811523,"391":-0.004662567749619484,"392":-1.2934330701828003,"393":-1.7610359191894531,"394":1.1068298816680908,"395":0.7472434043884277,"396":1.2265654802322388,"397":-0.5890267491340637,"398":-0.8501068353652954,"399":0.8172949552536011}},"outputBias":{"rows":20,"columns":1,"weights":{"0":-1.8977344036102295,"1":-2.0921730995178223,"2":-0.3368562161922455,"3":0.7392686605453491,"4":-0.11389121413230896,"5":1.4817779064178467,"6":2.2165539264678955,"7":0.5521420240402222,"8":2.4277079105377197,"9":-0.8075425624847412,"10":-0.21640567481517792,"11":0.47493451833724976,"12":-2.4084718227386475,"13":2.5833442211151123,"14":-1.5451780557632446,"15":0.2846020758152008,"16":-1.3869093656539917,"17":0.16305184364318848,"18":0.1012071743607521,"19":1.3002967834472656}},"cellActivationMatrix":{"rows":20,"columns":5,"weights":{"0":-0.778044581413269,"1":0.7624134421348572,"2":-0.521088719367981,"3":0.8934507369995117,"4":2.1595332622528076,"5":-0.05971922725439072,"6":1.2445240020751953,"7":-0.2352524995803833,"8":0.08017086237668991,"9":2.458101987838745,"10":-0.8160325884819031,"11":-0.9989235401153564,"12":1.3409156799316406,"13":-1.4562608003616333,"14":0.4851304888725281,"15":-0.3019241392612457,"16":1.0831725597381592,"17":-0.532893717288971,"18":1.2243540287017822,"19":1.2457691431045532,"20":-1.647519588470459,"21":0.5379492044448853,"22":2.9461042881011963,"23":-1.4719939231872559,"24":-1.2010161876678467,"25":0.20131458342075348,"26":0.6257737278938293,"27":-0.21881484985351562,"28":0.31875404715538025,"29":-0.8569134473800659,"30":0.18945446610450745,"31":0.6827458143234253,"32":-1.0333247184753418,"33":0.7640039324760437,"34":0.8229678869247437,"35":-0.3771865963935852,"36":-0.34769734740257263,"37":1.2100131511688232,"38":-1.2419461011886597,"39":0.21538075804710388,"40":0.7779636979103088,"41":-1.3934507369995117,"42":-0.021098285913467407,"43":-0.483379989862442,"44":-2.182966947555542,"45":-1.1084444522857666,"46":0.5614250302314758,"47":2.2304091453552246,"48":-1.8554860353469849,"49":-0.619234025478363,"50":-0.8238582015037537,"51":0.06596875935792923,"52":1.0447719097137451,"53":-0.8897181749343872,"54":-0.5824735760688782,"55":-0.5344516038894653,"56":0.17868033051490784,"57":1.20243239402771,"58":-1.569319725036621,"59":-0.7765281796455383,"60":-0.4008365571498871,"61":-0.6166287064552307,"62":1.5845118761062622,"63":-1.1056832075119019,"64":-3.994109869003296,"65":0.2716544270515442,"66":-0.838644802570343,"67":-0.1337238848209381,"68":-0.4465121030807495,"69":-1.0853910446166992,"70":-1.2325092554092407,"71":-0.5672003626823425,"72":1.3223745822906494,"73":-0.8716666102409363,"74":0.14839734137058258,"75":-0.42127853631973267,"76":-0.09604189544916153,"77":0.7679416537284851,"78":-1.1682182550430298,"79":0.5960832238197327,"80":-0.5379283428192139,"81":-0.784447968006134,"82":0.6470904350280762,"83":-0.8534596562385559,"84":-0.862204372882843,"85":-0.7028785943984985,"86":-0.5566428899765015,"87":0.6828058958053589,"88":-0.7492703199386597,"89":0.454325407743454,"90":-0.9864503741264343,"91":0.6458613872528076,"92":3.547096014022827,"93":-1.8406339883804321,"94":-1.8278981447219849,"95":0.3717803955078125,"96":-0.20466914772987366,"97":-0.6898933053016663,"98":0.29144006967544556,"99":-1.3864368200302124}},"cellActivationHidden":{"rows":20,"columns":20,"weights":{"0":1.6860411167144775,"1":-0.6876437067985535,"2":0.20815572142601013,"3":0.40223124623298645,"4":0.13709521293640137,"5":-0.12346094846725464,"6":0.6069623231887817,"7":-2.036130905151367,"8":-0.6127818822860718,"9":-0.13899429142475128,"10":0.09459955245256424,"11":-0.5482367277145386,"12":-0.4063170850276947,"13":0.8256361484527588,"14":-0.672858476638794,"15":-0.7220219969749451,"16":0.6652354001998901,"17":-0.011759156361222267,"18":-0.44580981135368347,"19":0.10121478140354156,"20":0.10641448199748993,"21":-0.23826298117637634,"22":0.7082188725471497,"23":-0.14132003486156464,"24":0.5675400495529175,"25":0.4515574872493744,"26":0.562730073928833,"27":-0.13451816141605377,"28":-0.9716801643371582,"29":2.1836884021759033,"30":0.7245064973831177,"31":-1.6163840293884277,"32":-1.2320159673690796,"33":-0.48588719964027405,"34":0.013471564278006554,"35":0.23388457298278809,"36":1.1462839841842651,"37":-0.9350888729095459,"38":1.5909862518310547,"39":1.3660656213760376,"40":0.945609450340271,"41":-0.37695348262786865,"42":-1.3304466009140015,"43":-0.39323049783706665,"44":0.40194910764694214,"45":-0.43465596437454224,"46":-0.1346205770969391,"47":-1.8146885633468628,"48":-1.1239550113677979,"49":0.3065212666988373,"50":0.026212042197585106,"51":0.02274905890226364,"52":0.07338171452283859,"53":1.1821353435516357,"54":-0.6623874306678772,"55":-0.213541179895401,"56":0.6043789386749268,"57":-1.4358129501342773,"58":0.6871413588523865,"59":-0.46297717094421387,"60":2.4161152839660645,"61":2.5211896896362305,"62":1.3791838884353638,"63":0.6189984083175659,"64":-0.2708668112754822,"65":-1.6844855546951294,"66":0.9953340291976929,"67":-1.350418210029602,"68":-1.9882099628448486,"69":-0.37611740827560425,"70":-0.1488962173461914,"71":0.8860234022140503,"72":-1.273363709449768,"73":0.3572605550289154,"74":1.2518905401229858,"75":0.9817872047424316,"76":1.3027453422546387,"77":0.29648032784461975,"78":-0.8237800002098083,"79":-0.8021894097328186,"80":-1.8868465423583984,"81":-2.1624221801757812,"82":-0.6554939150810242,"83":-0.2525102198123932,"84":-0.30641791224479675,"85":1.107179045677185,"86":-1.069494366645813,"87":-0.15287047624588013,"88":1.2772698402404785,"89":-0.1900193691253662,"90":-0.5943767428398132,"91":-0.945766806602478,"92":1.3382384777069092,"93":-0.39157548546791077,"94":-2.090292453765869,"95":-1.4222484827041626,"96":-0.5949262976646423,"97":-0.06880291551351547,"98":-0.5429589152336121,"99":0.779458224773407,"100":-1.805228352546692,"101":0.10969759523868561,"102":1.8960041999816895,"103":0.3933889865875244,"104":-1.3265455961227417,"105":-0.07444349676370621,"106":0.628278374671936,"107":0.39820724725723267,"108":1.5644676685333252,"109":-1.5351953506469727,"110":-0.44839945435523987,"111":0.7103725075721741,"112":-0.5345194339752197,"113":0.9767798781394958,"114":1.5300838947296143,"115":0.4428650736808777,"116":0.08665875345468521,"117":1.4046320915222168,"118":-0.11692246794700623,"119":0.18646028637886047,"120":2.5154247283935547,"121":4.55120849609375,"122":0.9051643013954163,"123":1.463541865348816,"124":-0.6758854389190674,"125":-0.4536462724208832,"126":0.5905832052230835,"127":-2.0195577144622803,"128":-2.905548334121704,"129":-0.978955864906311,"130":-0.27636104822158813,"131":1.0943881273269653,"132":-2.5419576168060303,"133":1.0917342901229858,"134":0.40172338485717773,"135":0.4722197353839874,"136":1.2596559524536133,"137":-0.3020879626274109,"138":0.16515079140663147,"139":-1.093862771987915,"140":0.8222688436508179,"141":-0.3794446885585785,"142":-1.2569860219955444,"143":0.2832106947898865,"144":0.15992261469364166,"145":1.0451432466506958,"146":0.05672943964600563,"147":0.2668931186199188,"148":-1.4729793071746826,"149":-0.6021307110786438,"150":0.09358922392129898,"151":-1.0883092880249023,"152":-0.2810188829898834,"153":-1.827815055847168,"154":0.21261295676231384,"155":-0.37668576836586,"156":-0.8153119087219238,"157":0.12211881577968597,"158":0.47313401103019714,"159":-0.1669761836528778,"160":-0.14845134317874908,"161":0.2172350287437439,"162":-0.5591530203819275,"163":0.5345261096954346,"164":-0.6613564491271973,"165":-0.21710044145584106,"166":0.007165173534303904,"167":0.519092857837677,"168":-0.12342118471860886,"169":-0.3649020493030548,"170":-0.39979875087738037,"171":-0.4504305124282837,"172":0.11631215363740921,"173":-0.033554140478372574,"174":0.02296299673616886,"175":-0.8086979389190674,"176":0.3328852653503418,"177":-0.20610231161117554,"178":0.06899923086166382,"179":-0.5950716137886047,"180":-2.2469658851623535,"181":-2.53167724609375,"182":-0.22966322302818298,"183":-0.028031600639224052,"184":-0.07419903576374054,"185":1.1640537977218628,"186":-0.5791425108909607,"187":0.17306354641914368,"188":0.9761910438537598,"189":0.023503446951508522,"190":-0.23781584203243256,"191":-0.12936098873615265,"192":1.2846827507019043,"193":0.13833339512348175,"194":-0.3011268377304077,"195":-1.1998058557510376,"196":-0.10348179191350937,"197":-0.16483578085899353,"198":-0.2545253336429596,"199":1.0352569818496704,"200":-1.6872811317443848,"201":-0.10230786353349686,"202":-0.9637995362281799,"203":0.04615422338247299,"204":0.7391632795333862,"205":1.8135613203048706,"206":-0.12883763015270233,"207":-0.5348504185676575,"208":0.7102712988853455,"209":0.37240368127822876,"210":1.3282347917556763,"211":-0.6744411587715149,"212":1.181876301765442,"213":0.499845951795578,"214":-1.026928424835205,"215":-1.853236198425293,"216":2.0220963954925537,"217":-0.23569203913211823,"218":-0.7001584768295288,"219":2.7184901237487793,"220":-1.303266167640686,"221":-0.5769135355949402,"222":-0.9690560698509216,"223":0.792044460773468,"224":-1.5333558320999146,"225":1.4162827730178833,"226":0.24892476201057434,"227":-0.0008427216089330614,"228":1.494094729423523,"229":-3.452514171600342,"230":-0.3876519203186035,"231":-0.9052760004997253,"232":0.6239833235740662,"233":1.9346365928649902,"234":-0.9183071851730347,"235":-1.2938727140426636,"236":-0.6819016933441162,"237":-0.6771944165229797,"238":0.0775950700044632,"239":1.1067198514938354,"240":0.22496914863586426,"241":-0.7325720191001892,"242":-0.3899919092655182,"243":-0.0026669425424188375,"244":-1.4169105291366577,"245":1.0342538356781006,"246":0.12412029504776001,"247":0.3691568970680237,"248":0.5371866822242737,"249":-1.4809271097183228,"250":-0.9287524223327637,"251":0.7185605764389038,"252":0.6013132929801941,"253":0.590904712677002,"254":-0.5178928375244141,"255":-0.736041784286499,"256":-1.2626943588256836,"257":-0.2696003317832947,"258":0.5029655694961548,"259":0.20361481606960297,"260":1.4892816543579102,"261":0.35750406980514526,"262":1.6665945053100586,"263":0.6749582290649414,"264":-2.3698928356170654,"265":-1.548355221748352,"266":1.0471489429473877,"267":-0.11316680908203125,"268":-1.7095471620559692,"269":-2.4070324897766113,"270":-0.9528192281723022,"271":0.13856300711631775,"272":-0.7785574197769165,"273":-0.13064147531986237,"274":1.3207870721817017,"275":0.9487675428390503,"276":-1.5035215616226196,"277":-0.12410999834537506,"278":-0.6902186870574951,"279":-0.5993326306343079,"280":-0.5169170498847961,"281":-1.0753436088562012,"282":1.3208950757980347,"283":-1.3983790874481201,"284":0.6105656623840332,"285":-1.529632806777954,"286":-2.367093563079834,"287":-1.5251129865646362,"288":-0.12316914647817612,"289":0.20131602883338928,"290":-0.8680681586265564,"291":-1.1880199909210205,"292":-0.5876293182373047,"293":0.49410295486450195,"294":-0.334541380405426,"295":0.9240665435791016,"296":0.9175681471824646,"297":1.1862056255340576,"298":-0.13200971484184265,"299":-2.154557943344116,"300":0.6472063660621643,"301":-0.8096185922622681,"302":-0.6164764165878296,"303":-0.7063156366348267,"304":0.1529456228017807,"305":0.511580228805542,"306":-1.5281660556793213,"307":0.8953884243965149,"308":-0.15760058164596558,"309":-0.07720468938350677,"310":2.6534042358398438,"311":0.09602127969264984,"312":0.39569908380508423,"313":-0.6603402495384216,"314":0.8139916658401489,"315":-0.32580897212028503,"316":1.412405252456665,"317":-0.30430862307548523,"318":0.6612469553947449,"319":0.7422553896903992,"320":-1.8651524782180786,"321":2.036264419555664,"322":-0.2549521327018738,"323":0.03455033898353577,"324":-1.246686577796936,"325":0.04400482028722763,"326":-0.3022787570953369,"327":-2.0179290771484375,"328":0.9775310158729553,"329":-1.1814247369766235,"330":-1.2650790214538574,"331":-0.25992798805236816,"332":1.539792537689209,"333":1.8613505363464355,"334":-1.5786510705947876,"335":-0.9643256664276123,"336":0.43823665380477905,"337":-1.797523856163025,"338":-0.09842858463525772,"339":1.6523913145065308,"340":-0.5156853795051575,"341":0.20248666405677795,"342":0.03727642446756363,"343":-1.3420791625976562,"344":1.2827205657958984,"345":-0.5356108546257019,"346":-2.113372564315796,"347":-1.0583562850952148,"348":-0.307381272315979,"349":2.056978225708008,"350":-0.28377649188041687,"351":-1.3261409997940063,"352":-0.17027513682842255,"353":-1.0842206478118896,"354":0.25634273886680603,"355":1.691992998123169,"356":0.8922330737113953,"357":1.6071946620941162,"358":0.4831680655479431,"359":-0.9646562337875366,"360":0.7643460631370544,"361":-0.8144728541374207,"362":0.23655487596988678,"363":0.0711597427725792,"364":1.2031234502792358,"365":-0.08127602934837341,"366":0.33652064204216003,"367":-0.4717855453491211,"368":-0.44617557525634766,"369":0.4350760579109192,"370":0.8928300142288208,"371":-1.4559234380722046,"372":0.9796478748321533,"373":0.45827966928482056,"374":0.33508992195129395,"375":-2.108445644378662,"376":-2.1859443187713623,"377":-0.15131805837154388,"378":0.3594830632209778,"379":-0.3370203971862793,"380":-1.335051417350769,"381":-1.668846607208252,"382":2.2166013717651367,"383":0.36434096097946167,"384":-0.6626440286636353,"385":1.0955685377120972,"386":0.49411270022392273,"387":-0.17773482203483582,"388":1.3474022150039673,"389":-0.47387421131134033,"390":-0.39766478538513184,"391":2.261657238006592,"392":-1.2831971645355225,"393":2.119506597518921,"394":0.4434020519256592,"395":0.4878895580768585,"396":-0.5383628010749817,"397":1.2504194974899292,"398":0.10458825528621674,"399":-0.1696542352437973}},"cellActivationBias":{"rows":20,"columns":1,"weights":{"0":-0.40864863991737366,"1":-0.3152952790260315,"2":-1.5617221593856812,"3":1.7612621784210205,"4":-1.5914868116378784,"5":2.277594566345215,"6":1.9033979177474976,"7":-1.0587453842163086,"8":2.598952054977417,"9":0.2797418534755707,"10":0.10053063184022903,"11":-1.5805987119674683,"12":0.5951883792877197,"13":3.350497245788574,"14":-0.5761244893074036,"15":-0.8676810264587402,"16":0.27839499711990356,"17":-1.2583558559417725,"18":-1.6063051223754883,"19":2.0712954998016357}}},{"inputMatrix":{"rows":20,"columns":20,"weights":{"0":-0.4547995924949646,"1":-2.4709372520446777,"2":-2.6889326572418213,"3":-1.0987037420272827,"4":-0.029310330748558044,"5":1.7957671880722046,"6":-0.6123929619789124,"7":-4.055947780609131,"8":-0.9604867696762085,"9":-0.14001239836215973,"10":-0.194904625415802,"11":0.36389508843421936,"12":1.8992794752120972,"13":0.6063845753669739,"14":-1.9673665761947632,"15":-1.2802225351333618,"16":0.46254798769950867,"17":-1.2864258289337158,"18":4.179286003112793,"19":1.2709485292434692,"20":-2.148726463317871,"21":-1.122909665107727,"22":0.25852641463279724,"23":1.2937672138214111,"24":2.4097445011138916,"25":-0.5477890372276306,"26":-0.09324426203966141,"27":2.249671459197998,"28":-0.012087712064385414,"29":-0.6296628713607788,"30":2.3509418964385986,"31":3.8153390884399414,"32":1.847548007965088,"33":-2.4066991806030273,"34":0.4217660427093506,"35":-0.11825183033943176,"36":-1.0501134395599365,"37":0.5511263012886047,"38":4.791043758392334,"39":-3.6916165351867676,"40":-1.678731083869934,"41":-3.3569254875183105,"42":-3.338534116744995,"43":0.805461049079895,"44":-1.3132387399673462,"45":2.1731717586517334,"46":1.37175452709198,"47":-1.4978595972061157,"48":1.3808072805404663,"49":-1.5593582391738892,"50":-0.09080415219068527,"51":-1.2038627862930298,"52":2.2698795795440674,"53":0.37773633003234863,"54":-1.9439589977264404,"55":0.6548434495925903,"56":2.8655993938446045,"57":-0.4394465684890747,"58":-1.3549225330352783,"59":1.0331326723098755,"60":0.20607833564281464,"61":-0.5083016157150269,"62":1.9546873569488525,"63":-1.2568811178207397,"64":1.937598705291748,"65":-0.010054308921098709,"66":-0.7524654865264893,"67":0.277923583984375,"68":-2.629652738571167,"69":2.8437814712524414,"70":3.451404094696045,"71":4.098203659057617,"72":0.030946947634220123,"73":-2.5708460807800293,"74":2.7837748527526855,"75":0.41735559701919556,"76":3.763185501098633,"77":1.4747164249420166,"78":0.32042014598846436,"79":-1.5453988313674927,"80":-0.7697908878326416,"81":-2.3068602085113525,"82":-3.45072340965271,"83":0.6876695156097412,"84":-0.5738941431045532,"85":-1.5153354406356812,"86":-0.40212133526802063,"87":-0.4534355700016022,"88":1.658167839050293,"89":-0.4665812849998474,"90":-2.117452621459961,"91":-1.1064045429229736,"92":1.7838202714920044,"93":1.2594760656356812,"94":-1.4392772912979126,"95":0.5696223974227905,"96":3.2782459259033203,"97":0.5532930493354797,"98":-5.772035598754883,"99":-0.18487046658992767,"100":1.6388797760009766,"101":0.7586172819137573,"102":3.1891872882843018,"103":-2.828369379043579,"104":0.048398904502391815,"105":0.29528748989105225,"106":-2.6458001136779785,"107":0.9565622210502625,"108":0.9906593561172485,"109":0.8064084649085999,"110":2.326124668121338,"111":0.4131069779396057,"112":-0.38332420587539673,"113":0.897839367389679,"114":2.203667640686035,"115":-0.060402847826480865,"116":0.9913933277130127,"117":1.6383914947509766,"118":1.1927016973495483,"119":-2.435842514038086,"120":1.362453818321228,"121":-0.5692031383514404,"122":0.9604862332344055,"123":0.17978638410568237,"124":-0.47274264693260193,"125":0.7139924168586731,"126":0.7069514989852905,"127":-1.0471479892730713,"128":-0.007444445509463549,"129":0.426031231880188,"130":1.131524920463562,"131":0.8732924461364746,"132":-2.263803243637085,"133":1.099277138710022,"134":0.5267549753189087,"135":-0.17580236494541168,"136":1.09565007686615,"137":-1.8144625425338745,"138":-0.9538830518722534,"139":0.3190211057662964,"140":0.5527135133743286,"141":0.5077818632125854,"142":1.2956931591033936,"143":0.050417594611644745,"144":-0.5760301351547241,"145":0.7246541380882263,"146":-0.8963289856910706,"147":3.381498336791992,"148":0.7001422643661499,"149":-0.15118949115276337,"150":1.3460277318954468,"151":0.22641277313232422,"152":2.8655917644500732,"153":-1.9267510175704956,"154":-0.20427684485912323,"155":4.1048736572265625,"156":-2.258504629135132,"157":0.19147445261478424,"158":1.9387247562408447,"159":1.1274681091308594,"160":1.5879782438278198,"161":1.5632692575454712,"162":0.34845489263534546,"163":1.702828288078308,"164":0.5015923976898193,"165":-0.37495705485343933,"166":1.4297230243682861,"167":-0.0876176655292511,"168":-0.6472521424293518,"169":0.6015306115150452,"170":0.05716731771826744,"171":0.7669605016708374,"172":-0.9944933652877808,"173":0.21290341019630432,"174":0.29959648847579956,"175":0.6178470253944397,"176":1.3409755229949951,"177":-0.6461832523345947,"178":-0.4405365586280823,"179":-0.4808417856693268,"180":-0.18640372157096863,"181":-1.4331294298171997,"182":-3.4590651988983154,"183":0.3230709731578827,"184":0.17308706045150757,"185":0.3841732442378998,"186":-0.3287432789802551,"187":-0.5945680737495422,"188":1.4027323722839355,"189":-0.8218753337860107,"190":-1.4017622470855713,"191":-0.38918423652648926,"192":-0.9373818635940552,"193":1.1383305788040161,"194":0.06800701469182968,"195":2.568228244781494,"196":2.642050266265869,"197":1.2226624488830566,"198":-4.323540210723877,"199":-1.6451741456985474,"200":1.9197206497192383,"201":-0.9838258624076843,"202":-0.7523053288459778,"203":-0.2547647953033447,"204":-0.21773235499858856,"205":1.1726861000061035,"206":-1.246604084968567,"207":-0.5270662903785706,"208":-1.4051618576049805,"209":0.5498480200767517,"210":1.8870904445648193,"211":-0.6984583139419556,"212":0.7558757662773132,"213":0.7140658497810364,"214":0.4265267848968506,"215":-2.63214373588562,"216":0.5573512315750122,"217":-0.4423954486846924,"218":1.8589730262756348,"219":0.3481689989566803,"220":1.206426739692688,"221":-0.4687466025352478,"222":-0.7526781558990479,"223":-0.73207026720047,"224":0.3899984359741211,"225":-0.29834604263305664,"226":-1.5243927240371704,"227":2.416181802749634,"228":-2.0232324600219727,"229":0.11893407255411148,"230":-0.811324954032898,"231":1.1332285404205322,"232":0.3986499309539795,"233":-2.048539161682129,"234":0.722663938999176,"235":2.24906063079834,"236":0.215823695063591,"237":0.3921597898006439,"238":1.0135711431503296,"239":0.07278542965650558,"240":1.5152698755264282,"241":-1.8940740823745728,"242":1.452965497970581,"243":-0.15664918720722198,"244":1.204132318496704,"245":0.633666455745697,"246":-1.7523854970932007,"247":0.6582983136177063,"248":0.8958874344825745,"249":1.4123634099960327,"250":-1.1966209411621094,"251":-0.5218268632888794,"252":1.538681983947754,"253":0.5155977606773376,"254":1.5918478965759277,"255":1.5228111743927002,"256":-2.422975778579712,"257":-0.2320978343486786,"258":2.9932565689086914,"259":-0.23657430708408356,"260":0.8861343264579773,"261":0.9346868991851807,"262":-4.468867778778076,"263":0.17525194585323334,"264":-1.5615676641464233,"265":-0.5689713358879089,"266":0.271945059299469,"267":-0.4333660900592804,"268":-1.2831465005874634,"269":-2.196385145187378,"270":-2.392253875732422,"271":-3.9707107543945312,"272":-0.7270210981369019,"273":0.15102052688598633,"274":-0.7533968687057495,"275":-1.9477109909057617,"276":0.3261129856109619,"277":0.7670314311981201,"278":-3.188842296600342,"279":3.9293360710144043,"280":-2.0960781574249268,"281":0.45181432366371155,"282":1.358104944229126,"283":-1.0605120658874512,"284":1.9069042205810547,"285":0.9191593527793884,"286":-3.0630104541778564,"287":-0.007836390286684036,"288":1.7818965911865234,"289":1.6661012172698975,"290":4.040141582489014,"291":1.5069983005523682,"292":2.165148973464966,"293":1.4432786703109741,"294":-0.028211353346705437,"295":-0.39103972911834717,"296":1.2406740188598633,"297":-0.43872690200805664,"298":0.28142961859703064,"299":2.266115665435791,"300":-1.214524507522583,"301":-0.3726494610309601,"302":-1.60390043258667,"303":-2.6364948749542236,"304":-1.6640852689743042,"305":1.0461853742599487,"306":-1.8615987300872803,"307":-1.5488595962524414,"308":0.36938852071762085,"309":-1.5017940998077393,"310":-0.46790701150894165,"311":-0.9302511215209961,"312":-3.995850086212158,"313":0.790457010269165,"314":-0.10008532553911209,"315":0.13511963188648224,"316":2.654085874557495,"317":0.16447840631008148,"318":-4.022238731384277,"319":-0.030878469347953796,"320":1.889958143234253,"321":-1.0025180578231812,"322":-1.8021336793899536,"323":-0.8986541628837585,"324":1.478525996208191,"325":0.9556372761726379,"326":-1.3846715688705444,"327":-1.562526822090149,"328":-2.8160107135772705,"329":2.449493408203125,"330":1.3261092901229858,"331":-1.856695294380188,"332":2.4676854610443115,"333":-0.041759759187698364,"334":-1.3443782329559326,"335":-1.049128532409668,"336":-3.116394281387329,"337":-3.0933191776275635,"338":0.657708466053009,"339":2.1112477779388428,"340":-0.6961829662322998,"341":-2.3612332344055176,"342":-0.356011301279068,"343":1.3039356470108032,"344":-0.7179827690124512,"345":1.3411494493484497,"346":1.4098047018051147,"347":-0.6448260545730591,"348":0.6318212151527405,"349":0.1067708358168602,"350":-0.06402748823165894,"351":-1.5236377716064453,"352":-0.1196899563074112,"353":1.4927083253860474,"354":-1.2698235511779785,"355":-1.444821834564209,"356":1.6334291696548462,"357":-1.8712960481643677,"358":0.9053619503974915,"359":1.7365392446517944,"360":1.966246247291565,"361":2.6216742992401123,"362":1.3666354417800903,"363":-1.0753480195999146,"364":0.1204821988940239,"365":2.5011096000671387,"366":1.4300934076309204,"367":1.111785650253296,"368":-0.5611552596092224,"369":1.8885769844055176,"370":-3.7237367630004883,"371":-0.7831019759178162,"372":-3.9878149032592773,"373":-0.6772207617759705,"374":-1.8387737274169922,"375":0.9864169955253601,"376":-1.518065333366394,"377":-2.3753535747528076,"378":-3.667558431625366,"379":0.35732120275497437,"380":3.2145676612854004,"381":0.7397596836090088,"382":1.2572424411773682,"383":2.1217126846313477,"384":-1.9315344095230103,"385":0.5444804430007935,"386":-0.13082745671272278,"387":-0.2114051729440689,"388":-1.812943935394287,"389":-2.7105062007904053,"390":1.4686713218688965,"391":-1.7286098003387451,"392":0.6531397700309753,"393":-1.6549066305160522,"394":1.7406033277511597,"395":1.3490049839019775,"396":-0.9506605267524719,"397":-0.5151419043540955,"398":-0.2890113592147827,"399":1.9608322381973267}},"inputHidden":{"rows":20,"columns":20,"weights":{"0":0.4706290364265442,"1":0.9067009091377258,"2":1.7259410619735718,"3":2.2733497619628906,"4":-2.632758617401123,"5":-0.9952993988990784,"6":-0.8275325298309326,"7":-0.0246018934994936,"8":-1.002305269241333,"9":4.561417579650879,"10":0.9594743251800537,"11":-1.0069420337677002,"12":-1.3298975229263306,"13":-1.6656568050384521,"14":-1.7927398681640625,"15":-0.7074482440948486,"16":1.7910724878311157,"17":0.4412243664264679,"18":0.9412939548492432,"19":-0.20231285691261292,"20":0.3540779650211334,"21":2.6422410011291504,"22":0.10049623250961304,"23":3.0759549140930176,"24":-0.025710249319672585,"25":-0.3142123818397522,"26":0.2907273769378662,"27":-3.015714645385742,"28":0.7595435976982117,"29":0.9761936068534851,"30":1.8044829368591309,"31":-1.7193546295166016,"32":0.573449432849884,"33":0.9477942585945129,"34":1.8077102899551392,"35":-0.38055166602134705,"36":-2.343322277069092,"37":1.5599850416183472,"38":-0.21505506336688995,"39":-0.2880762815475464,"40":1.1181315183639526,"41":-0.1176164448261261,"42":-0.30552855134010315,"43":0.16974610090255737,"44":3.429962635040283,"45":1.4211370944976807,"46":1.4352707862854004,"47":0.8992714285850525,"48":0.6416047215461731,"49":-0.09527494758367538,"50":0.20601627230644226,"51":3.6965765953063965,"52":0.8591858148574829,"53":-0.3376156985759735,"54":1.4348728656768799,"55":0.14520570635795593,"56":0.04613629728555679,"57":0.5009245276451111,"58":1.488343596458435,"59":-5.522589206695557,"60":0.9121706485748291,"61":1.2713099718093872,"62":1.5411055088043213,"63":0.9191821217536926,"64":0.05453595146536827,"65":0.21417337656021118,"66":-0.7019151449203491,"67":1.1289260387420654,"68":-0.4468921720981598,"69":-0.108075350522995,"70":0.1528124362230301,"71":-0.7867465615272522,"72":-0.12827745079994202,"73":-0.5660421252250671,"74":-3.7487070560455322,"75":0.04921682924032211,"76":-0.7314608097076416,"77":0.9020979404449463,"78":1.110731601715088,"79":1.354607105255127,"80":0.18099358677864075,"81":-0.984153151512146,"82":0.9986048936843872,"83":0.33497336506843567,"84":0.7755334973335266,"85":-0.940075159072876,"86":-0.3618174195289612,"87":1.126743197441101,"88":-1.9571640491485596,"89":-0.6192853450775146,"90":-0.23063403367996216,"91":-1.415858268737793,"92":1.1667946577072144,"93":-0.1400124728679657,"94":1.2088717222213745,"95":-0.7452946305274963,"96":1.1389257907867432,"97":-0.2362581491470337,"98":-0.5684036016464233,"99":0.060703080147504807,"100":1.1714643239974976,"101":-0.5889774560928345,"102":2.347456455230713,"103":-0.8330910205841064,"104":0.9890024065971375,"105":-2.529728889465332,"106":-4.711256504058838,"107":-0.2939988970756531,"108":-7.779918193817139,"109":-1.9645529985427856,"110":0.29300031065940857,"111":-0.46815600991249084,"112":-0.7492462396621704,"113":1.8972115516662598,"114":-3.1488184928894043,"115":0.44178012013435364,"116":0.14566124975681305,"117":0.6282047033309937,"118":-1.3534175157546997,"119":2.892712116241455,"120":1.8922450542449951,"121":-1.8954564332962036,"122":1.1776742935180664,"123":-2.7348148822784424,"124":-1.230359435081482,"125":-2.8351361751556396,"126":-3.1501920223236084,"127":1.6765280961990356,"128":-4.844207286834717,"129":0.5572770833969116,"130":0.5605993270874023,"131":0.23421111702919006,"132":0.39511266350746155,"133":0.0913105309009552,"134":-0.9689731001853943,"135":-1.1660840511322021,"136":3.223101854324341,"137":0.03352876752614975,"138":0.9627867937088013,"139":-0.10963401943445206,"140":0.0008292532293125987,"141":0.022396501153707504,"142":2.585749387741089,"143":0.047027990221977234,"144":-1.4601085186004639,"145":-1.9496475458145142,"146":-2.2339820861816406,"147":-2.14755916595459,"148":-4.794340133666992,"149":0.6781507730484009,"150":-0.7701469659805298,"151":1.462218165397644,"152":-0.2013339400291443,"153":0.4920584261417389,"154":-2.8146719932556152,"155":-1.865525484085083,"156":-0.1585264950990677,"157":-1.0110715627670288,"158":0.7304089069366455,"159":-0.42330336570739746,"160":1.530007243156433,"161":-4.543948650360107,"162":2.38046932220459,"163":-1.790730357170105,"164":-5.184959411621094,"165":-2.629403591156006,"166":-0.2986692488193512,"167":2.4904532432556152,"168":-1.7476845979690552,"169":2.73210072517395,"170":3.2658066749572754,"171":1.5009335279464722,"172":2.5134315490722656,"173":0.7726381421089172,"174":-0.2887941598892212,"175":-2.6696889400482178,"176":1.0534651279449463,"177":2.8739876747131348,"178":1.1281462907791138,"179":0.01388875488191843,"180":-1.7439262866973877,"181":-1.1619398593902588,"182":0.9369713664054871,"183":1.3374680280685425,"184":-0.7537214756011963,"185":-2.015408992767334,"186":-1.3268561363220215,"187":0.4085078537464142,"188":-2.637598752975464,"189":0.06398357450962067,"190":-1.4683024883270264,"191":-0.355112224817276,"192":0.9527508616447449,"193":-2.502129316329956,"194":-0.3088512122631073,"195":-0.9292075634002686,"196":1.052037239074707,"197":-1.7101178169250488,"198":-0.025380751118063927,"199":-1.2291827201843262,"200":3.276768445968628,"201":0.05769571289420128,"202":-0.2835586369037628,"203":-0.8924267888069153,"204":-0.8195382952690125,"205":1.1558423042297363,"206":-3.3119006156921387,"207":0.546602725982666,"208":-1.4108707904815674,"209":-0.2702871263027191,"210":-0.8097429871559143,"211":4.469396114349365,"212":-2.633089303970337,"213":1.1511914730072021,"214":-0.6094676852226257,"215":-2.508990526199341,"216":2.293226957321167,"217":0.26249486207962036,"218":0.36997026205062866,"219":-1.0448819398880005,"220":4.432559967041016,"221":0.2575465142726898,"222":-0.6087172031402588,"223":-1.419974446296692,"224":-2.428792953491211,"225":-2.3106911182403564,"226":0.05888023227453232,"227":0.5961035490036011,"228":3.1410863399505615,"229":1.2279176712036133,"230":-0.5537042617797852,"231":2.288947343826294,"232":0.8924912214279175,"233":-0.9955062866210938,"234":-0.6452486515045166,"235":1.214350938796997,"236":2.319713592529297,"237":2.377763509750366,"238":1.0876861810684204,"239":5.010604381561279,"240":0.10150887072086334,"241":0.1952776461839676,"242":0.10678055882453918,"243":-1.6083205938339233,"244":-1.5058871507644653,"245":1.093018889427185,"246":-2.6232545375823975,"247":-2.0822720527648926,"248":-5.014435768127441,"249":-0.24516472220420837,"250":-2.383760929107666,"251":3.725674867630005,"252":-2.1869587898254395,"253":0.4720151722431183,"254":0.10254979878664017,"255":-1.8199901580810547,"256":1.9871639013290405,"257":-1.651474118232727,"258":-0.015920039266347885,"259":-1.4547080993652344,"260":-1.9988303184509277,"261":0.9524900913238525,"262":0.5203720331192017,"263":0.6249855756759644,"264":-2.611222267150879,"265":-0.5952791571617126,"266":-0.48722711205482483,"267":5.019313812255859,"268":-2.5741565227508545,"269":1.8764257431030273,"270":0.5019137859344482,"271":-2.538569688796997,"272":0.9233946800231934,"273":-0.38025394082069397,"274":-0.543187141418457,"275":0.04626941308379173,"276":2.4292988777160645,"277":1.599552869796753,"278":-0.6535069942474365,"279":1.2610230445861816,"280":-0.7330238223075867,"281":-1.6057183742523193,"282":0.6635379791259766,"283":-0.68998122215271,"284":-0.6933053135871887,"285":-0.894136369228363,"286":0.9147228002548218,"287":-1.706201434135437,"288":1.8450698852539062,"289":0.7931727766990662,"290":0.2259771078824997,"291":-2.5142672061920166,"292":0.8492351174354553,"293":0.7005948424339294,"294":-2.4468085765838623,"295":-1.4671293497085571,"296":0.15000884234905243,"297":0.9630594253540039,"298":1.8495500087738037,"299":0.10261156409978867,"300":-1.3868739604949951,"301":0.053377892822027206,"302":1.4000287055969238,"303":0.9780936241149902,"304":-1.7317339181900024,"305":-1.6405194997787476,"306":0.9540625214576721,"307":-2.078505277633667,"308":-0.9726676344871521,"309":1.074673056602478,"310":-0.9763277769088745,"311":-1.5617071390151978,"312":1.063188910484314,"313":-0.5363640785217285,"314":-0.09733591228723526,"315":0.4510170519351959,"316":0.1165553629398346,"317":-2.1397509574890137,"318":-2.187016010284424,"319":1.2837715148925781,"320":2.4713592529296875,"321":0.7422732710838318,"322":1.233985185623169,"323":0.19729936122894287,"324":-1.1383190155029297,"325":0.19828467071056366,"326":0.748549222946167,"327":0.00071892817504704,"328":-0.3773466646671295,"329":2.6350655555725098,"330":0.532072126865387,"331":-0.4022378623485565,"332":-1.4509254693984985,"333":-3.6207752227783203,"334":-1.8912969827651978,"335":-1.414799690246582,"336":3.3158669471740723,"337":-2.27895188331604,"338":0.6351776123046875,"339":1.4870429039001465,"340":1.4469956159591675,"341":-1.0979788303375244,"342":-0.397737056016922,"343":-1.679479956626892,"344":-1.3150477409362793,"345":0.06887327879667282,"346":-1.248818278312683,"347":-0.2990790605545044,"348":0.5268837809562683,"349":3.072962760925293,"350":-1.0826174020767212,"351":0.9035111665725708,"352":-0.04074729606509209,"353":0.6160921454429626,"354":-0.7816789150238037,"355":1.2264783382415771,"356":-0.09399686008691788,"357":-1.8566843271255493,"358":1.571003794670105,"359":-0.7731886506080627,"360":0.9815897345542908,"361":-0.4919835031032562,"362":1.2506701946258545,"363":-4.222685813903809,"364":-3.4097836017608643,"365":-2.48028826713562,"366":0.13196046650409698,"367":0.42748552560806274,"368":0.7268407940864563,"369":1.2817527055740356,"370":-1.5765626430511475,"371":-1.0508049726486206,"372":-1.580276370048523,"373":-1.809022068977356,"374":1.7558720111846924,"375":1.3142770528793335,"376":-0.9167245030403137,"377":-0.6609221696853638,"378":-1.0577385425567627,"379":1.6548231840133667,"380":6.586688041687012,"381":-0.18902678787708282,"382":0.06527608633041382,"383":-1.6560711860656738,"384":1.0774391889572144,"385":0.1948331743478775,"386":2.0078868865966797,"387":0.833148181438446,"388":2.2244009971618652,"389":0.12287206947803497,"390":1.12444007396698,"391":-3.2447423934936523,"392":0.6321925520896912,"393":0.1356244832277298,"394":0.6279423832893372,"395":-3.049323558807373,"396":3.710944175720215,"397":0.2305184006690979,"398":-1.805241346359253,"399":1.5310906171798706}},"inputBias":{"rows":20,"columns":1,"weights":{"0":-0.3298366367816925,"1":1.6927341222763062,"2":0.7890625,"3":-1.1536535024642944,"4":0.015356543473899364,"5":-0.3838473856449127,"6":3.8412039279937744,"7":-1.0708140134811401,"8":5.451804161071777,"9":0.4793862998485565,"10":1.6904891729354858,"11":-0.6336717009544373,"12":-0.9220010042190552,"13":0.5770066976547241,"14":1.0053038597106934,"15":1.1173372268676758,"16":-2.9323668479919434,"17":0.41185691952705383,"18":0.18782566487789154,"19":-1.4923384189605713}},"forgetMatrix":{"rows":20,"columns":20,"weights":{"0":-0.8989543318748474,"1":-1.6365419626235962,"2":-0.6399288177490234,"3":-0.08212301880121231,"4":-1.6216026544570923,"5":-2.266812562942505,"6":1.021097183227539,"7":5.114409446716309,"8":0.4274309277534485,"9":-1.2471778392791748,"10":-0.29955288767814636,"11":0.11004253476858139,"12":-1.9660823345184326,"13":-0.15668997168540955,"14":0.11720815300941467,"15":4.1136980056762695,"16":2.6620378494262695,"17":0.5050420165061951,"18":-2.743772506713867,"19":4.179262638092041,"20":-0.6221002340316772,"21":-0.24275600910186768,"22":-0.42305174469947815,"23":-1.489540457725525,"24":-0.4659566879272461,"25":-1.5484319925308228,"26":-0.9400685429573059,"27":0.7576930522918701,"28":-0.16857285797595978,"29":-0.8357787728309631,"30":-1.9185618162155151,"31":-0.007438148371875286,"32":0.25916892290115356,"33":-0.6693958640098572,"34":-0.3829456865787506,"35":-0.5151605010032654,"36":1.5551819801330566,"37":-0.06095302104949951,"38":2.2076494693756104,"39":1.95516037940979,"40":-0.2641617953777313,"41":-3.0968964099884033,"42":-1.7436240911483765,"43":-0.9452205896377563,"44":-0.5431726574897766,"45":1.2271647453308105,"46":2.7607202529907227,"47":0.5705168843269348,"48":-0.6737942099571228,"49":-1.3876529932022095,"50":-0.33115342259407043,"51":-0.3942120373249054,"52":-2.945633888244629,"53":-3.596318244934082,"54":-0.1560746133327484,"55":-0.2909746468067169,"56":-0.22552597522735596,"57":1.070992350578308,"58":-1.0869531631469727,"59":-0.5038627982139587,"60":0.14489339292049408,"61":3.290109395980835,"62":0.30803585052490234,"63":-0.7612317800521851,"64":2.899294137954712,"65":0.1760992705821991,"66":-0.4100841283798218,"67":1.4579613208770752,"68":-2.7342569828033447,"69":-0.21785001456737518,"70":0.8235092163085938,"71":-0.16691450774669647,"72":-2.265230894088745,"73":-1.1843501329421997,"74":0.7133201956748962,"75":0.7461906671524048,"76":-0.3932696282863617,"77":2.2218265533447266,"78":1.80173921585083,"79":0.6214963793754578,"80":-0.03643110767006874,"81":-1.032408356666565,"82":-3.9075074195861816,"83":0.620880663394928,"84":0.031400181353092194,"85":0.5390786528587341,"86":-1.128404974937439,"87":1.9120359420776367,"88":0.5264109373092651,"89":-1.547677993774414,"90":0.33447855710983276,"91":-1.8234986066818237,"92":-0.522527277469635,"93":-0.6980488300323486,"94":0.060365065932273865,"95":0.46905767917633057,"96":1.5494358539581299,"97":0.21925412118434906,"98":-4.795256614685059,"99":2.2174830436706543,"100":0.4196169674396515,"101":-0.24386653304100037,"102":-0.45640698075294495,"103":-0.809834897518158,"104":-2.1416752338409424,"105":1.9713572263717651,"106":-1.164743185043335,"107":0.3070780634880066,"108":2.626234292984009,"109":-2.095493793487549,"110":0.443659245967865,"111":-0.9842958450317383,"112":1.2229459285736084,"113":-0.8940873742103577,"114":-1.4314234256744385,"115":-2.0153207778930664,"116":3.152979612350464,"117":-0.5874384045600891,"118":0.9039761424064636,"119":1.2082858085632324,"120":-1.0919378995895386,"121":1.5874674320220947,"122":-1.8238338232040405,"123":-0.7920977473258972,"124":-1.0012017488479614,"125":-0.9926069974899292,"126":-0.47078731656074524,"127":0.902929425239563,"128":3.5169453620910645,"129":-0.7333326935768127,"130":0.7104772925376892,"131":0.48247042298316956,"132":-1.0906708240509033,"133":-0.3020060062408447,"134":0.6656728982925415,"135":2.1827454566955566,"136":1.1360870599746704,"137":1.27654230594635,"138":-0.6776787638664246,"139":-1.9484765529632568,"140":-0.651860773563385,"141":1.304726243019104,"142":-0.2613271474838257,"143":-2.407548427581787,"144":1.4027173519134521,"145":-1.5660470724105835,"146":-1.6705341339111328,"147":0.9400908350944519,"148":0.8481544852256775,"149":0.5034687519073486,"150":0.08606690913438797,"151":0.5738027095794678,"152":2.068451166152954,"153":-2.716567277908325,"154":0.8055933117866516,"155":0.5728743672370911,"156":1.2619494199752808,"157":0.523554801940918,"158":1.1654242277145386,"159":0.46494776010513306,"160":-1.529337763786316,"161":-0.4209842085838318,"162":-1.923796534538269,"163":0.05280129238963127,"164":0.0648050531744957,"165":-0.9822235703468323,"166":0.02919592522084713,"167":-0.30170705914497375,"168":3.0830814838409424,"169":0.28622543811798096,"170":0.780721127986908,"171":0.11566048860549927,"172":-0.2050800770521164,"173":0.36129626631736755,"174":-0.4134048521518707,"175":1.6086581945419312,"176":0.8215732574462891,"177":-0.5301973223686218,"178":-2.133251190185547,"179":1.2375661134719849,"180":1.5249522924423218,"181":0.38022151589393616,"182":-3.439913272857666,"183":0.8958742022514343,"184":1.2696189880371094,"185":1.4643008708953857,"186":0.039132095873355865,"187":-0.09425830841064453,"188":1.6340147256851196,"189":0.20596227049827576,"190":-0.2080308049917221,"191":-2.7959015369415283,"192":-1.5586901903152466,"193":-1.0392686128616333,"194":0.28698670864105225,"195":-0.7981430292129517,"196":4.456390857696533,"197":-0.38157349824905396,"198":-4.38493013381958,"199":3.2177786827087402,"200":2.8480567932128906,"201":0.6988518834114075,"202":1.7720389366149902,"203":-0.05584895983338356,"204":-1.382605791091919,"205":-0.0410422645509243,"206":-0.015034961514174938,"207":1.2657753229141235,"208":-0.03599174693226814,"209":-2.4507555961608887,"210":1.1432751417160034,"211":3.2271199226379395,"212":0.26410526037216187,"213":0.13666298985481262,"214":0.8602340221405029,"215":-0.23400937020778656,"216":-2.147759437561035,"217":-0.7999048829078674,"218":2.0956649780273438,"219":-4.068360805511475,"220":-0.6914637684822083,"221":-0.12488127499818802,"222":-0.7451496124267578,"223":1.16486394405365,"224":-0.7149639129638672,"225":-1.7405048608779907,"226":3.062126874923706,"227":0.23089143633842468,"228":0.5552228689193726,"229":-0.9241424202919006,"230":-0.9814789295196533,"231":-1.2551463842391968,"232":-2.406372308731079,"233":1.8587214946746826,"234":0.04956146329641342,"235":-0.33901071548461914,"236":-0.13900016248226166,"237":2.0611653327941895,"238":0.000528206117451191,"239":-1.21119225025177,"240":2.7438950538635254,"241":1.2328064441680908,"242":1.3347114324569702,"243":0.31185436248779297,"244":-0.7676408886909485,"245":-0.026619136333465576,"246":-0.13800519704818726,"247":0.6592510342597961,"248":-1.2662599086761475,"249":0.12080572545528412,"250":-0.8259534239768982,"251":0.2968834340572357,"252":0.07302884757518768,"253":0.6370282173156738,"254":1.241774320602417,"255":0.40787631273269653,"256":-2.5072169303894043,"257":0.22996856272220612,"258":1.547973394393921,"259":-0.8731887340545654,"260":-1.5737481117248535,"261":0.01994611881673336,"262":-3.620359420776367,"263":0.7358745336532593,"264":-2.3029518127441406,"265":1.2124193906784058,"266":1.1367839574813843,"267":0.42386701703071594,"268":4.270417213439941,"269":-2.527080774307251,"270":-0.9763157367706299,"271":-2.1964452266693115,"272":4.609858989715576,"273":0.13228952884674072,"274":-0.11371739953756332,"275":-3.64971923828125,"276":-0.42873361706733704,"277":1.2460005283355713,"278":-1.615700602531433,"279":5.752018928527832,"280":-1.4499176740646362,"281":-0.2911940813064575,"282":1.0196603536605835,"283":-0.9801828265190125,"284":2.125087261199951,"285":-0.09025247395038605,"286":-0.005609692540019751,"287":-1.3190828561782837,"288":1.8035447597503662,"289":1.0800213813781738,"290":1.0498504638671875,"291":1.1911649703979492,"292":-1.8711609840393066,"293":2.554527997970581,"294":0.5780448913574219,"295":0.40584492683410645,"296":-0.7447770237922668,"297":-0.3849009573459625,"298":0.4783044457435608,"299":-1.2507339715957642,"300":-1.7953213453292847,"301":1.3623738288879395,"302":-0.989212155342102,"303":0.63287752866745,"304":-1.3060379028320312,"305":-0.016854487359523773,"306":1.6275904178619385,"307":3.400524854660034,"308":-0.9178053140640259,"309":-1.3192994594573975,"310":-0.9096602201461792,"311":-1.0165793895721436,"312":-1.179476261138916,"313":-2.8093292713165283,"314":0.3237836956977844,"315":0.11012518405914307,"316":-0.08807305246591568,"317":3.1292195320129395,"318":-0.43116095662117004,"319":0.16510598361492157,"320":-0.0774310752749443,"321":0.9377517104148865,"322":-0.466449111700058,"323":-0.27736538648605347,"324":-0.5095304846763611,"325":-0.6509106159210205,"326":0.1266544759273529,"327":-0.5970584750175476,"328":-0.35965442657470703,"329":0.6080736517906189,"330":0.7207741141319275,"331":-0.7396458983421326,"332":-1.3190642595291138,"333":-0.7206253409385681,"334":-1.6902666091918945,"335":4.472990036010742,"336":1.1783589124679565,"337":-2.1164708137512207,"338":-2.3506078720092773,"339":3.30385422706604,"340":2.2134695053100586,"341":-1.6001670360565186,"342":0.4692443907260895,"343":0.3727560341358185,"344":-3.061077117919922,"345":-0.10656099021434784,"346":2.721562147140503,"347":0.12966285645961761,"348":-0.8084394335746765,"349":-1.4155069589614868,"350":-2.358736515045166,"351":-3.1386337280273438,"352":-2.178471803665161,"353":0.05938776209950447,"354":-0.14380700886249542,"355":0.6521528363227844,"356":-1.785583257675171,"357":0.8079162836074829,"358":-1.1803690195083618,"359":-1.4864766597747803,"360":1.2124652862548828,"361":2.0767900943756104,"362":-2.0489680767059326,"363":-0.5219935774803162,"364":2.43025279045105,"365":2.090880870819092,"366":1.371388554573059,"367":0.9837734699249268,"368":-1.900852918624878,"369":2.1702632904052734,"370":1.7643580436706543,"371":-0.41257160902023315,"372":-1.8445813655853271,"373":-2.0249171257019043,"374":-2.9435482025146484,"375":1.0328997373580933,"376":-1.4980859756469727,"377":-0.530372142791748,"378":-0.4659547209739685,"379":-0.26342010498046875,"380":-1.760145664215088,"381":0.6968286037445068,"382":-0.22858589887619019,"383":-1.153367519378662,"384":-1.5837758779525757,"385":1.5784374475479126,"386":-0.7619969844818115,"387":-0.04223513603210449,"388":0.5777990818023682,"389":-1.0512690544128418,"390":-0.8461698293685913,"391":2.812270164489746,"392":0.9790836572647095,"393":0.3786596357822418,"394":0.04789165034890175,"395":0.9176121354103088,"396":0.33672550320625305,"397":-0.5568575263023376,"398":1.0460723638534546,"399":1.0345053672790527}},"forgetHidden":{"rows":20,"columns":20,"weights":{"0":1.1361675262451172,"1":0.24289007484912872,"2":0.12541097402572632,"3":-0.8450483083724976,"4":0.6203276515007019,"5":-2.2097666263580322,"6":-2.68942928314209,"7":0.579461932182312,"8":-0.9349815249443054,"9":0.6900421380996704,"10":0.33069154620170593,"11":-1.4832371473312378,"12":-0.18084488809108734,"13":-2.411473512649536,"14":-0.22426840662956238,"15":0.490146666765213,"16":0.2814446985721588,"17":-0.26627930998802185,"18":3.0911149978637695,"19":2.7630765438079834,"20":2.3769428730010986,"21":2.755099058151245,"22":-2.422269105911255,"23":0.36294594407081604,"24":0.6450883746147156,"25":1.5629329681396484,"26":-2.686021566390991,"27":-3.0813088417053223,"28":-4.6801300048828125,"29":0.22821739315986633,"30":-0.524682343006134,"31":1.51676607131958,"32":-0.6926292181015015,"33":1.9139868021011353,"34":-3.2810451984405518,"35":-1.0487457513809204,"36":1.317144513130188,"37":-0.0027304263785481453,"38":0.6453816890716553,"39":-2.62640118598938,"40":-1.0508050918579102,"41":0.4884890913963318,"42":-1.6420873403549194,"43":0.6652897000312805,"44":2.549121379852295,"45":0.6791704297065735,"46":2.0960795879364014,"47":1.9813772439956665,"48":4.43549108505249,"49":-1.3869367837905884,"50":1.2894853353500366,"51":-0.9086982011795044,"52":1.6569232940673828,"53":-3.62772274017334,"54":1.6519778966903687,"55":-0.45223355293273926,"56":-0.6299501657485962,"57":0.14437071979045868,"58":0.28901273012161255,"59":-2.951414108276367,"60":0.187736377120018,"61":-1.3704622983932495,"62":4.099411487579346,"63":-0.6830612421035767,"64":0.5237892866134644,"65":-0.44991588592529297,"66":-1.556580901145935,"67":-1.640392780303955,"68":-3.6909728050231934,"69":-2.046315908432007,"70":-0.31234046816825867,"71":-1.6143091917037964,"72":-0.7711815237998962,"73":0.5111009478569031,"74":0.311391144990921,"75":-1.8239521980285645,"76":-1.3195598125457764,"77":0.1639852523803711,"78":0.5249773263931274,"79":-0.20748171210289001,"80":2.128154754638672,"81":0.2984082102775574,"82":0.6009502410888672,"83":0.3889472186565399,"84":1.2886520624160767,"85":-0.6706246137619019,"86":-1.6254271268844604,"87":-0.006592394318431616,"88":-2.4504120349884033,"89":-1.2918262481689453,"90":2.0176708698272705,"91":-0.5884138345718384,"92":1.1423571109771729,"93":-2.034888744354248,"94":1.326961874961853,"95":-0.13953986763954163,"96":0.9330074191093445,"97":1.4942271709442139,"98":-0.16104787588119507,"99":-0.09642231464385986,"100":-0.09262336045503616,"101":-0.564507246017456,"102":2.3458847999572754,"103":-2.389227867126465,"104":-2.3212389945983887,"105":-0.2852112650871277,"106":-0.6723771095275879,"107":-0.6915196180343628,"108":2.5098443031311035,"109":1.756149411201477,"110":0.03429870679974556,"111":-3.2123422622680664,"112":0.43141162395477295,"113":3.475297689437866,"114":-0.10105765610933304,"115":-3.283874750137329,"116":0.23591330647468567,"117":1.7175309658050537,"118":0.8405368328094482,"119":-0.24333137273788452,"120":1.6832008361816406,"121":1.9679639339447021,"122":-2.2263991832733154,"123":0.643710732460022,"124":1.5769689083099365,"125":-0.11063222587108612,"126":-1.4613077640533447,"127":-1.499244213104248,"128":4.37932825088501,"129":-1.9942927360534668,"130":-1.2509628534317017,"131":-2.176931142807007,"132":-1.249350666999817,"133":-0.8648361563682556,"134":-1.0153100490570068,"135":1.2095998525619507,"136":-1.1634949445724487,"137":-0.8842276930809021,"138":-0.8986467123031616,"139":1.7949005365371704,"140":-1.1604665517807007,"141":0.8608594536781311,"142":1.133806586265564,"143":0.20102234184741974,"144":-0.9428600668907166,"145":-0.991283655166626,"146":4.492271900177002,"147":0.07885906100273132,"148":1.9946186542510986,"149":0.25440627336502075,"150":0.610270082950592,"151":0.06995470821857452,"152":0.5991426110267639,"153":-0.936886727809906,"154":-1.680521845817566,"155":-2.04819393157959,"156":-0.3308182954788208,"157":2.2603273391723633,"158":-1.5661290884017944,"159":5.10162878036499,"160":2.022813081741333,"161":0.6454904675483704,"162":-3.0823872089385986,"163":-0.18821962177753448,"164":6.88314962387085,"165":1.017030119895935,"166":1.5735108852386475,"167":2.734539031982422,"168":1.9443063735961914,"169":-3.9680349826812744,"170":0.2697925567626953,"171":-0.14653892815113068,"172":1.1123236417770386,"173":-3.0360851287841797,"174":2.072774648666382,"175":1.7659603357315063,"176":0.3090601861476898,"177":-1.5283559560775757,"178":0.5898959636688232,"179":2.1343743801116943,"180":-3.362548828125,"181":-0.6919529438018799,"182":1.336294412612915,"183":2.9849259853363037,"184":0.2452767938375473,"185":-1.347420573234558,"186":-1.3830101490020752,"187":1.167539358139038,"188":-2.294674873352051,"189":-0.4494030773639679,"190":-0.2891707718372345,"191":0.4067654013633728,"192":0.22067183256149292,"193":-3.1406397819519043,"194":-0.11045047640800476,"195":-0.22860975563526154,"196":0.3625994324684143,"197":0.2808113992214203,"198":-0.41969066858291626,"199":-0.8244098424911499,"200":2.0120201110839844,"201":-0.5183568596839905,"202":1.2569130659103394,"203":-2.7938406467437744,"204":0.2718464434146881,"205":1.8685877323150635,"206":-0.8226469159126282,"207":-1.1422289609909058,"208":-2.488415002822876,"209":-2.2826859951019287,"210":-0.05388485640287399,"211":1.2406011819839478,"212":-0.9978167414665222,"213":-2.5098648071289062,"214":0.2544156014919281,"215":-2.0663344860076904,"216":1.1799238920211792,"217":-0.20830324292182922,"218":1.8329391479492188,"219":2.1527340412139893,"220":-0.12246765941381454,"221":-1.4166878461837769,"222":1.261760950088501,"223":-1.1974183320999146,"224":-1.0330744981765747,"225":-0.7314656376838684,"226":1.001001238822937,"227":0.5458803176879883,"228":-0.19166700541973114,"229":-0.649915874004364,"230":0.8095791935920715,"231":-0.09357258677482605,"232":0.06306607276201248,"233":1.0160298347473145,"234":-0.3834696412086487,"235":-1.57476007938385,"236":0.6345815658569336,"237":1.690876841545105,"238":2.6024980545043945,"239":1.4632585048675537,"240":0.5255843997001648,"241":-0.7490139007568359,"242":-0.423961341381073,"243":-2.95632266998291,"244":0.41604724526405334,"245":1.985114574432373,"246":-2.9474899768829346,"247":-0.388045996427536,"248":-1.7412796020507812,"249":-0.037478912621736526,"250":-0.5325696468353271,"251":1.8861589431762695,"252":-1.8138365745544434,"253":5.077387809753418,"254":0.7321217656135559,"255":0.08757620304822922,"256":1.2241790294647217,"257":-1.95261549949646,"258":0.005521406885236502,"259":-3.2884371280670166,"260":-0.1183476522564888,"261":-0.7632058262825012,"262":-2.51894211769104,"263":-0.9187794327735901,"264":1.4809656143188477,"265":-1.079209327697754,"266":1.5938538312911987,"267":3.403756856918335,"268":1.9021081924438477,"269":-1.7937935590744019,"270":-1.2072644233703613,"271":-0.8676550388336182,"272":0.6977511048316956,"273":-0.7237213253974915,"274":0.1596488356590271,"275":2.2101306915283203,"276":0.4803098440170288,"277":-1.203795313835144,"278":-1.521699070930481,"279":0.7716900706291199,"280":0.4504985213279724,"281":-0.7414482831954956,"282":-2.0003318786621094,"283":0.6674675345420837,"284":0.9992916584014893,"285":2.4999353885650635,"286":0.08082497864961624,"287":0.3704833984375,"288":2.5934560298919678,"289":-1.4677542448043823,"290":-1.4399980306625366,"291":-0.4495987594127655,"292":-0.8412970900535583,"293":-1.0888941287994385,"294":-0.4284185469150543,"295":-0.5809357762336731,"296":-1.046790361404419,"297":-1.8563746213912964,"298":-1.655409812927246,"299":-2.1331069469451904,"300":-3.9459128379821777,"301":0.8947532773017883,"302":0.8716421127319336,"303":4.1146368980407715,"304":-1.986057996749878,"305":-0.9209455847740173,"306":1.2330411672592163,"307":2.146249532699585,"308":2.6488072872161865,"309":0.9552527666091919,"310":-0.6542542576789856,"311":-0.23254220187664032,"312":0.8653966784477234,"313":0.32391539216041565,"314":-1.8795844316482544,"315":2.1729736328125,"316":-0.6078031659126282,"317":-0.9489583373069763,"318":-0.23085597157478333,"319":0.6060464382171631,"320":0.7133664488792419,"321":-0.3478030562400818,"322":0.36101576685905457,"323":0.11788388341665268,"324":0.9232812523841858,"325":-0.5886400938034058,"326":0.6665142178535461,"327":3.434704542160034,"328":0.33464494347572327,"329":-0.19263817369937897,"330":1.1485369205474854,"331":-1.1331630945205688,"332":-0.4112824499607086,"333":-4.054372310638428,"334":1.2653909921646118,"335":-1.184404730796814,"336":0.17634133994579315,"337":0.8513652086257935,"338":2.6097049713134766,"339":3.299227476119995,"340":-0.03391321375966072,"341":-1.3716026544570923,"342":-0.044022370129823685,"343":-3.3268957138061523,"344":-0.6169851422309875,"345":1.3277111053466797,"346":1.01749587059021,"347":-2.0617737770080566,"348":-0.7199784517288208,"349":0.4168337285518646,"350":-1.023962378501892,"351":-0.8571262359619141,"352":-1.1589288711547852,"353":2.584808349609375,"354":1.0775134563446045,"355":0.36129796504974365,"356":-0.1626584380865097,"357":-1.4616460800170898,"358":-1.7501506805419922,"359":1.0378843545913696,"360":0.07622930407524109,"361":-0.28592097759246826,"362":1.4081032276153564,"363":-1.0938328504562378,"364":-0.3840457499027252,"365":-2.380540609359741,"366":2.207834005355835,"367":1.9440041780471802,"368":0.5693833827972412,"369":-0.9778163433074951,"370":-0.41829800605773926,"371":2.206813335418701,"372":-1.5119270086288452,"373":2.5963032245635986,"374":3.270143508911133,"375":1.8407196998596191,"376":-0.42459699511528015,"377":-0.7945512533187866,"378":-1.7407019138336182,"379":4.801417827606201,"380":1.2332407236099243,"381":0.7167401313781738,"382":-0.32316482067108154,"383":-5.078879356384277,"384":-0.34960606694221497,"385":-0.8502016663551331,"386":0.6017925143241882,"387":-1.3412545919418335,"388":0.3996941149234772,"389":0.25115492939949036,"390":-0.9774224758148193,"391":-2.83756160736084,"392":0.751417338848114,"393":-1.8953920602798462,"394":0.9965106844902039,"395":-1.5322755575180054,"396":1.281856894493103,"397":1.756417155265808,"398":0.6929010152816772,"399":-0.46738260984420776}},"forgetBias":{"rows":20,"columns":1,"weights":{"0":0,"1":0,"2":0,"3":0,"4":0,"5":0,"6":0,"7":0,"8":0,"9":0,"10":0,"11":0,"12":0,"13":0,"14":0,"15":0,"16":0,"17":0,"18":0,"19":0}},"outputMatrix":{"rows":20,"columns":20,"weights":{"0":0.8040431141853333,"1":-0.22502265870571136,"2":-1.6516755819320679,"3":-0.919579803943634,"4":0.693130373954773,"5":-0.9488300681114197,"6":0.0059541198424994946,"7":-4.689090251922607,"8":-1.9194086790084839,"9":0.9398750066757202,"10":0.3674136698246002,"11":0.08673454821109772,"12":2.2151379585266113,"13":0.5293686389923096,"14":-2.435626745223999,"15":0.2171187698841095,"16":-2.0849297046661377,"17":-2.9169819355010986,"18":0.3699777126312256,"19":1.0660552978515625,"20":0.1452324390411377,"21":-4.004312515258789,"22":-0.7957221269607544,"23":0.2190581113100052,"24":1.2314502000808716,"25":-0.45241081714630127,"26":-0.8136163949966431,"27":0.3157199025154114,"28":-1.1512508392333984,"29":0.6929178833961487,"30":-1.8469252586364746,"31":-0.2229030281305313,"32":1.8282010555267334,"33":-1.8728883266448975,"34":-1.835880994796753,"35":-1.9571083784103394,"36":-0.7986013889312744,"37":0.37308812141418457,"38":3.299243927001953,"39":-1.141278624534607,"40":-1.1943098306655884,"41":-1.1801655292510986,"42":-1.6284058094024658,"43":-0.0066907284781336784,"44":-0.6080297231674194,"45":-1.6493126153945923,"46":1.3543683290481567,"47":1.0287954807281494,"48":-0.5209124088287354,"49":0.9065269231796265,"50":-0.17544309794902802,"51":-2.919062614440918,"52":-0.062141165137290955,"53":-0.6565297842025757,"54":-1.39627206325531,"55":0.4615624248981476,"56":-1.006360411643982,"57":-0.9508640766143799,"58":-0.0323987640440464,"59":-1.896146535873413,"60":0.39297711849212646,"61":0.09129379689693451,"62":1.7811424732208252,"63":-3.20318603515625,"64":3.3151397705078125,"65":1.3440428972244263,"66":-3.603684902191162,"67":-0.659428060054779,"68":-1.4286147356033325,"69":1.6947110891342163,"70":3.28548526763916,"71":1.541978120803833,"72":-1.1767404079437256,"73":-1.4090749025344849,"74":0.22989517450332642,"75":-0.49694862961769104,"76":2.275299549102783,"77":0.9980245232582092,"78":1.4924744367599487,"79":-0.6107015609741211,"80":-0.8747004270553589,"81":-2.598789691925049,"82":-2.428856372833252,"83":0.3479979336261749,"84":0.16176871955394745,"85":0.7872296571731567,"86":-0.7481399774551392,"87":1.3345690965652466,"88":0.7215241193771362,"89":0.2377355992794037,"90":-1.5751351118087769,"91":-1.9078402519226074,"92":1.2387850284576416,"93":0.027836782857775688,"94":-0.39637643098831177,"95":-0.0921691283583641,"96":1.6644749641418457,"97":1.6057446002960205,"98":-3.712651252746582,"99":0.6179807782173157,"100":0.23113475739955902,"101":-0.016496645286679268,"102":3.267141103744507,"103":-1.933242678642273,"104":-1.4148211479187012,"105":1.4556108713150024,"106":-2.1223647594451904,"107":0.20285747945308685,"108":0.5062126517295837,"109":-1.0173672437667847,"110":0.5329108238220215,"111":2.029754638671875,"112":0.5672028064727783,"113":-0.671212375164032,"114":4.649660587310791,"115":0.2345164716243744,"116":-0.45689064264297485,"117":2.2178070545196533,"118":-1.607140302658081,"119":-0.9380084872245789,"120":-1.2612565755844116,"121":-0.202634796500206,"122":0.18084552884101868,"123":-1.2010506391525269,"124":-0.46924588084220886,"125":1.2392570972442627,"126":0.4951097369194031,"127":0.9402686953544617,"128":1.3985071182250977,"129":0.06167153641581535,"130":-0.016608597710728645,"131":1.3657732009887695,"132":-0.07223135232925415,"133":0.5233933925628662,"134":1.1954683065414429,"135":1.4917352199554443,"136":0.12204740196466446,"137":1.154857873916626,"138":0.7119156718254089,"139":-0.08001316338777542,"140":-1.3469382524490356,"141":0.39798271656036377,"142":0.0016062259674072266,"143":-0.7696166038513184,"144":1.3191335201263428,"145":1.2977653741836548,"146":-1.0842384099960327,"147":1.765881896018982,"148":1.6893634796142578,"149":1.1998941898345947,"150":2.303828477859497,"151":-0.8991013169288635,"152":0.21487167477607727,"153":-1.4925143718719482,"154":1.6932899951934814,"155":-1.6440860033035278,"156":-1.068832516670227,"157":0.6208663582801819,"158":1.400214433670044,"159":-1.2964880466461182,"160":-1.1516168117523193,"161":1.6926758289337158,"162":-0.8696269989013672,"163":-2.149324417114258,"164":1.0166901350021362,