{"type":"LSTM","options":{"inputSize":5,"inputRange":5,"hiddenLayers":[20,20],"outputSize":5,"decayRate":0.999,"smoothEps":1e-8,"regc":0.000001,"clipval":5,"maxPredictionLength":9,"dataFormatter":{"values":["--------- -----C--- -----P--- -----PC-- ----PPC-- ----CPC-- P---CPC-- C---CPC-- C---CPC-P CC--CPC-P CC--CPC-P CC-CCPC-P","--------- -------P- C------P- C--P---P- C--C---P- C--C-P-P- C--C-PCP-","--------- --C------ --C----P- --C--C-P- -PC--C-P- -PC--C-PC","--------- --P------ --P-----C --P--P--C --P--C--C --PP-C--C --PP-C--C --PP-CP-C --PP-CP-C --PP-PP-C --PP-PP-C --PP-PP-C --PP-CP-C --PP-CP-C --PP-CP-C --PP-PP-C --PC-PP-C --PC-PPPC C-PC-PPPC CPPC-PPPC CPPCCPPPC","--------- ---P----- ---P---C- --PP---C- C-PP---C- C-PP-P-C- C-PP-P-CC CPPP-P-CC CCPP-P-CC CCPP-P-CC CCPPCP-CC","--------- --------C ------P-C ------PCC ---P--PCC ---P--PCC ---PP-PCC C--PP-PCC C--PP-PCC C--PP-PCC C--PP-PCC C--PPCPCC C--PPCPCC C--PCCPCC","--------- ---C----- -P-C----- -P-C--C-- -P-P--C-- -C-P--C-- -C-P--P-- -C-C--P-- -C-CP-P-- -C-CP-P-- -C-CP-P-- -CCCP-P-- -CCCPPP-- -CCCCPP-- PCCCCPP-- PCCCCCP--","--------- ----P---- ---CP---- -P-CP---- -P-CP---C -P-CP-P-C -P-CP-C-C -P-PP-C-C -P-PC-C-C -P-PC-P-C -P-PC-PCC -PPPC-PCC -PPPC-PCC -PPPC-PCC -PPPCCPCC -PPPCCPCC -CPPCCPCC","--------- ----C---- -P--C---- -C--C---- -C--CP--- -C--CP-C-","--------- -------P- C------P- C-P----P- C-C----P- C-C--P-P- C-CC-P-P- C-CC-P-PP C-CCCP-PP C-CCCP-PP C-CCCC-PP","--------- ------P-- C-----P-- C-----PP- C-----PP- C--P--PP- C--P--CP- C--P--CP- C--P--CP- CP-P--CP- CP-P--CP- CP-P-PCP- CP-PCPCP- CP-PCPCPP CPCPCPCPP","--------- ----C---- ----C--P- ----C--PC ----C--PP ----CC-PP ---PCC-PP ---PCC-PC ---PCCPPC ---PCCPPC ---PCCPPC ---PCCPCC ---PCCPCP ---PCCPCC ---PCCPCC ---PCCPCC ---PCCPCC ---PCCCCC","--------- -----C--- -----C-P- --C--C-P- -PC--C-P- -PC--C-PC","--------- ------C-- P-----C-- P---C-C-- PP--C-C-- CP--C-C-- CP--C-C-- CP--CCC-- CP--CCP-- CP--CCP-- CP--CCPP- CP--CCPP- PP--CCPP- PP--CCCP- PP--CCPP- CP--CCPP- CP--CCPP- CC--CCPP- CC-PCCPP- CC-PCCPPC","--------- --P------ --PC----- --PC--P-- --PC--P-C --PC--P-C --PC-CP-C --PC-CPPC --PCCCPPC","--------- --------P --C-----P --C-----P --CC----P --CC----P --CC----P --CC-P--P --CC-PC-P -PCC-PC-P CPCC-PC-P","--------- --------P -------CP -----P-CP ----CP-CP ----PP-CP -C--PP-CP -P--PP-CP -P--CP-CP -P--CPPCP -P--CPPCP -P--CPPCP -P--CCPCP -P--CPPCP CP--CPPCP CP-PCPPCP CP-CCPPCP CP-CPPPCP CP-CPPPCP CP-CPPPCP CP-CPPCCP","--------- ----P---- ----PC--- --P-PC--- --P-CC--- --PPCC--- --PCCC---","--------- ------P-- ------P-C --P---P-C --P---PCC P-P---PCC P-P---CCC","--------- --------C ------P-C -----CP-C -----CP-P ---C-CP-P ---C-CP-P ---CCCP-P","--------- ------C-- -----PC-- ---C-PC-- ---C-PC-- -C-C-PC-- -CPC-PC-- -CPC-PC-C -CPCPPC-C -CPCPPC-C -CPCPPC-C -CCCPPC-C -CCCPPCPC -CCCPCCPC","--------- -----C--- -----CP-- -----CC-- -P---CC-- -PC--CC-- -PC--CC-P -PCC-CC-P -PCP-CC-P -PCP-CCCP -PCP-CPCP -PCPCCPCP -PCPPCPCP -PCPCCPCP -PCPCCPCP -PCPCCPCC","--------- -----C--- -----CP-- -----CC-- -P---CC-- -P--CCC-- -P--CCC-P -C--CCC-P -C--CCCPP -C--CCCPP -P--CCCPP CP--CCCPP CP--CCCPP CPC-CCCPP","--------- -------P- ---C---P- ---C---P- ---C---P- --PC---P- --PC---C- -PPC---C- -PPC---C- -PPC---C- -CPC---C- -CPC---CP -CPC---CC -CPC---CC -CPC---CC -CPC---PC -CPC---CC -PPC---CC -PPC--CCC","--------- -----P--- -----C--- ----PC--- ----PCC-- ----PCC-P ----CCC-P ----CCC-P ---CCCC-P","--------- -----C--- ----PC--- --C-PC--- --C-PP--- --C-PP--C --C-PP--C --C-CP--C --C-CP--C C-C-CP--C","--------- ----C---- P---C---- P---C--C- PP--C--C- PC--C--C-","--------- -----P--- -----P--C -----P-PC -C---P-PC -C---P-PC -C---PCPC -C---PPPC -C---CPPC PC---CPPC PC-C-CPPC PC-C-CPPC PCCC-CPPC","--------- -P------- -P-----C- -P-----CP -P--C--CP -P--C-PCP -P--C-PCP -P--P-PCP -P--C-PCP -P--C-PCP -C--C-PCP","--------- -P------- -C------- -C----P-- CC----P-- CCP---P-- CCP-C-P-- CCP-C-P-- CCP-C-P-- CCP-CPP-- CCP-CPP-- CCP-CPPP- CCP-CPCP- PCP-CPCP- PCP-CCCP- PCP-CCPP- PCPCCCPP-"],"indexTable":{"-":0," ":1,"C":2,"P":3,"unrecognized":4},"characterTable":{"0":"-","1":" ","2":"C","3":"P","4":null},"characters":["-"," ","C","P","unrecognized"],"specialIndexes":[4]}},"input":{"rows":6,"columns":5,"weights":{"0":0.230881005525589,"1":-0.06287145614624023,"2":0.21129964292049408,"3":0.02240283228456974,"4":-0.09141562134027481,"5":-0.7620068788528442,"6":-0.429575651884079,"7":-0.023703157901763916,"8":-0.025150403380393982,"9":-0.018480023369193077,"10":-1.857688069343567,"11":-0.6653967499732971,"12":-0.2612067461013794,"13":-0.05654221400618553,"14":-0.5779887437820435,"15":-1.2827565670013428,"16":-0.39991500973701477,"17":0.3223135769367218,"18":0.5717471837997437,"19":-0.12313050031661987,"20":-0.2969818413257599,"21":0.03013467974960804,"22":-0.12195446342229843,"23":-0.2900181710720062,"24":-0.048447344452142715,"25":0.025275036692619324,"26":0.01504332572221756,"27":-0.014668403193354607,"28":-0.02155138924717903,"29":0.016664855182170868}},"hiddenLayers":[{"inputMatrix":{"rows":20,"columns":5,"weights":{"0":-0.02164391614496708,"1":-0.22130745649337769,"2":0.160383939743042,"3":0.7139673829078674,"4":0.01857174187898636,"5":0.08099587261676788,"6":0.5570324659347534,"7":0.7078487277030945,"8":-0.14687654376029968,"9":0.6860470175743103,"10":-0.46340614557266235,"11":0.4607733190059662,"12":0.1954224407672882,"13":-0.41406121850013733,"14":0.36235496401786804,"15":0.13520891964435577,"16":0.9075573086738586,"17":0.618702232837677,"18":-0.5668510794639587,"19":0.9956534504890442,"20":0.5590509176254272,"21":0.2718257009983063,"22":-0.11288303136825562,"23":-0.4829850494861603,"24":0.3128761649131775,"25":-0.6121643781661987,"26":0.2679511308670044,"27":-0.29157906770706177,"28":-0.6852759718894958,"29":-0.17841055989265442,"30":-0.16239306330680847,"31":-0.6871365308761597,"32":-1.063547968864441,"33":0.011564595624804497,"34":-0.8776649832725525,"35":1.1255278587341309,"36":-0.3643764853477478,"37":-0.17992804944515228,"38":0.12739765644073486,"39":0.06058131158351898,"40":1.051304578781128,"41":0.7042966485023499,"42":1.2007391452789307,"43":1.0024675130844116,"44":1.3077583312988281,"45":0.16637195646762848,"46":-1.1303871870040894,"47":-0.8268668055534363,"48":0.9847585558891296,"49":-1.0085079669952393,"50":-0.5064952373504639,"51":0.7881470322608948,"52":0.40012750029563904,"53":-0.07846710085868835,"54":0.7306604981422424,"55":0.3289121389389038,"56":0.6608220934867859,"57":0.8113281726837158,"58":0.627435028553009,"59":1.0779898166656494,"60":1.2247650623321533,"61":-0.3965771794319153,"62":0.4275609254837036,"63":-0.597155749797821,"64":0.47071143984794617,"65":0.8497355580329895,"66":-0.4309101402759552,"67":-0.023553237318992615,"68":-0.5188504457473755,"69":-0.2673904597759247,"70":0.5188165903091431,"71":-0.5037264823913574,"72":-0.19189764559268951,"73":0.3889726996421814,"74":-0.1949731558561325,"75":0.23870234191417694,"76":-0.535415530204773,"77":-0.2834252119064331,"78":1.0466550588607788,"79":-0.28264161944389343,"80":-0.008374199271202087,"81":-0.23298949003219604,"82":-0.20585888624191284,"83":0.32812970876693726,"84":-0.19258014857769012,"85":0.1598425656557083,"86":-0.5401753783226013,"87":-0.2631315588951111,"88":0.8217891454696655,"89":-0.3438798785209656,"90":0.8704736232757568,"91":0.8391028046607971,"92":0.6781436800956726,"93":-0.7668741345405579,"94":0.6244085431098938,"95":0.22725291550159454,"96":-0.8762696385383606,"97":-1.440647006034851,"98":-0.2561231553554535,"99":-1.2166670560836792}},"inputHidden":{"rows":20,"columns":20,"weights":{"0":0.6204056143760681,"1":-1.200533390045166,"2":0.3295194208621979,"3":1.1576097011566162,"4":1.2589539289474487,"5":0.41337260603904724,"6":0.11860895901918411,"7":-1.2029939889907837,"8":0.35876914858818054,"9":1.1497011184692383,"10":-0.6323121190071106,"11":-0.8075099587440491,"12":0.29388824105262756,"13":-0.6738095879554749,"14":-0.9226586222648621,"15":1.3826960325241089,"16":-0.07587768882513046,"17":0.468646764755249,"18":-0.7967919707298279,"19":-1.0227758884429932,"20":0.8518480658531189,"21":-0.5318453907966614,"22":-0.7713795304298401,"23":1.3403040170669556,"24":-0.09321387857198715,"25":-0.4725046157836914,"26":0.07188709825277328,"27":0.5403181910514832,"28":1.504122257232666,"29":0.7080424427986145,"30":-0.07687054574489594,"31":-1.475242018699646,"32":0.2032311111688614,"33":1.4852546453475952,"34":-1.0380862951278687,"35":1.2248035669326782,"36":-0.43449288606643677,"37":0.5605558753013611,"38":0.5201887488365173,"39":0.07097166776657104,"40":1.0267943143844604,"41":-1.2925752401351929,"42":0.8329759836196899,"43":-1.1033776998519897,"44":1.0570672750473022,"45":-0.7941351532936096,"46":-0.09917294234037399,"47":-0.07229500263929367,"48":-0.4889804422855377,"49":-0.20181837677955627,"50":-0.0298547875136137,"51":0.155241459608078,"52":0.7128337025642395,"53":-1.9390805959701538,"54":-0.029628125950694084,"55":0.4524652063846588,"56":-1.386269450187683,"57":0.6188173890113831,"58":-0.027983013540506363,"59":-0.06758825480937958,"60":0.24675625562667847,"61":-0.613193154335022,"62":2.049855947494507,"63":-0.09987002611160278,"64":0.33604544401168823,"65":-0.22728444635868073,"66":0.18810753524303436,"67":-1.6120572090148926,"68":0.8005525469779968,"69":0.7362692952156067,"70":0.17029644548892975,"71":-0.43813520669937134,"72":0.6359491944313049,"73":-1.9925239086151123,"74":-1.3028748035430908,"75":0.8633010387420654,"76":0.019455093890428543,"77":0.27023857831954956,"78":0.9042108058929443,"79":-1.402795433998108,"80":-0.29724106192588806,"81":0.7038912177085876,"82":2.0999557971954346,"83":0.03070439025759697,"84":-0.5474322438240051,"85":-1.1000940799713135,"86":-0.5212665796279907,"87":0.06485512107610703,"88":0.0589737594127655,"89":0.544212818145752,"90":0.838433563709259,"91":-0.2593156099319458,"92":0.2655740976333618,"93":0.06295982748270035,"94":0.07914668321609497,"95":0.3761613965034485,"96":0.3843633532524109,"97":-0.12403244525194168,"98":0.5226110816001892,"99":-0.3979382812976837,"100":-0.5777537822723389,"101":0.31774163246154785,"102":0.9098978042602539,"103":0.16902582347393036,"104":-0.6518858671188354,"105":-1.0731178522109985,"106":-0.5733212232589722,"107":0.6767529845237732,"108":0.5702567100524902,"109":0.609538197517395,"110":0.3485541045665741,"111":0.20086514949798584,"112":-0.013292204588651657,"113":0.3032611906528473,"114":0.7413526177406311,"115":0.9574797749519348,"116":1.0833367109298706,"117":-0.16495993733406067,"118":0.916200578212738,"119":0.3532445430755615,"120":-0.6969592571258545,"121":-0.32144951820373535,"122":-0.9136771559715271,"123":2.124687671661377,"124":0.7716513276100159,"125":0.23522524535655975,"126":-0.8418869376182556,"127":-0.7513290643692017,"128":0.7831786870956421,"129":0.8116535544395447,"130":-0.25829875469207764,"131":-1.5089190006256104,"132":0.9353377223014832,"133":-1.1373600959777832,"134":0.2060626596212387,"135":0.8539424538612366,"136":1.044796347618103,"137":-0.3618427813053131,"138":-1.788011908531189,"139":-0.4647606611251831,"140":-0.8556566834449768,"141":1.8741142749786377,"142":-0.48204147815704346,"143":1.8338321447372437,"144":-0.14443102478981018,"145":-0.6259207129478455,"146":-0.6929861903190613,"147":1.6087746620178223,"148":0.7259608507156372,"149":-0.4593331217765808,"150":0.19418762624263763,"151":-0.9823737740516663,"152":-0.15883925557136536,"153":0.7713705897331238,"154":0.45958971977233887,"155":-0.22730499505996704,"156":0.7395628690719604,"157":-0.9906324148178101,"158":-1.2219771146774292,"159":0.7460681200027466,"160":0.034708429127931595,"161":-0.34440410137176514,"162":-1.302865982055664,"163":1.634149193763733,"164":0.26626673340797424,"165":0.24364668130874634,"166":-0.2513774335384369,"167":-0.8411358594894409,"168":1.0356450080871582,"169":0.3602631390094757,"170":-0.6030083894729614,"171":-0.5625662207603455,"172":-0.05416564270853996,"173":-0.11476484686136246,"174":-0.9597855806350708,"175":0.49440082907676697,"176":0.017636757344007492,"177":-0.23219546675682068,"178":-0.529914915561676,"179":-0.918552815914154,"180":0.41319578886032104,"181":-0.9135094881057739,"182":-1.7818584442138672,"183":1.6401773691177368,"184":0.5585309863090515,"185":0.6667346358299255,"186":0.2858150899410248,"187":-0.19731928408145905,"188":1.2928293943405151,"189":1.2259331941604614,"190":-0.7129581570625305,"191":-1.5086308717727661,"192":0.29998284578323364,"193":0.20007990300655365,"194":-0.8823849558830261,"195":1.326874017715454,"196":-0.3450292646884918,"197":0.6096541285514832,"198":-0.23763741552829742,"199":1.1838598251342773,"200":-0.18932463228702545,"201":-0.21911866962909698,"202":0.8168715238571167,"203":0.8972435593605042,"204":-1.003260850906372,"205":-0.4506917893886566,"206":-0.1532144844532013,"207":0.7771059274673462,"208":0.5059610605239868,"209":0.5443336367607117,"210":-0.3524141013622284,"211":-0.4188479483127594,"212":0.2861649692058563,"213":-0.6806374192237854,"214":0.04304219037294388,"215":1.2066972255706787,"216":0.4023457169532776,"217":-0.12014538049697876,"218":0.7349500060081482,"219":-0.22426913678646088,"220":-0.14489127695560455,"221":-0.5472739338874817,"222":-1.0545122623443604,"223":1.3349138498306274,"224":-0.3577684164047241,"225":-0.06785450130701065,"226":-0.5060908198356628,"227":0.1768880933523178,"228":1.298563003540039,"229":0.13507242500782013,"230":-0.26364070177078247,"231":-0.9366039037704468,"232":-0.12531523406505585,"233":-0.621437668800354,"234":0.045515257865190506,"235":0.13015198707580566,"236":0.40484532713890076,"237":-0.25602567195892334,"238":0.3041342794895172,"239":-1.358674168586731,"240":-1.3222757577896118,"241":-0.02761228382587433,"242":0.4037592113018036,"243":1.0095571279525757,"244":0.19525469839572906,"245":-0.6552126407623291,"246":-1.3608797788619995,"247":1.572623372077942,"248":-0.30128827691078186,"249":-0.24794572591781616,"250":0.1148710772395134,"251":-1.090122938156128,"252":0.16052430868148804,"253":-0.9408988356590271,"254":1.3320626020431519,"255":-0.321797639131546,"256":1.5466363430023193,"257":-1.2735494375228882,"258":-1.3744534254074097,"259":-1.481259822845459,"260":-2.228038787841797,"261":1.1976162195205688,"262":1.0649476051330566,"263":-0.29062166810035706,"264":-1.5255937576293945,"265":-2.0359370708465576,"266":-1.7625893354415894,"267":0.4719200134277344,"268":-0.6725656986236572,"269":-0.8212264776229858,"270":1.3254797458648682,"271":-0.5496406555175781,"272":1.6182332038879395,"273":-1.5701818466186523,"274":1.8650749921798706,"275":-0.43435657024383545,"276":2.978670358657837,"277":-2.357957601547241,"278":0.010863364674150944,"279":-1.8966187238693237,"280":0.0792502909898758,"281":-0.7551584839820862,"282":-0.9764446020126343,"283":2.068513870239258,"284":0.1511533111333847,"285":-0.2970513105392456,"286":-0.2250424474477768,"287":-0.3876926302909851,"288":1.2516262531280518,"289":0.31296107172966003,"290":-0.09414688497781754,"291":-1.1148003339767456,"292":-0.21072877943515778,"293":-0.02762993425130844,"294":-0.8053478002548218,"295":0.8783871531486511,"296":-0.07107239216566086,"297":-0.14398518204689026,"298":-1.091550350189209,"299":-1.2796850204467773,"300":0.8688497543334961,"301":-1.239245057106018,"302":-2.151850700378418,"303":1.921999454498291,"304":0.6389004588127136,"305":0.7191506028175354,"306":0.42937126755714417,"307":-0.8693715333938599,"308":1.6482120752334595,"309":0.9583096504211426,"310":-0.8094817399978638,"311":-1.665477991104126,"312":-0.18022292852401733,"313":0.5152515172958374,"314":-1.2768033742904663,"315":1.3445749282836914,"316":-0.660017728805542,"317":0.5869950652122498,"318":-0.13252349197864532,"319":0.853077232837677,"320":0.06323420256376266,"321":-0.47929155826568604,"322":0.40142369270324707,"323":1.4941397905349731,"324":1.2449092864990234,"325":-0.04411423206329346,"326":-0.44438013434410095,"327":-0.4047844111919403,"328":-0.09739924222230911,"329":0.7042150497436523,"330":-0.42774781584739685,"331":-0.8280275464057922,"332":0.29141175746917725,"333":-1.1522380113601685,"334":-0.11607751250267029,"335":0.8096702694892883,"336":0.4927261173725128,"337":-0.15769678354263306,"338":-1.355804443359375,"339":-1.1959913969039917,"340":0.475681334733963,"341":-0.5701465010643005,"342":0.3426225185394287,"343":1.3512099981307983,"344":1.2766220569610596,"345":0.6735551953315735,"346":0.11746083199977875,"347":-1.0199127197265625,"348":0.9754594564437866,"349":1.8894397020339966,"350":-0.6933475136756897,"351":-1.0631561279296875,"352":0.35512253642082214,"353":-0.6109424233436584,"354":-0.9268807172775269,"355":1.1222926378250122,"356":-0.14840112626552582,"357":0.6084316968917847,"358":-0.8369854688644409,"359":-0.7453897595405579,"360":-0.329077810049057,"361":0.7957834005355835,"362":1.0323295593261719,"363":0.03823113441467285,"364":-1.59686279296875,"365":-1.2963974475860596,"366":-0.9031577706336975,"367":0.17772404849529266,"368":0.11133285611867905,"369":-0.5094892382621765,"370":1.0153018236160278,"371":-0.08417314291000366,"372":-1.1258604526519775,"373":0.9816833734512329,"374":0.6687474846839905,"375":-0.6460874080657959,"376":0.8570427894592285,"377":-0.5272065997123718,"378":0.7264747619628906,"379":0.7075214385986328,"380":-1.4139540195465088,"381":-1.0526639223098755,"382":1.9382139444351196,"383":-2.670226812362671,"384":1.1293522119522095,"385":0.8763511180877686,"386":-0.46810096502304077,"387":-0.413396954536438,"388":-1.6431869268417358,"389":0.22107931971549988,"390":0.07021057605743408,"391":0.8494028449058533,"392":1.1870256662368774,"393":-1.7113432884216309,"394":1.7367221117019653,"395":-0.3910299837589264,"396":1.6832138299942017,"397":-0.9346308708190918,"398":-1.6675440073013306,"399":-0.3463669419288635}},"inputBias":{"rows":20,"columns":1,"weights":{"0":-0.5832390785217285,"1":-0.25436002016067505,"2":-1.3203785419464111,"3":-1.0024492740631104,"4":-1.1334186792373657,"5":-1.3198590278625488,"6":-1.9481201171875,"7":-0.651496946811676,"8":0.23076440393924713,"9":-3.050217628479004,"10":-0.7451146841049194,"11":-0.7333146929740906,"12":-0.5372894406318665,"13":0.2029578536748886,"14":-0.5842229723930359,"15":-2.2932350635528564,"16":-0.7597203254699707,"17":-0.6787853837013245,"18":0.6010639667510986,"19":0.852328896522522}},"forgetMatrix":{"rows":20,"columns":5,"weights":{"0":-1.7112455368041992,"1":-1.2102786302566528,"2":-0.4759495258331299,"3":0.24948982894420624,"4":-0.46947190165519714,"5":-1.993942379951477,"6":-0.5358436703681946,"7":-0.7398157119750977,"8":-0.4427841603755951,"9":-0.5983498692512512,"10":-0.7383100986480713,"11":-1.0462315082550049,"12":-0.8968894481658936,"13":-0.3041728138923645,"14":-1.0871466398239136,"15":-0.9722214937210083,"16":-0.4100002646446228,"17":-0.2231551706790924,"18":-0.4074525237083435,"19":-0.7862808704376221,"20":-1.858738899230957,"21":-0.8509352207183838,"22":-0.6405349969863892,"23":-1.058282494544983,"24":-0.6292138695716858,"25":-2.169430732727051,"26":-1.2297173738479614,"27":-1.5459269285202026,"28":-1.0656315088272095,"29":-1.6282625198364258,"30":-0.33986175060272217,"31":-1.398926019668579,"32":-0.9786221385002136,"33":0.33536139130592346,"34":-0.6383980512619019,"35":0.07441379129886627,"36":0.20695485174655914,"37":0.6723793148994446,"38":-0.4286870062351227,"39":0.4022287428379059,"40":0.8251725435256958,"41":-0.3580703139305115,"42":1.1469078063964844,"43":0.5579706430435181,"44":0.9736249446868896,"45":-0.451282262802124,"46":0.4477108120918274,"47":0.4113766551017761,"48":-0.6517195105552673,"49":0.38991355895996094,"50":-1.2616426944732666,"51":-1.1915664672851562,"52":-0.5227606892585754,"53":-0.4655323624610901,"54":-0.9585852026939392,"55":-0.5567962527275085,"56":-0.8587287664413452,"57":0.6435019373893738,"58":-0.22736701369285583,"59":-0.35542795062065125,"60":0.10173003375530243,"61":-0.8196626305580139,"62":0.2533915936946869,"63":-0.7346386313438416,"64":-0.35528236627578735,"65":-0.81559157371521,"66":-0.6470766067504883,"67":-0.24251589179039001,"68":-0.7743115425109863,"69":-0.08401863276958466,"70":-0.9489962458610535,"71":-0.2625479996204376,"72":0.47077158093452454,"73":-0.17314527928829193,"74":0.38048872351646423,"75":-0.7852764129638672,"76":-0.122757688164711,"77":0.40755459666252136,"78":0.06803788244724274,"79":0.24954944849014282,"80":-1.9010268449783325,"81":-1.2297135591506958,"82":-0.6344572901725769,"83":-0.054161570966243744,"84":-0.6456841230392456,"85":-1.5880388021469116,"86":-1.2170249223709106,"87":-0.47284889221191406,"88":0.6407811045646667,"89":-0.5997881889343262,"90":-0.4852062165737152,"91":0.2806498408317566,"92":0.3486548662185669,"93":-0.726227343082428,"94":-0.014568621292710304,"95":-0.47103187441825867,"96":-0.23465146124362946,"97":0.027513930574059486,"98":-0.9268248081207275,"99":-0.5639451742172241}},"forgetHidden":{"rows":20,"columns":20,"weights":{"0":0.7911057472229004,"1":-1.2868521213531494,"2":-0.6789053082466125,"3":0.9382236003875732,"4":1.0071570873260498,"5":0.5871495604515076,"6":0.37864211201667786,"7":-0.9279115796089172,"8":0.9632388949394226,"9":0.956142783164978,"10":-0.7423610687255859,"11":-0.8631289005279541,"12":0.33058175444602966,"13":0.26211482286453247,"14":-0.9557570219039917,"15":1.2604891061782837,"16":-0.2893576920032501,"17":0.7304013967514038,"18":-0.301652729511261,"19":0.9019541144371033,"20":1.697558045387268,"21":-0.9509055614471436,"22":-0.8279432654380798,"23":-0.168312206864357,"24":-0.43330907821655273,"25":0.06671293079853058,"26":1.225584864616394,"27":-0.42053934931755066,"28":0.9585117697715759,"29":1.2522820234298706,"30":-0.5757117867469788,"31":-0.2424861341714859,"32":-0.1040460541844368,"33":1.7748148441314697,"34":-1.4182286262512207,"35":1.666369915008545,"36":-1.3682572841644287,"37":1.1429929733276367,"38":2.390824317932129,"39":0.8799971342086792,"40":0.16227774322032928,"41":-1.0793325901031494,"42":0.7073045372962952,"43":0.1065763384103775,"44":-1.1073682308197021,"45":-1.0240222215652466,"46":0.621992290019989,"47":0.4087299406528473,"48":-0.6717444658279419,"49":0.3565499186515808,"50":0.7560277581214905,"51":0.6769899725914001,"52":0.47163623571395874,"53":-0.6602237820625305,"54":-0.2224666327238083,"55":0.7787111401557922,"56":0.1406327337026596,"57":0.057757120579481125,"58":0.7732640504837036,"59":0.5764977931976318,"60":0.9157906770706177,"61":0.010030443780124187,"62":-0.06818897277116776,"63":-0.09943588823080063,"64":-1.2169439792633057,"65":-0.3827294707298279,"66":1.7569676637649536,"67":-0.4876607358455658,"68":0.1396379917860031,"69":2.0136401653289795,"70":-0.1698092222213745,"71":0.16281262040138245,"72":0.16428259015083313,"73":-1.525071144104004,"74":-1.8364382982254028,"75":1.7484649419784546,"76":-0.8311982154846191,"77":0.853543758392334,"78":1.6236422061920166,"79":-0.3273799419403076,"80":-0.01979786343872547,"81":0.6286002993583679,"82":0.8229297995567322,"83":-1.0503886938095093,"84":-0.3819611668586731,"85":-1.3676730394363403,"86":-0.6652848720550537,"87":0.4963189363479614,"88":-0.6230851411819458,"89":0.07717058807611465,"90":1.1471961736679077,"91":0.8523077964782715,"92":0.18207253515720367,"93":-0.6729986071586609,"94":0.1557890772819519,"95":0.35097408294677734,"96":-0.023158101364970207,"97":0.23662066459655762,"98":1.5218019485473633,"99":-0.8233356475830078,"100":0.1426287740468979,"101":0.34868431091308594,"102":0.7210114598274231,"103":-0.7800412178039551,"104":-0.8005890846252441,"105":-1.08999764919281,"106":0.15843600034713745,"107":1.1268789768218994,"108":-0.05531374737620354,"109":0.3085649609565735,"110":0.804520308971405,"111":0.699634850025177,"112":-0.22590620815753937,"113":1.1800543069839478,"114":0.8019596338272095,"115":0.4406628906726837,"116":0.015119018964469433,"117":0.21257808804512024,"118":1.4035217761993408,"119":0.9210525751113892,"120":-0.10121661424636841,"121":-0.20725148916244507,"122":-0.08126907795667648,"123":1.2210500240325928,"124":0.2012704610824585,"125":0.5070114135742188,"126":-0.2898338735103607,"127":0.12926897406578064,"128":0.23811864852905273,"129":0.5218648314476013,"130":-0.5097846388816833,"131":-0.6981058120727539,"132":0.6373203992843628,"133":0.20845243334770203,"134":0.1791883111000061,"135":0.45467519760131836,"136":0.27389639616012573,"137":-0.14911553263664246,"138":-1.0555442571640015,"139":0.5655122995376587,"140":-0.9227280020713806,"141":0.9207071661949158,"142":2.183267593383789,"143":-0.4120592474937439,"144":-2.4097354412078857,"145":-2.047616720199585,"146":-0.4884324371814728,"147":0.39914047718048096,"148":-0.13590353727340698,"149":-0.5589204430580139,"150":1.3710435628890991,"151":0.5688289999961853,"152":0.3674025237560272,"153":0.03072500415146351,"154":0.17634208500385284,"155":0.08630483597517014,"156":1.4941892623901367,"157":-1.1053524017333984,"158":1.0461105108261108,"159":-0.8974143266677856,"160":0.41416236758232117,"161":-0.1118735671043396,"162":-0.4695369601249695,"163":1.3630821704864502,"164":0.09600762277841568,"165":0.5099143981933594,"166":0.44052329659461975,"167":-0.7300330400466919,"168":0.9220136404037476,"169":0.4372667372226715,"170":-0.9024935364723206,"171":-1.1577068567276,"172":-0.14046208560466766,"173":0.36963340640068054,"174":-0.7108129262924194,"175":0.727659285068512,"176":-0.4467677175998688,"177":0.1415628045797348,"178":-0.35264426469802856,"179":-0.23962323367595673,"180":0.09900274872779846,"181":-0.4208376705646515,"182":-0.4274211823940277,"183":1.642625331878662,"184":-0.47235211730003357,"185":0.2204238772392273,"186":0.7674394845962524,"187":0.6170815825462341,"188":0.33341947197914124,"189":0.1131095439195633,"190":-0.31621888279914856,"191":-0.41955599188804626,"192":-0.19591940939426422,"193":0.45024240016937256,"194":-0.5201563239097595,"195":0.3013918995857239,"196":0.13494156301021576,"197":0.21656589210033417,"198":-0.22109441459178925,"199":0.43696627020835876,"200":-0.08960262686014175,"201":-0.3140732944011688,"202":0.29089197516441345,"203":-0.0919450893998146,"204":-0.6696010231971741,"205":-0.5228526592254639,"206":0.17159806191921234,"207":1.1911170482635498,"208":0.08155909925699234,"209":0.029732339084148407,"210":-0.03750060498714447,"211":0.4563106596469879,"212":0.17400749027729034,"213":0.10489962995052338,"214":0.7306294441223145,"215":0.2028292566537857,"216":0.07394448667764664,"217":-0.14454799890518188,"218":0.6872469186782837,"219":-0.17444665729999542,"220":-0.24438722431659698,"221":-0.35531505942344666,"222":0.691614031791687,"223":0.3493086099624634,"224":-0.3909675180912018,"225":-0.36364009976387024,"226":-0.2439860999584198,"227":-0.20528896152973175,"228":0.35801461338996887,"229":-0.2777526080608368,"230":0.07763542234897614,"231":-0.66434246301651,"232":0.5155255198478699,"233":-0.7301795482635498,"234":-0.11695592105388641,"235":0.11519520729780197,"236":0.45389363169670105,"237":-0.9267385005950928,"238":-0.4377858638763428,"239":-1.137042760848999,"240":-1.22599458694458,"241":-0.02507508173584938,"242":0.264333039522171,"243":0.24593965709209442,"244":-0.060046806931495667,"245":-0.6718192100524902,"246":-0.7734518051147461,"247":0.935249388217926,"248":-0.887631893157959,"249":-0.2721143364906311,"250":0.6015076637268066,"251":-0.03391117975115776,"252":0.7296047806739807,"253":-1.3438605070114136,"254":1.0030953884124756,"255":-0.2417985498905182,"256":1.5351674556732178,"257":-1.244158387184143,"258":-0.8332335948944092,"259":-1.5370410680770874,"260":-1.060996413230896,"261":1.7079018354415894,"262":2.74242901802063,"263":-1.415818452835083,"264":-2.571131944656372,"265":-1.5639259815216064,"266":-0.560187816619873,"267":1.3216930627822876,"268":-0.1924646943807602,"269":-0.12302051484584808,"270":1.5246635675430298,"271":0.24043911695480347,"272":2.0065457820892334,"273":-1.3346046209335327,"274":1.4263274669647217,"275":0.17336323857307434,"276":1.8245843648910522,"277":-1.2980191707611084,"278":-0.30332764983177185,"279":-0.1961890161037445,"280":0.6025543212890625,"281":-0.8185887336730957,"282":-0.3633621633052826,"283":1.5620317459106445,"284":-0.06768925487995148,"285":-0.4273049533367157,"286":0.2251795530319214,"287":-0.4148096442222595,"288":0.5465266108512878,"289":0.42558133602142334,"290":0.13512958586215973,"291":-0.8975012302398682,"292":-0.4268282353878021,"293":-0.11469142884016037,"294":-0.9143208861351013,"295":0.9309901595115662,"296":-0.22553442418575287,"297":0.4785369336605072,"298":-0.8099241852760315,"299":-1.530348777770996,"300":0.5879474878311157,"301":-0.8998314738273621,"302":-1.1505106687545776,"303":0.943038821220398,"304":0.1790430247783661,"305":0.32487738132476807,"306":0.569157600402832,"307":-0.7487219572067261,"308":0.868507981300354,"309":0.21334224939346313,"310":-0.4185996949672699,"311":-0.9290204644203186,"312":-0.4410795569419861,"313":0.31405511498451233,"314":-0.7241758704185486,"315":0.6274427175521851,"316":-0.3239140212535858,"317":0.4087723195552826,"318":-0.0480932742357254,"319":0.20719967782497406,"320":-0.02544032409787178,"321":-0.6824728846549988,"322":-0.7382721304893494,"323":0.9503425359725952,"324":0.9756350517272949,"325":0.08116830885410309,"326":-0.3389233648777008,"327":0.3639828562736511,"328":0.15100334584712982,"329":0.5160794854164124,"330":-0.4463261067867279,"331":-0.6582363247871399,"332":0.372948557138443,"333":0.22706575691699982,"334":0.0656924769282341,"335":0.5809728503227234,"336":0.12472833693027496,"337":0.01523575745522976,"338":-0.7016838788986206,"339":-0.028942853212356567,"340":0.7024117708206177,"341":-1.2409650087356567,"342":-0.91383957862854,"343":1.211343765258789,"344":1.1362149715423584,"345":0.6940896511077881,"346":0.49969425797462463,"347":-0.8258501887321472,"348":0.9470183253288269,"349":0.7849391102790833,"350":-0.7488059401512146,"351":-0.7162831425666809,"352":0.24841901659965515,"353":0.2244751900434494,"354":-0.8257951140403748,"355":1.1249183416366577,"356":-0.35291537642478943,"357":0.8221259713172913,"358":-0.30754584074020386,"359":0.5777621865272522,"360":-0.6118456721305847,"361":1.2486019134521484,"362":0.7879141569137573,"363":-1.1310315132141113,"364":-0.7689517140388489,"365":-1.5464081764221191,"366":-0.0665658712387085,"367":-0.8813516497612,"368":-0.3121697008609772,"369":-0.4057317078113556,"370":0.9112104773521423,"371":-0.21852120757102966,"372":-0.8026533126831055,"373":0.27890515327453613,"374":0.45818546414375305,"375":-0.3872545063495636,"376":0.5000256299972534,"377":-0.8601996898651123,"378":1.074411153793335,"379":1.3395438194274902,"380":0.579434871673584,"381":-0.5110836029052734,"382":-0.37653523683547974,"383":-1.213934063911438,"384":0.03413278982043266,"385":1.5299630165100098,"386":1.5722806453704834,"387":-1.1428027153015137,"388":-0.8598226308822632,"389":0.8741260766983032,"390":-0.2843802571296692,"391":0.5919126272201538,"392":-0.5490926504135132,"393":1.8797513246536255,"394":1.4047274589538574,"395":-0.09070122987031937,"396":-0.5502911806106567,"397":0.8237701058387756,"398":0.3807128071784973,"399":1.7659902572631836}},"forgetBias":{"rows":20,"columns":1,"weights":{"0":0,"1":0,"2":0,"3":0,"4":0,"5":0,"6":0,"7":0,"8":0,"9":0,"10":0,"11":0,"12":0,"13":0,"14":0,"15":0,"16":0,"17":0,"18":0,"19":0}},"outputMatrix":{"rows":20,"columns":5,"weights":{"0":0.18893934786319733,"1":-0.06746648997068405,"2":0.14701105654239655,"3":0.8277144432067871,"4":0.09167318046092987,"5":0.08808188140392303,"6":0.4837358295917511,"7":0.6417508125305176,"8":-0.18767879903316498,"9":0.7278802394866943,"10":0.06089136376976967,"11":0.31822067499160767,"12":0.3117077052593231,"13":0.2973133325576782,"14":0.3831576406955719,"15":0.14867286384105682,"16":1.0047613382339478,"17":0.8112495541572571,"18":0.12722057104110718,"19":0.6907690167427063,"20":0.5203322768211365,"21":0.25483185052871704,"22":-0.03154569864273071,"23":-0.40901124477386475,"24":0.3156301975250244,"25":-0.5290079116821289,"26":0.2260020226240158,"27":-0.5586054921150208,"28":-0.691265881061554,"29":-0.2765212059020996,"30":0.053895022720098495,"31":-0.7376269102096558,"32":-1.0344475507736206,"33":0.218892902135849,"34":-0.8042355179786682,"35":0.7229403257369995,"36":-0.17204855382442474,"37":-0.3855547606945038,"38":0.35891637206077576,"39":-0.7957631349563599,"40":1.1474167108535767,"41":0.5916425585746765,"42":1.0657042264938354,"43":1.1994786262512207,"44":1.1546177864074707,"45":0.5061483979225159,"46":-1.0414042472839355,"47":-0.8536173701286316,"48":0.9646960496902466,"49":-0.8775262832641602,"50":-0.20509155094623566,"51":0.6993647217750549,"52":0.5169229507446289,"53":0.02992108091711998,"54":0.7917374968528748,"55":0.389358788728714,"56":0.7034700512886047,"57":0.9134533405303955,"58":0.38399332761764526,"59":0.9436560273170471,"60":1.3505148887634277,"61":-0.4717932343482971,"62":0.39628612995147705,"63":-0.5248892307281494,"64":0.4943506419658661,"65":0.9251696467399597,"66":-0.27143317461013794,"67":0.16174982488155365,"68":-0.085700623691082,"69":-0.12061643600463867,"70":0.7126277685165405,"71":-0.19034266471862793,"72":0.08067280799150467,"73":0.2581518292427063,"74":0.07221684604883194,"75":0.5666818618774414,"76":-0.15300190448760986,"77":0.011183783411979675,"78":0.9194362759590149,"79":0.07305742055177689,"80":0.1837267428636551,"81":-0.21925349533557892,"82":-0.1116919219493866,"83":0.4904027581214905,"84":-0.13227495551109314,"85":0.2894482910633087,"86":-0.15311090648174286,"87":-0.15359541773796082,"88":0.7506754398345947,"89":-0.041568655520677567,"90":0.9593804478645325,"91":0.7680561542510986,"92":0.49885791540145874,"93":-0.6509119868278503,"94":0.6887087225914001,"95":0.09620059281587601,"96":-0.6814386248588562,"97":-0.9651874303817749,"98":-0.4739965796470642,"99":-1.174928069114685}},"outputHidden":{"rows":20,"columns":20,"weights":{"0":0.6411372423171997,"1":-0.9364728331565857,"2":0.06247291341423988,"3":1.1646009683609009,"4":1.245847463607788,"5":0.3633732199668884,"6":0.11233776807785034,"7":-0.9599345326423645,"8":0.6777728796005249,"9":1.06065833568573,"10":-0.6181625127792358,"11":-0.9541569948196411,"12":0.12192808836698532,"13":-0.04196513816714287,"14":-0.9888489246368408,"15":1.311475157737732,"16":-0.3909176290035248,"17":0.3949490487575531,"18":-0.8271040320396423,"19":-0.6993613839149475,"20":1.098024845123291,"21":-0.15381427109241486,"22":-1.04731285572052,"23":1.4004830121994019,"24":0.10859367996454239,"25":0.33547231554985046,"26":0.42235419154167175,"27":0.735752284526825,"28":1.3527328968048096,"29":0.9886501431465149,"30":-0.37603726983070374,"31":-1.353053092956543,"32":0.2728375494480133,"33":1.2460908889770508,"34":-1.264688491821289,"35":1.534069299697876,"36":-0.6950337886810303,"37":0.624790608882904,"38":0.9585660696029663,"39":0.4885369539260864,"40":0.8562078475952148,"41":-0.3808027505874634,"42":0.6861644387245178,"43":-1.7956349849700928,"44":-0.027271466329693794,"45":-1.0793322324752808,"46":0.5038325786590576,"47":0.20823150873184204,"48":-0.19994622468948364,"49":0.2520805597305298,"50":0.3925951421260834,"51":0.062103766947984695,"52":0.462947815656662,"53":-1.275307536125183,"54":-0.20520763099193573,"55":0.5332237482070923,"56":-1.1672786474227905,"57":0.772700846195221,"58":0.3371501863002777,"59":-0.3577505648136139,"60":0.6539522409439087,"61":-1.0447579622268677,"62":1.5540744066238403,"63":0.46597757935523987,"64":-0.5341073870658875,"65":-0.519588053226471,"66":1.044036865234375,"67":-1.8481385707855225,"68":0.6286048889160156,"69":1.2497755289077759,"70":0.09369399398565292,"71":-0.22811441123485565,"72":0.5516867637634277,"73":-1.9995425939559937,"74":-1.7590141296386719,"75":1.4227783679962158,"76":-0.6733196973800659,"77":0.6457158327102661,"78":1.5958151817321777,"79":-1.1568067073822021,"80":-0.26178401708602905,"81":0.8713615536689758,"82":1.7966294288635254,"83":-0.726387619972229,"84":-0.925732433795929,"85":-1.2335726022720337,"86":-0.8236682415008545,"87":0.6157228350639343,"88":0.010291026905179024,"89":-0.07810882478952408,"90":1.0926448106765747,"91":-0.15261754393577576,"92":0.03411364182829857,"93":-0.05189387872815132,"94":0.645817756652832,"95":0.25532788038253784,"96":0.43900904059410095,"97":-0.06766875833272934,"98":1.4462023973464966,"99":-0.26072537899017334,"100":-0.6229825019836426,"101":0.6112899780273438,"102":0.8594236373901367,"103":-0.07651043683290482,"104":-0.8406553268432617,"105":-0.9059208631515503,"106":-0.43230968713760376,"107":1.1030136346817017,"108":0.12910346686840057,"109":0.28588947653770447,"110":0.3958718478679657,"111":0.20784269273281097,"112":-0.06547144055366516,"113":0.0938716009259224,"114":0.8545747995376587,"115":0.7460450530052185,"116":1.1010936498641968,"117":-0.30597397685050964,"118":1.3438374996185303,"119":0.440679132938385,"120":-0.621455729007721,"121":-0.2686854898929596,"122":-0.8838983774185181,"123":1.8832191228866577,"124":0.5534899830818176,"125":0.4921080768108368,"126":-0.6286559700965881,"127":-0.4942570626735687,"128":0.6955913305282593,"129":0.6570600271224976,"130":-0.543242335319519,"131":-1.3487484455108643,"132":1.0452622175216675,"133":-1.4053443670272827,"134":0.07797645777463913,"135":0.692679762840271,"136":0.6014466881752014,"137":-0.25661975145339966,"138":-1.6916090250015259,"139":-0.38765430450439453,"140":-0.9003862142562866,"141":1.6775007247924805,"142":0.3779227137565613,"143":1.3758403062820435,"144":-1.2092809677124023,"145":-1.1166353225708008,"146":-0.7061341404914856,"147":0.9124023914337158,"148":0.4712391495704651,"149":-0.38617193698883057,"150":0.1261003166437149,"151":-0.6659097671508789,"152":-0.16959694027900696,"153":1.0346863269805908,"154":0.42944344878196716,"155":-0.09808788448572159,"156":0.6462761163711548,"157":-0.9834305644035339,"158":0.009926926344633102,"159":1.1709269285202026,"160":0.10724243521690369,"161":-0.24165211617946625,"162":-1.440458059310913,"163":1.874116063117981,"164":0.2569620609283447,"165":0.06899131089448929,"166":-0.0620284304022789,"167":-0.9082001447677612,"168":0.672390341758728,"169":0.43285712599754333,"170":-0.5021103620529175,"171":-0.5677568316459656,"172":-0.13009127974510193,"173":-0.1951301544904709,"174":-0.9840776920318604,"175":0.6096555590629578,"176":0.09124689549207687,"177":-0.2498842030763626,"178":-0.5784990191459656,"179":-0.9768833518028259,"180":0.06811190396547318,"181":-0.49713101983070374,"182":-1.8667675256729126,"183":1.7113615274429321,"184":0.491153359413147,"185":0.6803179383277893,"186":0.5072179436683655,"187":0.000755281129386276,"188":1.0058194398880005,"189":1.056089162826538,"190":-0.7198035717010498,"191":-1.3982950448989868,"192":0.2565891444683075,"193":0.350283145904541,"194":-0.8654751777648926,"195":1.1997796297073364,"196":-0.4209723472595215,"197":0.1959528625011444,"198":-0.24347858130931854,"199":0.8234025835990906,"200":-0.10559059679508209,"201":-0.13218887150287628,"202":0.24280951917171478,"203":0.7345762848854065,"204":-0.47696152329444885,"205":-0.24704399704933167,"206":0.16160152852535248,"207":1.181677222251892,"208":0.2696334719657898,"209":0.24902741611003876,"210":-0.5179939270019531,"211":-0.24766415357589722,"212":0.18640922009944916,"213":-0.9648314118385315,"214":0.0043013920076191425,"215":0.9370912909507751,"216":0.28619518876075745,"217":-0.19571025669574738,"218":0.7042491436004639,"219":0.017103342339396477,"220":-0.19435358047485352,"221":-0.44992029666900635,"222":-0.9942843914031982,"223":1.4162150621414185,"224":-0.5492458939552307,"225":-0.13687948882579803,"226":-0.3153814673423767,"227":0.27645495533943176,"228":1.2056125402450562,"229":0.04664048179984093,"230":-0.1775023341178894,"231":-0.8115051984786987,"232":0.0013098289491608739,"233":-0.7503634095191956,"234":-0.094283826649189,"235":0.12138229608535767,"236":0.45801860094070435,"237":-0.4447951018810272,"238":-0.013370935805141926,"239":-1.1780582666397095,"240":-1.5955835580825806,"241":0.09238692373037338,"242":0.2733922600746155,"243":0.8251853585243225,"244":0.5209026336669922,"245":-0.4991809129714966,"246":-1.202615737915039,"247":1.7213172912597656,"248":-0.2079692929983139,"249":-0.2066422700881958,"250":-0.035941921174526215,"251":-1.0073273181915283,"252":0.027133233845233917,"253":-0.916231632232666,"254":1.5887045860290527,"255":-0.2499331682920456,"256":1.434942603111267,"257":-1.353510856628418,"258":-1.3180861473083496,"259":-1.2211097478866577,"260":-2.2704379558563232,"261":1.6433039903640747,"262":2.1431989669799805,"263":-0.7630575895309448,"264":-1.794682264328003,"265":-2.2497589588165283,"266":-1.9136251211166382,"267":0.410302072763443,"268":-0.7987514734268188,"269":-0.7375941872596741,"270":1.4780633449554443,"271":-0.2313961684703827,"272":2.140075206756592,"273":-1.5338362455368042,"274":1.9677802324295044,"275":-0.32402896881103516,"276":3.0823869705200195,"277":-2.6877901554107666,"278":0.5738986730575562,"279":-1.4028165340423584,"280":0.27678361535072327,"281":-0.7484835386276245,"282":-1.2507851123809814,"283":2.0971312522888184,"284":-0.05828694626688957,"285":-0.24108923971652985,"286":0.4122290015220642,"287":-0.3274642527103424,"288":0.9317384362220764,"289":0.5785577297210693,"290":-0.17979377508163452,"291":-0.9505106806755066,"292":-0.28051722049713135,"293":-0.06509330868721008,"294":-1.0796563625335693,"295":1.01267409324646,"296":-0.30839622020721436,"297":0.17639632523059845,"298":-0.906130313873291,"299":-1.32685124874115,"300":0.2735087275505066,"301":-0.617352306842804,"302":-2.206926107406616,"303":1.901804804801941,"304":0.5473973751068115,"305":0.5879934430122375,"306":0.3446064293384552,"307":-0.7450290322303772,"308":1.3116992712020874,"309":0.48927566409111023,"310":-0.4943082630634308,"311":-1.5178743600845337,"312":-0.29534032940864563,"313":0.3617266118526459,"314":-1.275307059288025,"315":0.8693667054176331,"316":-0.6033398509025574,"317":-0.026694267988204956,"318":-0.1737908124923706,"319":0.45414456725120544,"320":0.29378175735473633,"321":-0.694812536239624,"322":0.2279367744922638,"323":1.1868896484375,"324":1.1948062181472778,"325":0.20329692959785461,"326":0.11303157359361649,"327":0.27855372428894043,"328":0.29961588978767395,"329":0.8869499564170837,"330":-0.6050508618354797,"331":-0.9403342604637146,"332":0.10995083302259445,"333":-0.41499772667884827,"334":-0.17718110978603363,"335":1.0044541358947754,"336":-0.023512424901127815,"337":0.3108021020889282,"338":-1.1133017539978027,"339":-1.0394446849822998,"340":0.8015771508216858,"341":-0.6390039920806885,"342":0.38856133818626404,"343":1.3829997777938843,"344":1.3126890659332275,"345":0.6571797132492065,"346":0.24594856798648834,"347":-0.7850152850151062,"348":0.8990885615348816,"349":1.8181955814361572,"350":-0.6696704626083374,"351":-1.1692171096801758,"352":0.7431799173355103,"353":-0.2026512175798416,"354":-0.8737527132034302,"355":1.086045503616333,"356":-0.4036453366279602,"357":0.7723493576049805,"358":-0.8521230816841125,"359":-0.5694761276245117,"360":-0.38309434056282043,"361":0.6343770623207092,"362":1.400620698928833,"363":-0.6468998193740845,"364":-2.025621175765991,"365":-1.3570843935012817,"366":-0.9083652496337891,"367":-0.2713179290294647,"368":-0.2773037254810333,"369":-0.47792112827301025,"370":1.1343860626220703,"371":-0.36063843965530396,"372":-0.727830171585083,"373":0.6586952209472656,"374":0.9271189570426941,"375":-0.5637707114219666,"376":0.9700679779052734,"377":-0.7009501457214355,"378":1.0263853073120117,"379":0.8178627490997314,"380":-0.2976089119911194,"381":-0.3956385850906372,"382":0.4196368455886841,"383":-1.3947378396987915,"384":-0.8580509424209595,"385":0.3120711147785187,"386":0.1751313954591751,"387":-0.17562955617904663,"388":-1.5727341175079346,"389":0.781952440738678,"390":0.40545666217803955,"391":1.1000938415527344,"392":0.7654032111167908,"393":-0.49572306871414185,"394":1.7296243906021118,"395":0.24721775949001312,"396":0.9756312966346741,"397":-0.12337760627269745,"398":0.6564912796020508,"399":0.834911584854126}},"outputBias":{"rows":20,"columns":1,"weights":{"0":-0.6039649844169617,"1":-0.25459569692611694,"2":-1.3236901760101318,"3":-1.0684771537780762,"4":-1.1570532321929932,"5":-1.268434762954712,"6":-1.9248462915420532,"7":-0.40088534355163574,"8":0.08706600219011307,"9":-2.9937617778778076,"10":-0.6382002830505371,"11":-0.7238576412200928,"12":-0.4623214304447174,"13":0.08711689710617065,"14":-0.4680337607860565,"15":-2.1793487071990967,"16":-0.7591402530670166,"17":-0.6743655800819397,"18":0.6178468465805054,"19":0.7573651671409607}},"cellActivationMatrix":{"rows":20,"columns":5,"weights":{"0":-0.9818588495254517,"1":-0.8707352876663208,"2":-0.33774617314338684,"3":0.5459540486335754,"4":-0.49064552783966064,"5":0.8827038407325745,"6":0.21326611936092377,"7":-0.36086955666542053,"8":-0.44264814257621765,"9":0.1450549066066742,"10":1.0327160358428955,"11":-0.13071539998054504,"12":0.24229589104652405,"13":-1.0115554332733154,"14":-0.1367970108985901,"15":-0.6807742118835449,"16":-0.2688372731208801,"17":-0.47733116149902344,"18":1.1624634265899658,"19":0.3266908526420593,"20":-0.666593074798584,"21":-1.1145211458206177,"22":-0.6428163647651672,"23":0.956548810005188,"24":-0.9365325570106506,"25":-0.6317776441574097,"26":-0.1740972250699997,"27":0.055475689470767975,"28":0.42106035351753235,"29":-0.32337576150894165,"30":-0.8423449993133545,"31":-1.2053217887878418,"32":-1.3447052240371704,"33":0.623257577419281,"34":-1.1633529663085938,"35":-0.06661909818649292,"36":0.20602171123027802,"37":0.20968876779079437,"38":-0.3402186632156372,"39":-0.13588614761829376,"40":-1.6218148469924927,"41":-0.8801571130752563,"42":-0.7406492829322815,"43":0.5061039924621582,"44":-0.8088811039924622,"45":-0.9268442988395691,"46":-0.7177080512046814,"47":-0.6524944305419922,"48":0.2610567808151245,"49":-0.4334770441055298,"50":0.5564156174659729,"51":0.25407466292381287,"52":-0.3557957410812378,"53":-0.6025973558425903,"54":0.15584200620651245,"55":0.9094667434692383,"56":0.47437992691993713,"57":0.2578955888748169,"58":-0.5168269872665405,"59":0.18472713232040405,"60":-0.5958564877510071,"61":0.25008174777030945,"62":-0.5382909178733826,"63":-0.9087989926338196,"64":-0.4742036759853363,"65":-1.492205262184143,"66":0.25917473435401917,"67":-1.0374301671981812,"68":-0.7021461129188538,"69":-0.7868149876594543,"70":0.5271140933036804,"71":1.0051149129867554,"72":0.9382050633430481,"73":-0.7663887143135071,"74":0.5969449877738953,"75":-1.2003898620605469,"76":-0.8160102367401123,"77":-0.7023865580558777,"78":0.3294792175292969,"79":-0.570758581161499,"80":0.7997181415557861,"81":0.6314265727996826,"82":0.450748085975647,"83":-0.6712360382080078,"84":0.3300250172615051,"85":-1.3334351778030396,"86":-1.4912011623382568,"87":-1.126302719116211,"88":1.3868937492370605,"89":-1.4595636129379272,"90":-1.155804991722107,"91":0.5272756814956665,"92":-0.5496362447738647,"93":-1.1206668615341187,"94":0.3546057939529419,"95":-1.549556016921997,"96":0.7849583625793457,"97":-1.4233931303024292,"98":-1.338067650794983,"99":-1.0874972343444824}},"cellActivationHidden":{"rows":20,"columns":20,"weights":{"0":1.4035123586654663,"1":-2.154719352722168,"2":-0.4355989396572113,"3":1.7316514253616333,"4":1.0680649280548096,"5":1.8130836486816406,"6":1.1423840522766113,"7":-1.6051090955734253,"8":0.7313746809959412,"9":1.4065005779266357,"10":-1.2360323667526245,"11":-1.1747485399246216,"12":0.24960121512413025,"13":0.05479712039232254,"14":-1.5829342603683472,"15":1.7172808647155762,"16":-1.1844626665115356,"17":1.282434344291687,"18":0.5898538827896118,"19":0.3400804102420807,"20":-1.5229318141937256,"21":2.1110825538635254,"22":0.8222635984420776,"23":-1.4388725757598877,"24":-1.4690693616867065,"25":-1.7357587814331055,"26":-0.8363770246505737,"27":0.559735119342804,"28":-0.8568567037582397,"29":-1.471767544746399,"30":1.361433506011963,"31":1.268908143043518,"32":0.4301378130912781,"33":-0.17815960943698883,"34":1.4602699279785156,"35":-1.8988138437271118,"36":1.2745519876480103,"37":-1.484747290611267,"38":0.09553520381450653,"39":-0.1270812600851059,"40":-1.4581992626190186,"41":1.9310312271118164,"42":0.29158711433410645,"43":-0.4105595350265503,"44":-1.785315990447998,"45":-1.9624775648117065,"46":-0.7165929079055786,"47":1.5165400505065918,"48":-0.8848896026611328,"49":-0.07111116498708725,"50":1.5250866413116455,"51":0.9181630611419678,"52":0.4572027623653412,"53":0.01799835078418255,"54":0.7268299460411072,"55":-0.40923503041267395,"56":1.3155208826065063,"57":-1.4029216766357422,"58":0.3079325556755066,"59":0.2825097441673279,"60":0.7356173396110535,"61":-1.5504451990127563,"62":-0.2456386536359787,"63":0.13477347791194916,"64":1.7742584943771362,"65":1.6341748237609863,"66":0.08336956799030304,"67":-1.2914695739746094,"68":0.5479932427406311,"69":0.9883925318717957,"70":-1.3774651288986206,"71":-1.2184768915176392,"72":0.5526365041732788,"73":-1.2853848934173584,"74":-0.8634614944458008,"75":0.5938029885292053,"76":-0.28367412090301514,"77":0.9117751717567444,"78":-0.8400046229362488,"79":-0.4879477620124817,"80":1.1272045373916626,"81":-1.6396870613098145,"82":-0.9103033542633057,"83":1.1404911279678345,"84":2.2981390953063965,"85":2.1371822357177734,"86":0.496913343667984,"87":-1.6571441888809204,"88":0.2007891684770584,"89":0.13211779296398163,"90":-0.7744222283363342,"91":-0.4784719944000244,"92":-0.21318858861923218,"93":-0.8237926363945007,"94":-1.5484514236450195,"95":0.8425931334495544,"96":-0.8947109580039978,"97":0.9368134140968323,"98":-0.7137557864189148,"99":-0.7377063632011414,"100":1.3384960889816284,"101":-3.012284278869629,"102":-1.6817708015441895,"103":2.0960533618927,"104":1.725029468536377,"105":3.0996832847595215,"106":0.8191615343093872,"107":-0.898797869682312,"108":0.35136181116104126,"109":0.8299990296363831,"110":-1.8100998401641846,"111":-1.8417649269104004,"112":-0.2225830852985382,"113":-0.5734025239944458,"114":-1.491429328918457,"115":1.1460824012756348,"116":-0.9850893020629883,"117":1.2109148502349854,"118":-0.7022830247879028,"119":-0.6050431728363037,"120":1.4096626043319702,"121":-1.8953369855880737,"122":-1.5715965032577515,"123":1.0031347274780273,"124":0.8525043725967407,"125":1.8997007608413696,"126":0.8417776226997375,"127":-0.8974816203117371,"128":2.319488525390625,"129":0.8054887056350708,"130":-1.203079104423523,"131":-1.473865032196045,"132":-0.12481502443552017,"133":0.7006909847259521,"134":-1.3927851915359497,"135":1.0616830587387085,"136":-1.316543459892273,"137":1.3955111503601074,"138":0.009485417976975441,"139":0.7304163575172424,"140":-1.141891360282898,"141":1.565824270248413,"142":0.4609137773513794,"143":-0.9517029523849487,"144":-1.4288772344589233,"145":-1.7347326278686523,"146":-0.8208856582641602,"147":-0.07429137825965881,"148":-0.4087277054786682,"149":-0.9209725856781006,"150":1.7663252353668213,"151":1.3884905576705933,"152":0.2460564225912094,"153":-0.7458273768424988,"154":0.5173006057739258,"155":-0.8457401394844055,"156":0.9939427971839905,"157":-1.1854867935180664,"158":-0.031045978888869286,"159":-0.07085642963647842,"160":1.759909987449646,"161":-2.614467144012451,"162":-0.31156960129737854,"163":1.5722613334655762,"164":1.3361371755599976,"165":2.37127947807312,"166":2.214491844177246,"167":-1.2478842735290527,"168":0.6112011671066284,"169":1.596356987953186,"170":-2.249582290649414,"171":-1.0816569328308105,"172":-0.4032362699508667,"173":0.030256817117333412,"174":-1.7366544008255005,"175":2.0213842391967773,"176":-1.340491771697998,"177":1.7928422689437866,"178":0.6417768001556396,"179":-0.02102627418935299,"180":0.6761404871940613,"181":-0.9114267826080322,"182":-1.4192891120910645,"183":0.7470032572746277,"184":0.4850049614906311,"185":0.9886125326156616,"186":0.22869348526000977,"187":0.6242537498474121,"188":1.1055890321731567,"189":-0.0023320091422647238,"190":-0.9576238393783569,"191":-1.1895275115966797,"192":-0.15867123007774353,"193":0.703512966632843,"194":0.396848201751709,"195":0.19236169755458832,"196":-0.43240171670913696,"197":0.6475954651832581,"198":-0.5851898789405823,"199":0.4238925576210022,"200":-1.5256422758102417,"201":2.7194340229034424,"202":1.491689920425415,"203":-1.5519646406173706,"204":-1.3699525594711304,"205":-2.1624937057495117,"206":-1.2348439693450928,"207":0.9150250554084778,"208":-0.38724392652511597,"209":-0.9672369956970215,"210":1.2837916612625122,"211":1.1449702978134155,"212":0.3946387767791748,"213":0.42009586095809937,"214":1.434342861175537,"215":-1.4826773405075073,"216":1.2016855478286743,"217":-1.4671953916549683,"218":0.5794321298599243,"219":0.22620952129364014,"220":-0.8885369896888733,"221":2.4955217838287354,"222":0.5109175443649292,"223":-1.4870002269744873,"224":-0.8875702023506165,"225":-2.4878811836242676,"226":-1.1791759729385376,"227":1.5196874141693115,"228":-0.10588840395212173,"229":-1.3006534576416016,"230":2.230203628540039,"231":0.3042128384113312,"232":-0.7153225541114807,"233":1.681762456893921,"234":1.4069294929504395,"235":-1.645841360092163,"236":0.279248982667923,"237":-0.8427126407623291,"238":0.6245337724685669,"239":0.3813307285308838,"240":-1.2603106498718262,"241":1.7141220569610596,"242":0.5786576271057129,"243":-0.46945297718048096,"244":-0.14344339072704315,"245":-1.2147210836410522,"246":-1.069291353225708,"247":1.0198254585266113,"248":-1.0728269815444946,"249":-0.4878038465976715,"250":1.0323859453201294,"251":0.32640448212623596,"252":-0.013603162951767445,"253":-1.7712405920028687,"254":1.441328525543213,"255":-0.5733532905578613,"256":1.3428832292556763,"257":-1.0577497482299805,"258":-0.677380383014679,"259":-0.5299035906791687,"260":1.97519052028656,"261":-1.3182930946350098,"262":0.712951123714447,"263":-0.5786083936691284,"264":-0.6410640478134155,"265":0.6649624705314636,"266":1.5871065855026245,"267":-1.0886653661727905,"268":0.222789004445076,"269":1.3677641153335571,"270":-0.7272579669952393,"271":0.49510127305984497,"272":-1.0066382884979248,"273":0.6843026280403137,"274":-2.2648262977600098,"275":1.8184993267059326,"276":-1.200960636138916,"277":1.5491827726364136,"278":0.7788535356521606,"279":0.9189480543136597,"280":-1.6308990716934204,"281":2.2188985347747803,"282":0.8434322476387024,"283":-1.4574263095855713,"284":-1.6367350816726685,"285":-1.9801687002182007,"286":-1.3518071174621582,"287":0.43362846970558167,"288":-1.117891550064087,"289":-1.2241592407226562,"290":1.5902010202407837,"291":1.394199013710022,"292":0.0977332666516304,"293":-0.3192708492279053,"294":0.9501025080680847,"295":-1.440395474433899,"296":1.3663504123687744,"297":-1.4496415853500366,"298":-0.19381441175937653,"299":0.12052249163389206,"300":0.887260913848877,"301":-1.3479640483856201,"302":-0.6934775710105896,"303":0.815593957901001,"304":0.7391716837882996,"305":0.9381629228591919,"306":0.6283257603645325,"307":0.2707649767398834,"308":0.6718443632125854,"309":0.5915902853012085,"310":-1.0697715282440186,"311":-0.9087677001953125,"312":0.1325879991054535,"313":0.41888007521629333,"314":-0.12558919191360474,"315":0.7052925825119019,"316":-0.6682761907577515,"317":0.904291033744812,"318":-0.10110041499137878,"319":0.118980772793293,"320":-1.878417730331421,"321":2.129575729370117,"322":0.6648038029670715,"323":-1.2689825296401978,"324":-1.64512300491333,"325":-2.021000623703003,"326":-1.127205729484558,"327":1.6308714151382446,"328":-1.036211609840393,"329":-0.8191871643066406,"330":1.3614174127578735,"331":0.9609504342079163,"332":0.13181419670581818,"333":-0.06698726862668991,"334":1.6666343212127686,"335":-1.375991940498352,"336":1.428052544593811,"337":-1.501064419746399,"338":-0.37252023816108704,"339":-0.234966441988945,"340":1.54733407497406,"341":-2.190941333770752,"342":-0.7209358215332031,"343":1.6085251569747925,"344":1.621912956237793,"345":1.6271388530731201,"346":1.162414789199829,"347":-1.6351358890533447,"348":0.8430327773094177,"349":1.2312853336334229,"350":-1.3298227787017822,"351":-1.2069742679595947,"352":0.7003693580627441,"353":0.2592582702636719,"354":-1.8061245679855347,"355":1.6889731884002686,"356":-1.321616768836975,"357":1.2176940441131592,"358":0.4351947009563446,"359":0.33789655566215515,"360":0.1846599131822586,"361":0.4592483937740326,"362":0.9225578904151917,"363":-0.4304223954677582,"364":-0.6215600371360779,"365":-0.6012977957725525,"366":0.1304033398628235,"367":0.3154495358467102,"368":-0.1959216147661209,"369":0.496910035610199,"370":0.6585219502449036,"371":0.03866042569279671,"372":0.6680821776390076,"373":-0.13928751647472382,"374":-0.049746084958314896,"375":0.6989238262176514,"376":0.11267385631799698,"377":0.20874793827533722,"378":1.3522905111312866,"379":1.5608997344970703,"380":1.3899271488189697,"381":-0.867525041103363,"382":0.3901815116405487,"383":0.5700027346611023,"384":0.22434677183628082,"385":0.6010931730270386,"386":1.656339406967163,"387":0.043827563524246216,"388":-0.6867601275444031,"389":1.8563581705093384,"390":-0.5411301255226135,"391":-0.09983948618173599,"392":0.7504093050956726,"393":0.5356954336166382,"394":-0.9407698512077332,"395":1.6933788061141968,"396":-1.0843634605407715,"397":1.5026466846466064,"398":1.8153774738311768,"399":0.6865273714065552}},"cellActivationBias":{"rows":20,"columns":1,"weights":{"0":-1.9955312013626099,"1":1.2889337539672852,"2":1.35576593875885,"3":-0.8093822002410889,"4":-0.7519019246101379,"5":-1.1122504472732544,"6":-1.5355651378631592,"7":0.1317516267299652,"8":-1.7219988107681274,"9":0.4836786091327667,"10":0.8319656252861023,"11":0.9871217608451843,"12":-0.24632397294044495,"13":-1.2150555849075317,"14":1.596481204032898,"15":-0.20657505095005035,"16":1.7540836334228516,"17":-2.482088804244995,"18":-1.1154755353927612,"19":-1.9779436588287354}}},{"inputMatrix":{"rows":20,"columns":20,"weights":{"0":0.2732921838760376,"1":-0.11591335386037827,"2":0.6503283381462097,"3":-1.0536589622497559,"4":-1.2558491230010986,"5":-1.226902723312378,"6":-1.3759043216705322,"7":0.0765349268913269,"8":1.421821117401123,"9":0.6307050585746765,"10":0.8392693400382996,"11":0.7808326482772827,"12":0.5118950605392456,"13":-0.5679961442947388,"14":-0.05883995443582535,"15":0.20255285501480103,"16":0.014875519089400768,"17":0.29541048407554626,"18":-0.37019842863082886,"19":0.662394642829895,"20":0.6526162028312683,"21":-0.6777368783950806,"22":0.8921197652816772,"23":-2.4076924324035645,"24":0.7603461146354675,"25":-0.18752740323543549,"26":0.2761670649051666,"27":-1.3720265626907349,"28":0.08156123012304306,"29":0.2828618586063385,"30":0.18484242260456085,"31":-0.14094364643096924,"32":0.05367665737867355,"33":-1.0291324853897095,"34":-0.8710198998451233,"35":0.8677318096160889,"36":-0.914341926574707,"37":0.7649339437484741,"38":0.5503312349319458,"39":-1.1504497528076172,"40":0.46661707758903503,"41":-0.7182696461677551,"42":-0.43196412920951843,"43":-0.32391083240509033,"44":0.5134360790252686,"45":0.8606226444244385,"46":0.31770995259284973,"47":-1.4052553176879883,"48":1.5429178476333618,"49":0.1987452656030655,"50":-1.1062625646591187,"51":-0.8114813566207886,"52":-0.9448907971382141,"53":-0.07142841815948486,"54":-0.8484665155410767,"55":0.7324010729789734,"56":-0.6629708409309387,"57":0.5487955808639526,"58":0.6854634284973145,"59":-0.9322696924209595,"60":0.5983147621154785,"61":-1.2159157991409302,"62":-0.922940194606781,"63":0.8390580415725708,"64":0.5940067172050476,"65":1.1407848596572876,"66":0.8951011300086975,"67":-0.4240736961364746,"68":1.467427134513855,"69":0.9999789595603943,"70":-1.0327290296554565,"71":-1.1974998712539673,"72":-0.36206522583961487,"73":1.1113523244857788,"74":-1.1184076070785522,"75":1.1802366971969604,"76":-0.5582314729690552,"77":0.7740907669067383,"78":0.28557732701301575,"79":1.1192792654037476,"80":-0.13615533709526062,"81":-0.6980002522468567,"82":0.6365438103675842,"83":-0.47603124380111694,"84":-0.05583924055099487,"85":-0.6296388506889343,"86":-0.250062495470047,"87":-1.5131019353866577,"88":-0.1040203645825386,"89":0.31917282938957214,"90":0.39663586020469666,"91":0.9920470118522644,"92":0.22000455856323242,"93":-0.42817696928977966,"94":-0.5984583497047424,"95":-0.11989504843950272,"96":-0.10704228281974792,"97":0.5817999243736267,"98":-0.5560349225997925,"99":-1.9425102472305298,"100":-0.061260320246219635,"101":1.8125563859939575,"102":1.5612704753875732,"103":-1.3185299634933472,"104":-0.8698797821998596,"105":-1.5909655094146729,"106":-0.47509822249412537,"107":-0.2108907848596573,"108":0.16828542947769165,"109":-0.28521728515625,"110":2.0527896881103516,"111":0.9501510262489319,"112":-0.17262008786201477,"113":-0.026911649852991104,"114":0.3023388087749481,"115":0.004097604658454657,"116":0.13468405604362488,"117":-0.05806395038962364,"118":0.4030976891517639,"119":-0.23735201358795166,"120":0.6502057313919067,"121":-0.9133971333503723,"122":-0.7791780829429626,"123":0.27555128931999207,"124":0.6053957939147949,"125":0.9409677982330322,"126":0.5586937665939331,"127":-0.21642594039440155,"128":0.9625025987625122,"129":0.9404220581054688,"130":-0.8404120206832886,"131":-0.7542661428451538,"132":-0.16270600259304047,"133":1.0135915279388428,"134":-1.0605891942977905,"135":1.1837314367294312,"136":-0.5787242650985718,"137":0.8130523562431335,"138":0.15629547834396362,"139":1.0146702527999878,"140":-0.41245749592781067,"141":0.09477222710847855,"142":1.5457476377487183,"143":-2.553767442703247,"144":0.7550089359283447,"145":-0.06134408712387085,"146":-0.5649632811546326,"147":-1.0742093324661255,"148":-0.026742346584796906,"149":-0.3929169774055481,"150":0.9631991386413574,"151":0.6280807256698608,"152":0.8041701316833496,"153":-1.4862875938415527,"154":0.022754691541194916,"155":-0.10079562664031982,"156":0.3560864329338074,"157":-0.4523053467273712,"158":-0.2892580032348633,"159":-1.5691521167755127,"160":-0.7761915922164917,"161":-0.07965452969074249,"162":1.0412169694900513,"163":0.6972312927246094,"164":0.07628923654556274,"165":-0.2165340781211853,"166":-0.4690250754356384,"167":-0.8687114119529724,"168":0.6714680790901184,"169":-0.3360123336315155,"170":-0.10214952379465103,"171":0.4303196668624878,"172":0.6413375735282898,"173":-0.12018533051013947,"174":0.017386311665177345,"175":-0.2832711935043335,"176":0.612821102142334,"177":-1.3014529943466187,"178":0.38821446895599365,"179":-0.43933966755867004,"180":0.17932844161987305,"181":-0.7436704635620117,"182":-0.7301390767097473,"183":0.649654746055603,"184":0.5029699802398682,"185":0.4282585382461548,"186":0.2508339583873749,"187":0.19288240373134613,"188":0.9588351249694824,"189":0.6237849593162537,"190":-0.5270523428916931,"191":-0.8086032867431641,"192":-0.4770466685295105,"193":0.7403022646903992,"194":-0.921976625919342,"195":0.9411299228668213,"196":-0.3104553520679474,"197":0.3166273534297943,"198":-0.09788978844881058,"199":-0.16021718084812164,"200":1.1894958019256592,"201":-1.1489605903625488,"202":-0.21328257024288177,"203":0.27064248919487,"204":0.9060777425765991,"205":1.7143359184265137,"206":0.7770415544509888,"207":-0.7608725428581238,"208":0.613638699054718,"209":0.5652857422828674,"210":-1.8863675594329834,"211":0.1315833479166031,"212":0.3107384741306305,"213":0.5734958052635193,"214":-0.3773173689842224,"215":0.5659305453300476,"216":-1.106780767440796,"217":1.3565641641616821,"218":0.10674600303173065,"219":1.7220652103424072,"220":0.951434314250946,"221":0.0431988500058651,"222":0.10289391130208969,"223":-0.8002510070800781,"224":1.440699577331543,"225":0.05996747314929962,"226":-1.0165737867355347,"227":-0.6457701325416565,"228":1.282716155052185,"229":-0.5861049890518188,"230":0.2547006905078888,"231":0.08265754580497742,"232":-0.29798975586891174,"233":0.15861445665359497,"234":-0.22173123061656952,"235":-0.12853194773197174,"236":-1.3828096389770508,"237":0.8219379782676697,"238":-0.7575675249099731,"239":0.27895331382751465,"240":0.36205217242240906,"241":-0.04171624407172203,"242":-0.13802605867385864,"243":1.2671558856964111,"244":0.23357683420181274,"245":-0.977077305316925,"246":-0.55348801612854,"247":2.8325254917144775,"248":0.2105901688337326,"249":0.23642218112945557,"250":0.5991452932357788,"251":-0.7473097443580627,"252":-0.5746790170669556,"253":0.5353121757507324,"254":-0.2998269498348236,"255":0.5332434177398682,"256":-0.26737943291664124,"257":0.09926296025514603,"258":0.7920849919319153,"259":1.707536220550537,"260":-0.03079381212592125,"261":0.8304842710494995,"262":0.6595439910888672,"263":-0.6655041575431824,"264":0.07840574532747269,"265":-0.6127603650093079,"266":-0.10088613629341125,"267":0.13417038321495056,"268":0.41871750354766846,"269":-0.05086607113480568,"270":0.6813465356826782,"271":-0.06136486306786537,"272":-1.2144240140914917,"273":0.7997802495956421,"274":-0.0866113230586052,"275":-0.3655749261379242,"276":-0.307044118642807,"277":0.4150327742099762,"278":0.8315160870552063,"279":0.3130662143230438,"280":0.39818868041038513,"281":-0.6216415762901306,"282":-0.41385364532470703,"283":0.4591484069824219,"284":0.6030600666999817,"285":0.618952751159668,"286":0.13222192227840424,"287":-0.7199799418449402,"288":1.4402573108673096,"289":0.24931572377681732,"290":-0.8968778252601624,"291":-0.8226614594459534,"292":-0.9342681169509888,"293":0.9827284216880798,"294":-0.8811517357826233,"295":0.8184266686439514,"296":-0.47134929895401,"297":0.38095399737358093,"298":0.0767444521188736,"299":-0.37489253282546997,"300":0.4165589511394501,"301":1.885013461112976,"302":1.68897545337677,"303":-1.3372890949249268,"304":-0.7911821603775024,"305":-1.5075560808181763,"306":-0.7101718187332153,"307":-0.09981954097747803,"308":0.028908375650644302,"309":-0.5566659569740295,"310":2.0205631256103516,"311":0.7965208292007446,"312":0.06701987236738205,"313":-0.22857414186000824,"314":0.10295379161834717,"315":0.38367578387260437,"316":-0.2569783926010132,"317":0.13875484466552734,"318":0.5418853759765625,"319":0.14267101883888245,"320":-0.5229111909866333,"321":-0.31783223152160645,"322":0.20546302199363708,"323":-0.028697628527879715,"324":1.4199049472808838,"325":-0.025356534868478775,"326":-0.17630231380462646,"327":0.27016445994377136,"328":-0.1081249862909317,"329":0.13159827888011932,"330":-0.3351535201072693,"331":-0.5451245307922363,"332":0.9965984225273132,"333":0.8599748611450195,"334":0.16543671488761902,"335":-0.007536489516496658,"336":0.12966981530189514,"337":-0.43653956055641174,"338":0.6877500414848328,"339":0.4882872998714447,"340":0.7721003890037537,"341":0.04651975259184837,"342":-1.0091314315795898,"343":1.5076792240142822,"344":-0.2516656816005707,"345":-0.04135145992040634,"346":0.7263118028640747,"347":2.1313068866729736,"348":0.9378683567047119,"349":1.0138797760009766,"350":-0.47198039293289185,"351":0.9962520599365234,"352":-0.5773650407791138,"353":2.646052598953247,"354":-0.9981327652931213,"355":1.2320362329483032,"356":-0.810454249382019,"357":0.8008122444152832,"358":1.1615333557128906,"359":4.346157550811768,"360":-0.8123071193695068,"361":1.002998948097229,"362":0.715004563331604,"363":-0.45033207535743713,"364":0.4727128744125366,"365":-1.5021603107452393,"366":-2.772104501724243,"367":0.9212977886199951,"368":0.06474091857671738,"369":-0.774374783039093,"370":2.0608742237091064,"371":1.005292296409607,"372":0.468558132648468,"373":-1.990471363067627,"374":0.5922288298606873,"375":-0.24970947206020355,"376":0.9758837223052979,"377":-1.1781105995178223,"378":-0.19334425032138824,"379":-1.2380738258361816,"380":0.9191203117370605,"381":-0.520617663860321,"382":-0.16798390448093414,"383":0.36754104495048523,"384":0.4250049591064453,"385":0.14412982761859894,"386":0.4290614128112793,"387":-0.5035624504089355,"388":0.23116625845432281,"389":0.5995775461196899,"390":-0.18502365052700043,"391":-0.28491076827049255,"392":-0.5045477747917175,"393":0.12850114703178406,"394":-1.0213061571121216,"395":0.9457209706306458,"396":-0.9591650366783142,"397":1.0243909358978271,"398":-0.4026705026626587,"399":0.15125992894172668}},"inputHidden":{"rows":20,"columns":20,"weights":{"0":-0.9305382370948792,"1":-1.482865333557129,"2":-0.6344789862632751,"3":0.6544560194015503,"4":-0.9878231883049011,"5":0.5909075140953064,"6":-0.4993594288825989,"7":-0.9102857708930969,"8":1.2382466793060303,"9":1.0738518238067627,"10":-0.21978086233139038,"11":-0.20123982429504395,"12":-0.9232684969902039,"13":-0.7850683927536011,"14":0.8517873883247375,"15":-0.5380790829658508,"16":-0.1474248170852661,"17":0.335124671459198,"18":-0.3595750331878662,"19":0.09601770341396332,"20":0.781509518623352,"21":-0.19057437777519226,"22":-0.03713013604283333,"23":-0.8649598360061646,"24":0.2902856171131134,"25":-0.1647397130727768,"26":0.3550272285938263,"27":-0.7885534763336182,"28":0.14777855575084686,"29":-0.7634068727493286,"30":-0.599052906036377,"31":-0.12805835902690887,"32":-0.05305522680282593,"33":-0.3271544873714447,"34":-0.1830795854330063,"35":-0.2548375725746155,"36":-1.8092669248580933,"37":-0.44957247376441956,"38":-0.4006885886192322,"39":-0.010028598830103874,"40":1.6843563318252563,"41":0.1692737638950348,"42":0.4349254369735718,"43":-1.1034493446350098,"44":-0.32352426648139954,"45":0.06693820655345917,"46":0.6650914549827576,"47":-0.9598671793937683,"48":-0.2754511535167694,"49":-1.069250226020813,"50":-0.7653913497924805,"51":0.22953012585639954,"52":1.272040605545044,"53":1.7758086919784546,"54":-0.6891504526138306,"55":0.09920027107000351,"56":0.9460245966911316,"57":-0.9410399198532104,"58":1.3318860530853271,"59":-0.03473210334777832,"60":-0.5230349898338318,"61":0.5419639348983765,"62":0.9355049133300781,"63":-1.1428214311599731,"64":0.4732840359210968,"65":-0.8705317378044128,"66":0.9261668920516968,"67":0.6020612716674805,"68":-0.5209250450134277,"69":-1.0370028018951416,"70":0.005897841416299343,"71":0.8739659786224365,"72":0.8319291472434998,"73":1.080878734588623,"74":-0.878585696220398,"75":0.5830045938491821,"76":0.10360952466726303,"77":-0.8582014441490173,"78":0.34052932262420654,"79":0.5983526110649109,"80":0.10710480064153671,"81":-0.027552621439099312,"82":-0.21288101375102997,"83":0.05687331780791283,"84":0.2560773193836212,"85":0.01644594594836235,"86":0.06468365341424942,"87":-0.9790230989456177,"88":-0.3046267628669739,"89":-0.079926498234272,"90":0.8858644962310791,"91":0.36854201555252075,"92":0.3789394199848175,"93":-0.6987177729606628,"94":0.0324050672352314,"95":-0.4261070191860199,"96":-1.8809497356414795,"97":-0.25717082619667053,"98":0.7348238229751587,"99":0.581593930721283,"100":-0.41613882780075073,"101":-1.286521315574646,"102":-1.5591791868209839,"103":0.6866021752357483,"104":-0.030965853482484818,"105":1.4833881855010986,"106":-0.9728062748908997,"107":-1.1148722171783447,"108":1.225337028503418,"109":0.7681227922439575,"110":-0.796636700630188,"111":-1.2542697191238403,"112":-2.086970806121826,"113":-0.8814086318016052,"114":1.4178471565246582,"115":-1.8479639291763306,"116":0.697866678237915,"117":0.9840826392173767,"118":-1.0006474256515503,"119":-1.0969434976577759,"120":-0.9154061079025269,"121":0.21589547395706177,"122":0.7060263752937317,"123":-1.2256462574005127,"124":0.23481152951717377,"125":-0.7064499855041504,"126":0.8982402682304382,"127":0.3398224115371704,"128":-0.37856200337409973,"129":-1.0890592336654663,"130":-0.2666163742542267,"131":0.6800794005393982,"132":0.6575891375541687,"133":0.9581311345100403,"134":-0.8033340573310852,"135":0.3639945387840271,"136":-0.19743230938911438,"137":-0.8581348657608032,"138":0.3224073052406311,"139":0.4903934597969055,"140":0.7768497467041016,"141":-0.8737989068031311,"142":-0.7001364827156067,"143":0.8343085646629333,"144":0.37999671697616577,"145":-0.35639095306396484,"146":-1.1140762567520142,"147":-0.23607537150382996,"148":-0.584900975227356,"149":1.1898647546768188,"150":-0.12173902243375778,"151":-0.5227310657501221,"152":-0.19557873904705048,"153":0.8291460275650024,"154":1.2082297801971436,"155":-0.018937217071652412,"156":-2.250519275665283,"157":0.9562488794326782,"158":-0.20611663162708282,"159":-0.13288360834121704,"160":-1.0935388803482056,"161":-0.2565740942955017,"162":-0.4111686050891876,"163":0.13234201073646545,"164":-0.6147403120994568,"165":1.517647624015808,"166":-0.15792934596538544,"167":-1.3562142848968506,"168":-0.1447492092847824,"169":0.2013988047838211,"170":-0.10849703848361969,"171":-0.9530681371688843,"172":-0.5847379565238953,"173":-0.05369419604539871,"174":0.34042903780937195,"175":-1.5483148097991943,"176":-0.08085878938436508,"177":0.1257334053516388,"178":-1.2258158922195435,"179":-0.3227548897266388,"180":0.2489558309316635,"181":-0.1558767706155777,"182":0.7243974208831787,"183":-0.7419822812080383,"184":-0.37177416682243347,"185":-0.6850149035453796,"186":0.3341120183467865,"187":-0.28732314705848694,"188":-0.8469783067703247,"189":-0.7903210520744324,"190":-0.9533272981643677,"191":0.6774930357933044,"192":0.43119803071022034,"193":0.8173488974571228,"194":-0.7333682179450989,"195":0.4717070162296295,"196":-0.3156099319458008,"197":-0.06280983984470367,"198":0.03892133757472038,"199":-0.11320870369672775,"200":-0.701545774936676,"201":0.4417535662651062,"202":0.038518380373716354,"203":-1.303083896636963,"204":1.2828742265701294,"205":-0.35772237181663513,"206":1.1389801502227783,"207":0.4718789756298065,"208":0.3381204307079315,"209":-1.0017845630645752,"210":1.5599963665008545,"211":-0.05975575000047684,"212":0.6743109822273254,"213":-0.08790547400712967,"214":-0.607069194316864,"215":-0.2620980143547058,"216":-0.8996015191078186,"217":-1.0116937160491943,"218":0.22037635743618011,"219":0.6727357506752014,"220":0.2847907245159149,"221":-0.26691892743110657,"222":0.05949564278125763,"223":0.7184512615203857,"224":-0.18858516216278076,"225":-0.23266611993312836,"226":-0.7198504209518433,"227":-0.12617525458335876,"228":0.26522257924079895,"229":0.6762945055961609,"230":-0.5228752493858337,"231":0.05034997686743736,"232":-0.13395117223262787,"233":1.0607386827468872,"234":0.42483294010162354,"235":0.16976141929626465,"236":0.5152408480644226,"237":0.5497914552688599,"238":0.533303439617157,"239":0.09318981319665909,"240":-0.559185802936554,"241":1.6039403676986694,"242":1.7692055702209473,"243":-0.6887120008468628,"244":1.565436601638794,"245":0.30869320034980774,"246":0.4000735878944397,"247":1.2623718976974487,"248":0.9022756218910217,"249":-0.6578546166419983,"250":-1.1493736505508423,"251":0.39537885785102844,"252":-1.4100219011306763,"253":0.6467534303665161,"254":-0.4602451026439667,"255":0.49595674872398376,"256":-0.024547405540943146,"257":0.8582728505134583,"258":0.35635995864868164,"259":0.27523988485336304,"260":-0.575012743473053,"261":-0.660273015499115,"262":-0.8903697729110718,"263":0.49342095851898193,"264":-0.1764678806066513,"265":1.5862267017364502,"266":-0.8095692992210388,"267":-0.21600373089313507,"268":-0.2837170958518982,"269":0.6776936650276184,"270":-0.6207554936408997,"271":-1.3128308057785034,"272":-1.7489372491836548,"273":-0.507358193397522,"274":0.8937285542488098,"275":-1.6372631788253784,"276":-0.25565725564956665,"277":0.8716928362846375,"278":-0.8592656850814819,"279":-0.7528499364852905,"280":0.16492268443107605,"281":0.21344812214374542,"282":0.6529470086097717,"283":-1.2247061729431152,"284":-0.04208938777446747,"285":0.2359967976808548,"286":0.819661021232605,"287":-0.1149391457438469,"288":-0.16558130085468292,"289":-1.1973170042037964,"290":-0.9996348023414612,"291":0.31462857127189636,"292":0.5114037990570068,"293":1.0168850421905518,"294":-0.7314890027046204,"295":0.06150602176785469,"296":0.29186493158340454,"297":-0.6734297275543213,"298":0.17143894731998444,"299":0.029194213449954987,"300":0.03140195831656456,"301":-1.629970908164978,"302":-1.4033669233322144,"303":0.6105716824531555,"304":-0.13646434247493744,"305":2.1663525104522705,"306":-1.0960588455200195,"307":-1.4785329103469849,"308":0.9798508882522583,"309":0.7730122804641724,"310":-0.8480686545372009,"311":-1.2842731475830078,"312":-1.858566403388977,"313":-0.447782427072525,"314":1.2912310361862183,"315":-2.2817189693450928,"316":0.6258686780929565,"317":1.1984877586364746,"318":-1.3734971284866333,"319":-1.4246536493301392,"320":1.3007066249847412,"321":-2.0667269229888916,"322":-0.2055327594280243,"323":0.8082253336906433,"324":-0.11241503059864044,"325":-0.41442692279815674,"326":-1.3346238136291504,"327":-1.519783616065979,"328":-0.8938869833946228,"329":1.233184814453125,"330":-1.208112359046936,"331":-1.0514522790908813,"332":0.20624852180480957,"333":1.8253530263900757,"334":0.7363787889480591,"335":0.03038910962641239,"336":-2.1807057857513428,"337":1.1076306104660034,"338":-0.33963000774383545,"339":-0.3766368627548218,"340":-2.1192851066589355,"341":1.150386095046997,"342":0.6970289945602417,"343":-1.4130167961120605,"344":0.12718486785888672,"345":1.133520483970642,"346":1.153322458267212,"347":1.959041714668274,"348":0.5015460252761841,"349":-1.1682566404342651,"350":0.16212712228298187,"351":0.8761240839958191,"352":-0.11012949049472809,"353":-0.32564854621887207,"354":-0.8606595396995544,"355":-1.237472414970398,"356":-0.04540914669632912,"357":-0.717178463935852,"358":0.09903431683778763,"359":0.5378177762031555,"360":0.553083062171936,"361":-0.20930549502372742,"362":2.8419370651245117,"363":0.7608084082603455,"364":0.5178432464599609,"365":-0.24178855121135712,"366":-1.0601248741149902,"367":0.31162378191947937,"368":0.4265947937965393,"369":0.6907772421836853,"370":-0.2762486934661865,"371":-0.17598652839660645,"372":-1.6337515115737915,"373":0.7552120685577393,"374":0.6393064260482788,"375":-0.12383656203746796,"376":0.636864423751831,"377":0.7198269963264465,"378":-0.8476454615592957,"379":-0.14842422306537628,"380":-0.07836782187223434,"381":0.0581577904522419,"382":0.2467721402645111,"383":-0.5258157849311829,"384":0.08223118633031845,"385":-0.7686935067176819,"386":0.4736422896385193,"387":0.03906344994902611,"388":0.8149241209030151,"389":-0.5551148653030396,"390":0.43326231837272644,"391":0.34757930040359497,"392":0.08617569506168365,"393":0.6326719522476196,"394":-0.24688909947872162,"395":0.5446732044219971,"396":-0.12698662281036377,"397":-0.5166845917701721,"398":0.6657640337944031,"399":0.02079952321946621}},"inputBias":{"rows":20,"columns":1,"weights":{"0":-0.27574867010116577,"1":-1.725251317024231,"2":-1.5303857326507568,"3":-1.4840601682662964,"4":-0.2693297863006592,"5":-1.8152449131011963,"6":-1.1503955125808716,"7":-1.8592948913574219,"8":1.3875871896743774,"9":-1.581632137298584,"10":-0.5242882966995239,"11":-2.04862117767334,"12":-2.0756418704986572,"13":-1.1731281280517578,"14":-1.6119422912597656,"15":-2.134413242340088,"16":-1.5544158220291138,"17":-1.0764002799987793,"18":-1.3771052360534668,"19":-2.0089004039764404}},"forgetMatrix":{"rows":20,"columns":20,"weights":{"0":-0.3689035177230835,"1":0.03223612532019615,"2":0.7275365591049194,"3":0.7895812392234802,"4":-0.30003440380096436,"5":-0.8549584746360779,"6":-0.5567330121994019,"7":0.8273218274116516,"8":-0.18633396923542023,"9":0.49551141262054443,"10":0.4162216782569885,"11":1.3629249334335327,"12":1.0055798292160034,"13":-0.2704147398471832,"14":0.6171309351921082,"15":0.07516292482614517,"16":0.8024782538414001,"17":-0.0024626764934509993,"18":-0.7567086219787598,"19":0.6800221800804138,"20":0.37272894382476807,"21":0.11493095755577087,"22":0.18072430789470673,"23":0.37713688611984253,"24":0.5177867412567139,"25":-0.6850437521934509,"26":-0.21636764705181122,"27":-0.06242888793349266,"28":-0.42104071378707886,"29":-0.006108767352998257,"30":0.4927147626876831,"31":0.03718276694417,"32":-0.6783826947212219,"33":-2.706641674041748,"34":-0.6079765558242798,"35":0.5414369702339172,"36":-0.34986355900764465,"37":0.4454110264778137,"38":0.19301851093769073,"39":-4.14485502243042,"40":0.6732304692268372,"41":-0.5747193694114685,"42":-0.2411433905363083,"43":1.1162066459655762,"44":-0.7560667991638184,"45":-0.8658371567726135,"46":-0.22729068994522095,"47":0.3818831145763397,"48":1.0978502035140991,"49":-0.0872616171836853,"50":0.06132908910512924,"51":-0.6302607655525208,"52":-0.6700408458709717,"53":0.6921972036361694,"54":-0.5460222363471985,"55":0.3977530300617218,"56":-0.6047412753105164,"57":0.4766477942466736,"58":1.0874717235565186,"59":-0.8973093032836914,"60":0.305960088968277,"61":-0.7857905030250549,"62":-1.1735804080963135,"63":0.7345315217971802,"64":0.6370311379432678,"65":0.2589004933834076,"66":0.3249904215335846,"67":0.31076866388320923,"68":0.858305811882019,"69":0.7771832346916199,"70":-0.3493383228778839,"71":-0.7090624570846558,"72":-0.3993310332298279,"73":0.37001532316207886,"74":-0.6941291093826294,"75":0.7710809707641602,"76":-0.25223588943481445,"77":0.4005744159221649,"78":-0.24124795198440552,"79":0.1731051355600357,"80":-0.479947566986084,"81":0.18343952298164368,"82":0.6423855423927307,"83":1.8065186738967896,"84":-1.3294428586959839,"85":-1.0670626163482666,"86":0.29662683606147766,"87":-0.9492548704147339,"88":0.8267639875411987,"89":1.3408020734786987,"90":0.2944631576538086,"91":0.3779183626174927,"92":0.12867113947868347,"93":-0.36064741015434265,"94":-1.0769050121307373,"95":0.4293038547039032,"96":0.45150676369667053,"97":0.003915572538971901,"98":-0.06386708468198776,"99":-3.1603996753692627,"100":-0.016503166407346725,"101":1.368048906326294,"102":1.8520853519439697,"103":-0.5313683152198792,"104":-0.7673561573028564,"105":-1.0380659103393555,"106":0.5897836089134216,"107":-0.5480385422706604,"108":0.2870372533798218,"109":0.2773016393184662,"110":1.3909212350845337,"111":0.7176428437232971,"112":-0.3952648341655731,"113":1.2685308456420898,"114":-0.3236527442932129,"115":0.27047449350357056,"116":0.11066839098930359,"117":0.09652534127235413,"118":0.003507782705128193,"119":0.1956852823495865,"120":0.3259022533893585,"121":-0.550885021686554,"122":-0.781745970249176,"123":0.3975238502025604,"124":0.7191006541252136,"125":-0.06911328434944153,"126":0.009298272430896759,"127":0.3843461573123932,"128":0.27258172631263733,"129":0.5729542970657349,"130":0.07016820460557938,"131":-0.22034066915512085,"132":-0.36941292881965637,"133":0.4298742413520813,"134":-0.6312166452407837,"135":0.8385279774665833,"136":-0.3641677796840668,"137":0.3990480303764343,"138":-0.1886417269706726,"139":-0.11611250042915344,"140":-0.8451607823371887,"141":0.3423364460468292,"142":1.037180781364441,"143":-0.4102160632610321,"144":0.6511276364326477,"145":0.7011728882789612,"146":0.18754486739635468,"147":-0.38373345136642456,"148":-1.115973949432373,"149":0.014372679404914379,"150":0.7628057599067688,"151":0.9994404911994934,"152":0.9812783002853394,"153":-3.0901429653167725,"154":0.29207852482795715,"155":0.007334006018936634,"156":0.678215742111206,"157":-0.7016520500183105,"158":0.008048968389630318,"159":-3.2640256881713867,"160":-0.6638093590736389,"161":0.8652783036231995,"162":1.5495011806488037,"163":-0.20335887372493744,"164":-1.9236564636230469,"165":-1.5984861850738525,"166":-0.4290745258331299,"167":-0.0808057188987732,"168":-0.5073728561401367,"169":-0.4629640281200409,"170":1.029984951019287,"171":-0.05448434129357338,"172":1.2114918231964111,"173":-0.5371854305267334,"174":0.4993610680103302,"175":0.09075956046581268,"176":1.6341114044189453,"177":-1.4303004741668701,"178":0.0987943634390831,"179":0.8331424593925476,"180":-0.03869108110666275,"181":-0.385572224855423,"182":-1.063713550567627,"183":1.4976719617843628,"184":0.43965667486190796,"185":-0.032143618911504745,"186":0.11126045137643814,"187":0.4515463709831238,"188":0.5658910870552063,"189":0.5452860593795776,"190":-0.12798160314559937,"191":-0.3669041097164154,"192":-0.640683114528656,"193":0.27876031398773193,"194":-0.8669967651367188,"195":0.7826423645019531,"196":-0.27576562762260437,"197":0.030178682878613472,"198":-0.16144311428070068,"199":-0.9778844118118286,"200":0.6092657446861267,"201":-0.7363152503967285,"202":0.7431830167770386,"203":0.33262765407562256,"204":-0.5662909150123596,"205":0.4622223377227783,"206":0.9121943116188049,"207":-0.3039078414440155,"208":-0.9631626605987549,"209":0.5718402862548828,"210":-0.6081141233444214,"211":0.17232394218444824,"212":-0.15733331441879272,"213":-0.4769279956817627,"214":-0.20453783869743347,"215":0.8165604472160339,"216":-0.424038290977478,"217":0.8617821335792542,"218":0.3256351351737976,"219":0.4270020127296448,"220":-0.37213292717933655,"221":-0.2875264883041382,"222":0.7647819519042969,"223":0.005585891660302877,"224":-0.27482515573501587,"225":-0.3255077004432678,"226":-0.2960039973258972,"227":-0.44573870301246643,"228":-0.18334664404392242,"229":-0.0958479642868042,"230":0.38548046350479126,"231":0.5221800208091736,"232":-0.10946967452764511,"233":-0.10884632170200348,"234":-0.09266451001167297,"235":-0.10947235673666,"236":0.40588921308517456,"237":-0.38684001564979553,"238":-0.3945801556110382,"239":-0.15349476039409637,"240":0.3039288818836212,"241":-0.1396951824426651,"242":0.0027559467125684023,"243":0.16836655139923096,"244":0.7599786520004272,"245":-1.3897432088851929,"246":-0.673124372959137,"247":0.37766554951667786,"248":-0.03834120184183121,"249":-0.22141684591770172,"250":0.5671774744987488,"251":-0.8613561391830444,"252":-0.32587021589279175,"253":-0.7233235836029053,"254":0.02014448307454586,"255":0.19488851726055145,"256":-0.10938085615634918,"257":0.05600150302052498,"258":1.3308793306350708,"259":0.4528714716434479,"260":-0.45391833782196045,"261":0.20794570446014404,"262":1.1664388179779053,"263":-0.011777202598750591,"264":-0.8335644006729126,"265":-0.7704558968544006,"266":-0.04703141003847122,"267":0.03775225952267647,"268":-0.3199721872806549,"269":0.26420390605926514,"270":0.6274805665016174,"271":0.18670637905597687,"272":-0.3173116147518158,"273":-0.13165046274662018,"274":-0.29674986004829407,"275":-0.24596698582172394,"276":0.547248125076294,"277":-0.40952035784721375,"278":0.0416518896818161,"279":0.24576327204704285,"280":0.3851436674594879,"281":-0.5026102662086487,"282":-0.5174106955528259,"283":1.5469039678573608,"284":0.6028227806091309,"285":-0.284918874502182,"286":-0.25830841064453125,"287":-0.2631702721118927,"288":1.2556122541427612,"289":0.013285581022500992,"290":-0.2649086117744446,"291":-0.8987071514129639,"292":-0.6855365633964539,"293":0.43267613649368286,"294":-0.5975125432014465,"295":0.4852931797504425,"296":-0.31229403614997864,"297":0.2594932019710541,"298":-0.11604169756174088,"299":-1.8948923349380493,"300":0.20090414583683014,"301":1.6494097709655762,"302":2.1854488849639893,"303":-0.66653972864151,"304":-1.0950905084609985,"305":-1.5296152830123901,"306":0.38903680443763733,"307":-0.3602656424045563,"308":-0.5638238787651062,"309":0.2613944113254547,"310":1.8285274505615234,"311":1.1247851848602295,"312":-0.18718793988227844,"313":0.35311731696128845,"314":-0.18466736376285553,"315":0.5944696664810181,"316":0.041702888906002045,"317":0.30005311965942383,"318":0.45593205094337463,"319":0.6069505214691162,"320":-1.2055586576461792,"321":0.24474051594734192,"322":0.36580604314804077,"323":0.6508747339248657,"324":1.8154641389846802,"325":0.18282441794872284,"326":0.6188207268714905,"327":-1.3412246704101562,"328":-2.9869742393493652,"329":0.5403573513031006,"330":-0.24841727316379547,"331":0.7533764243125916,"332":0.1035541519522667,"333":-1.791622519493103,"334":-0.24111466109752655,"335":0.4868280589580536,"336":1.000450611114502,"337":-1.3057398796081543,"338":0.15153759717941284,"339":-1.4886562824249268,"340":0.629457950592041,"341":2.8069863319396973,"342":-1.8671791553497314,"343":3.3045248985290527,"344":1.0118324756622314,"345":0.007929897867143154,"346":0.22433902323246002,"347":2.0944714546203613,"348":-0.2423141747713089,"349":0.5708931088447571,"350":-0.036802902817726135,"351":2.908133029937744,"352":0.3560675084590912,"353":0.4593368172645569,"354":0.47764158248901367,"355":0.883693516254425,"356":-0.382553368806839,"357":0.7619299292564392,"358":-0.06928457319736481,"359":1.5957489013671875,"360":-2.7049806118011475,"361":2.941575527191162,"362":0.5154605507850647,"363":0.4473588466644287,"364":-0.32525742053985596,"365":-1.4272944927215576,"366":-3.17360520362854,"367":1.166837453842163,"368":-1.5828273296356201,"369":-0.471037358045578,"370":1.847814917564392,"371":1.5033892393112183,"372":1.061524510383606,"373":-3.5944747924804688,"374":1.9299124479293823,"375":-0.2164354771375656,"376":3.121251344680786,"377":-2.6246755123138428,"378":-1.0022189617156982,"379":-1.8676985502243042,"380":-0.20996595919132233,"381":0.3597722053527832,"382":0.18794316053390503,"383":1.0125434398651123,"384":-0.15293605625629425,"385":-0.3849650025367737,"386":-0.25588348507881165,"387":0.10729364305734634,"388":0.576514720916748,"389":-0.02776353806257248,"390":0.23292388021945953,"391":-0.30797895789146423,"392":-0.34429606795310974,"393":0.31331396102905273,"394":0.025783224031329155,"395":-0.024599075317382812,"396":0.13235469162464142,"397":-0.14132337272167206,"398":-0.2411482185125351,"399":-0.6079905033111572}},"forgetHidden":{"rows":20,"columns":20,"weights":{"0":-0.9477916955947876,"1":-1.0621232986450195,"2":-0.09779294580221176,"3":0.974108874797821,"4":-0.7624794840812683,"5":0.06953990459442139,"6":-0.6553881168365479,"7":0.06453964859247208,"8":1.699012041091919,"9":1.7351956367492676,"10":1.131544589996338,"11":0.008850929327309132,"12":-1.294262409210205,"13":-0.9669862985610962,"14":0.8197532892227173,"15":-0.12588568031787872,"16":-1.478310465812683,"17":0.743435800075531,"18":-0.07325472682714462,"19":0.025088271126151085,"20":1.9748401641845703,"21":0.15779860317707062,"22":0.06303277611732483,"23":-0.3640277087688446,"24":0.8160497546195984,"25":0.32633641362190247,"26":0.1255725622177124,"27":-1.6274049282073975,"28":-0.9597748517990112,"29":-0.3141823709011078,"30":-0.5505817532539368,"31":-0.9182732701301575,"32":-0.7767778635025024,"33":0.9581416845321655,"34":0.0511692613363266,"35":-0.3858333230018616,"36":-1.003396987915039,"37":0.14086636900901794,"38":-0.7123724818229675,"39":-0.20620116591453552,"40":0.17754468321800232,"41":-0.04932861030101776,"42":0.2325306087732315,"43":-0.30966535210609436,"44":-0.2850380539894104,"45":2.2399661540985107,"46":0.05000634863972664,"47":-1.6051987409591675,"48":-0.07354293018579483,"49":-0.32482871413230896,"50":-0.9258471727371216,"51":-0.48727941513061523,"52":0.0622599795460701,"53":0.5265635848045349,"54":-0.29640763998031616,"55":-2.0430238246917725,"56":1.5342086553573608,"57":0.0750289335846901,"58":-0.6414089202880859,"59":0.03261055052280426,"60":-0.5665408372879028,"61":0.2724737823009491,"62":0.5135090947151184,"63":-0.6648930311203003,"64":0.9884531497955322,"65":-0.5518712401390076,"66":0.4720686078071594,"67":0.5494071245193481,"68":-0.6085852384567261,"69":-0.6693825721740723,"70":0.14064286649227142,"71":0.6946597099304199,"72":0.3274625241756439,"73":1.1830891370773315,"74":-0.4307901859283447,"75":0.5735240578651428,"76":0.3222576379776001,"77":-0.44997286796569824,"78":0.47722339630126953,"79":0.25729241967201233,"80":0.8362834453582764,"81":-0.28815633058547974,"82":-0.8224254250526428,"83":0.4608604311943054,"84":-0.721531093120575,"85":-0.4859779477119446,"86":-0.5802614092826843,"87":-0.1026558056473732,"88":0.19145594537258148,"89":0.3644300103187561,"90":0.6220260262489319,"91":0.5659727454185486,"92":-0.011674398556351662,"93":-0.21714924275875092,"94":0.4449670910835266,"95":0.09514486789703369,"96":-1.7586411237716675,"97":0.5660674571990967,"98":0.9525889754295349,"99":-0.31066015362739563,"100":-1.215476393699646,"101":-1.284022331237793,"102":-1.8823286294937134,"103":0.9697081446647644,"104":-0.1586296558380127,"105":1.2572005987167358,"106":-1.2024768590927124,"107":-0.6494778394699097,"108":1.745652198791504,"109":0.9210605621337891,"110":0.4213794469833374,"111":-0.16197921335697174,"112":-2.1086058616638184,"113":-1.5052706003189087,"114":1.4721201658248901,"115":-1.666764497756958,"116":0.8478764891624451,"117":1.188023328781128,"118":-1.012494683265686,"119":-1.6055448055267334,"120":-0.8988006711006165,"121":-0.06357734650373459,"122":0.2977254092693329,"123":-0.665586531162262,"124":0.530949056148529,"125":-0.434765487909317,"126":0.3926049768924713,"127":0.3964255452156067,"128":-0.5431921482086182,"129":-0.5915031433105469,"130":-0.3560740649700165,"131":0.6002037525177002,"132":0.31108278036117554,"133":0.6456882953643799,"134":-0.35410046577453613,"135":0.5183925032615662,"136":0.3808056116104126,"137":-0.3693546652793884,"138":0.5239903330802917,"139":-0.03481056168675423,"140":0.8174731135368347,"141":-0.6837705969810486,"142":-1.0085021257400513,"143":0.8218261003494263,"144":0.7046849727630615,"145":-0.7576032280921936,"146":-1.1729941368103027,"147":-0.04607310891151428,"148":-0.14642015099525452,"149":1.2130881547927856,"150":0.8869170546531677,"151":-0.2558348774909973,"152":-1.0555751323699951,"153":1.0353666543960571,"154":1.306627631187439,"155":0.5592727065086365,"156":-3.0048987865448,"157":1.912389874458313,"158":0.5977059602737427,"159":-0.4076343774795532,"160":-1.727518081665039,"161":-0.7726673483848572,"162":-0.525955855846405,"163":0.4270090162754059,"164":-0.7895395159721375,"165":0.4154464900493622,"166":-0.5178871154785156,"167":-0.6618977785110474,"168":1.813856601715088,"169":0.8285570740699768,"170":1.020339846611023,"171":0.22310473024845123,"172":-0.3334653973579407,"173":-0.4745919108390808,"174":0.8173665404319763,"175":-0.7666259407997131,"176":0.2869446575641632,"177":0.40578848123550415,"178":-0.7423193454742432,"179":0.100019171833992,"180":0.18987534940242767,"181":0.3090681731700897,"182":0.5489144921302795,"183":-0.657300591468811,"184":0.6928499341011047,"185":-0.4162724018096924,"186":0.44893789291381836,"187":-0.27560555934906006,"188":-1.0224658250808716,"189":-0.8975909948348999,"190":-0.4775536060333252,"191":0.5834541320800781,"192":0.1839602142572403,"193":0.617594301700592,"194":-0.5892505049705505,"195":0.257215678691864,"196":0.052635904401540756,"197":-0.41143903136253357,"198":0.0502072274684906,"199":-0.06941362470388412,"200":-0.3591243028640747,"201":0.9385234713554382,"202":0.06695616245269775,"203":-1.3504284620285034,"204":0.9316191673278809,"205":-2.137531280517578,"206":1.082830548286438,"207":1.6956735849380493,"208":0.7371219396591187,"209":-1.032449722290039,"210":2.371483564376831,"211":1.1609245538711548,"212":0.2360289990901947,"213":-0.7504221796989441,"214":-0.3985663652420044,"215":1.5836066007614136,"216":-1.8559448719024658,"217":-1.1970430612564087,"218":1.8441481590270996,"219":0.8039979934692383,"220":0.19503045082092285,"221":-0.2117324024438858,"222":-0.10884120315313339,"223":0.9550656676292419,"224":-0.9124851822853088,"225":-0.6146833896636963,"226":-0.9964590072631836,"227":0.17976225912570953,"228":0.9057772159576416,"229":0.88840651512146,"230":0.2132623791694641,"231":0.1411709189414978,"232":-0.42915254831314087,"233":0.28591418266296387,"234":0.5248871445655823,"235":0.530941903591156,"236":0.29625895619392395,"237":0.9538663029670715,"238":0.7195820212364197,"239":-0.2397182434797287,"240":-0.9220386743545532,"241":-0.3828206956386566,"242":0.2812378704547882,"243":-0.1570766121149063,"244":0.28687429428100586,"245":1.6420122385025024,"246":-0.12843622267246246,"247":-0.12816034257411957,"248":0.8720954060554504,"249":-0.05405934154987335,"250":-1.2453029155731201,"251":-0.4500043988227844,"252":-0.5070890784263611,"253":-0.10803105682134628,"254":-0.1063995435833931,"255":-1.1236752271652222,"256":0.8033846020698547,"257":1.2742314338684082,"258":-0.8779943585395813,"259":-0.007574958726763725,"260":-0.8165414929389954,"261":-0.3542335033416748,"262":-0.9802042245864868,"263":0.58439040184021,"264":-0.593591570854187,"265":1.1145492792129517,"266":-0.7566466331481934,"267":0.3909114599227905,"268":0.4961381256580353,"269":0.691204845905304,"270":0.4485360085964203,"271":-0.29140976071357727,"272":-2.023688793182373,"273":-0.9533955454826355,"274":0.9751933813095093,"275":-1.1941263675689697,"276":0.27648311853408813,"277":0.852528989315033,"278":-0.14812599122524261,"279":-1.0568050146102905,"280":0.28378018736839294,"281":-0.008748571388423443,"282":0.470010370016098,"283":-0.2975388765335083,"284":-0.19379889965057373,"285":0.656968891620636,"286":-0.08581959456205368,"287":-0.2654268741607666,"288":-0.4926324784755707,"289":-0.15911929309368134,"290":-1.0947598218917847,"291":0.014356674626469612,"292":0.11060512065887451,"293":1.316037654876709,"294":-0.3094710409641266,"295":-0.37190505862236023,"296":0.6496310830116272,"297":0.14314597845077515,"298":0.062117576599121094,"299":0.22489704191684723,"300":-1.2725257873535156,"301":-1.3648674488067627,"302":-1.793107032775879,"303":0.8177359104156494,"304":-0.3501664996147156,"305":1.4565823078155518,"306":-1.0842393636703491,"307":-0.9976931214332581,"308":2.1150476932525635,"309":0.8949517011642456,"310":0.11099522560834885,"311":-0.19081591069698334,"312":-1.9673130512237549,"313":-0.892330527305603,"314":1.5532019138336182,"315":-1.6594051122665405,"316":0.6150412559509277,"317":1.024896264076233,"318":-1.0216572284698486,"319":-1.6358174085617065,"320":0.5769579410552979,"321":-2.243319272994995,"322":-0.03547243773937225,"323":0.8963844180107117,"324":1.1145981550216675,"325":-3.3976447582244873,"326":-1.6028999090194702,"327":-1.5616143941879272,"328":0.04677601903676987,"329":1.3934112787246704,"330":-0.5171147584915161,"331":-0.0473574623465538,"332":-0.2427515685558319,"333":2.0658395290374756,"334":1.1304211616516113,"335":2.732900857925415,"336":-1.9444465637207031,"337":1.2339434623718262,"338":1.1544970273971558,"339":-0.8095600605010986,"340":-1.1423784494400024,"341":2.893017530441284,"342":0.4274696707725525,"343":-0.8364784121513367,"344":2.4386281967163086,"345":1.3456974029541016,"346":0.5319864153862,"347":3.6856274604797363,"348":-0.05734025314450264,"349":-0.6958404779434204,"350":-0.035629887133836746,"351":0.5381496548652649,"352":-0.1573144644498825,"353":-0.20492014288902283,"354":-0.28156065940856934,"355":-1.5124616622924805,"356":0.6205563545227051,"357":-0.010243788361549377,"358":-0.14383353292942047,"359":0.02179022505879402,"360":-0.08001618087291718,"361":0.6222591996192932,"362":4.754676342010498,"363":0.8983835577964783,"364":0.6287495493888855,"365":-0.1480911672115326,"366":-0.9380586743354797,"367":1.7855201959609985,"368":1.3631608486175537,"369":0.957967221736908,"370":0.9244930148124695,"371":0.7691028118133545,"372":-0.46451032161712646,"373":0.5410882830619812,"374":0.7880513072013855,"375":-0.23140820860862732,"376":-1.5813177824020386,"377":2.843065023422241,"378":-0.30354374647140503,"379":-0.4830012321472168,"380":0.16567200422286987,"381":-0.49093422293663025,"382":-0.35919883847236633,"383":0.4633466601371765,"384":-0.2676624059677124,"385":-0.20147059857845306,"386":-0.4309312403202057,"387":0.005050376523286104,"388":0.4286110997200012,"389":0.32344767451286316,"390":-0.3797377049922943,"391":-0.22720855474472046,"392":-0.28980544209480286,"393":0.40518635511398315,"394":0.4821354150772095,"395":-0.06517895311117172,"396":0.3451162576675415,"397":0.37918996810913086,"398":0.019684571772813797,"399":-0.523122251033783}},"forgetBias":{"rows":20,"columns":1,"weights":{"0":0,"1":0,"2":0,"3":0,"4":0,"5":0,"6":0,"7":0,"8":0,"9":0,"10":0,"11":0,"12":0,"13":0,"14":0,"15":0,"16":0,"17":0,"18":0,"19":0}},"outputMatrix":{"rows":20,"columns":20,"weights":{"0":0.2184443324804306,"1":-0.3902533948421478,"2":0.7426884770393372,"3":-0.7065997123718262,"4":-1.0025116205215454,"5":-1.1501460075378418,"6":-0.8595918416976929,"7":0.3502218723297119,"8":0.9297136664390564,"9":0.5723690986633301,"10":0.5141193270683289,"11":1.021557331085205,"12":0.5796377062797546,"13":-1.121769905090332,"14":0.22853323817253113,"15":0.1320832073688507,"16":0.28382018208503723,"17":0.32680442929267883,"18":1.0212732553482056,"19":0.611463725566864,"20":0.4543035328388214,"21":-0.7517164349555969,"22":0.5494202971458435,"23":-1.737627387046814,"24":0.7195814251899719,"25":0.21584077179431915,"26":0.5425456762313843,"27":-2.086153030395508,"28":-0.17961008846759796,"29":0.25193673372268677,"30":-0.4771689474582672,