{"type":"LSTM","options":{"inputSize":3,"inputRange":3,"hiddenLayers":[20,20],"outputSize":3,"decayRate":0.999,"smoothEps":1e-8,"regc":0.000001,"clipval":5,"maxPredictionLength":9,"dataFormatter":{"values":["111------","---111---","------111","1--1--1--","-1--1--1-","--1--1--1","1---1---1","--1-1-1--"],"indexTable":{"1":0,"-":1,"unrecognized":2},"characterTable":{"0":"1","1":"-","2":null},"characters":["1","-","unrecognized"],"specialIndexes":[2]}},"input":{"rows":4,"columns":3,"weights":{"0":1.0140340328216553,"1":-0.40436890721321106,"2":-0.7884785532951355,"3":-0.11547263711690903,"4":0.3259529769420624,"5":-0.6531875133514404,"6":1.3981313705444336,"7":1.9230623245239258,"8":0.818171501159668,"9":-0.06419618427753448,"10":0.03148655965924263,"11":0.059047192335128784}},"hiddenLayers":[{"inputMatrix":{"rows":20,"columns":3,"weights":{"0":0.24447983503341675,"1":0.49373659491539,"2":0.2493501454591751,"3":-0.03325909748673439,"4":-0.39047306776046753,"5":-0.3014691472053528,"6":-1.767736554145813,"7":-1.397397518157959,"8":-1.130788803100586,"9":-2.1235873699188232,"10":-1.450311541557312,"11":-1.7386575937271118,"12":-0.4008450210094452,"13":-1.959296703338623,"14":-0.8933280110359192,"15":-2.0639336109161377,"16":0.41865870356559753,"17":-0.9407355189323425,"18":-2.1759555339813232,"19":-0.41856348514556885,"20":-0.34684231877326965,"21":-1.4469406604766846,"22":-0.022070927545428276,"23":-0.7992687225341797,"24":-1.6293772459030151,"25":-1.5430001020431519,"26":-2.4876067638397217,"27":-1.9508816003799438,"28":-1.096129298210144,"29":-1.2168108224868774,"30":-2.0163216590881348,"31":0.3233244717121124,"32":-0.9920210838317871,"33":0.5311253070831299,"34":0.012235069647431374,"35":1.1879359483718872,"36":1.3170802593231201,"37":-0.2754867374897003,"38":-0.021715983748435974,"39":0.10357549786567688,"40":0.910393476486206,"41":0.495787650346756,"42":-1.3750452995300293,"43":-1.6932177543640137,"44":-0.7727903723716736,"45":-1.3299362659454346,"46":-0.46880415081977844,"47":-2.177061080932617,"48":-1.7152031660079956,"49":-1.8573559522628784,"50":-1.0824216604232788,"51":-0.3262554407119751,"52":-0.43499353528022766,"53":0.0337255522608757,"54":-1.8902744054794312,"55":-0.7268456816673279,"56":-1.8985642194747925,"57":-2.050288438796997,"58":-0.7497134804725647,"59":-1.4044837951660156}},"inputHidden":{"rows":20,"columns":20,"weights":{"0":3.6788828372955322,"1":2.740555763244629,"2":-2.934436082839966,"3":1.5392334461212158,"4":3.297489643096924,"5":-2.236056089401245,"6":-0.2063637524843216,"7":-1.2972452640533447,"8":-2.187779426574707,"9":-0.5892844796180725,"10":0.7070237398147583,"11":0.9090481996536255,"12":-0.12492981553077698,"13":-0.005874721799045801,"14":3.125772714614868,"15":0.2672708332538605,"16":-3.4892284870147705,"17":0.28994104266166687,"18":-1.301604986190796,"19":-2.3057479858398438,"20":-3.123622417449951,"21":-2.402230978012085,"22":1.8726180791854858,"23":-1.3137980699539185,"24":-0.6386734843254089,"25":-1.1724300384521484,"26":1.371333360671997,"27":-1.4700759649276733,"28":2.1032795906066895,"29":0.7976414561271667,"30":2.215695381164551,"31":-0.43561244010925293,"32":-2.126149892807007,"33":-0.7022203803062439,"34":-0.6603428721427917,"35":-0.269635409116745,"36":0.4344184696674347,"37":1.2853039503097534,"38":0.5747721195220947,"39":0.7463763356208801,"40":1.1441885232925415,"41":1.4841643571853638,"42":1.958136796951294,"43":-1.6127688884735107,"44":0.6962575912475586,"45":2.2998428344726562,"46":-0.03583883121609688,"47":0.2918178141117096,"48":1.2545486688613892,"49":-0.19094759225845337,"50":-1.1068711280822754,"51":0.43561410903930664,"52":0.5054050087928772,"53":-1.1474038362503052,"54":-0.1514682173728943,"55":1.8163763284683228,"56":1.035378336906433,"57":-0.7202004194259644,"58":2.326848030090332,"59":1.42128324508667,"60":0.8668175935745239,"61":0.1388135552406311,"62":-0.1792108416557312,"63":-0.26435014605522156,"64":-0.06568511575460434,"65":2.5838260650634766,"66":-0.7672477960586548,"67":-0.5746093988418579,"68":0.5118827223777771,"69":-0.6196208000183105,"70":-1.4640613794326782,"71":-0.23208250105381012,"72":0.5565745234489441,"73":-0.33981093764305115,"74":-0.10592801868915558,"75":1.7584089040756226,"76":-0.29191866517066956,"77":-1.0769675970077515,"78":0.8758054375648499,"79":0.025451084598898888,"80":-0.527456521987915,"81":0.26856765151023865,"82":1.8423296213150024,"83":-2.250474452972412,"84":-0.41069379448890686,"85":-0.7550966739654541,"86":0.7207117676734924,"87":-0.1912231296300888,"88":0.9146108031272888,"89":0.4678148329257965,"90":0.9178048968315125,"91":-2.5753631591796875,"92":-1.2064037322998047,"93":1.4029874801635742,"94":-1.0753358602523804,"95":0.4195955991744995,"96":1.07201087474823,"97":0.04602940380573273,"98":2.940800666809082,"99":2.035384178161621,"100":0.8389531970024109,"101":0.02854655310511589,"102":0.8101323843002319,"103":-0.5694822669029236,"104":-0.8528751730918884,"105":0.8602997064590454,"106":-0.6852867603302002,"107":0.42219868302345276,"108":0.998489260673523,"109":-0.15405866503715515,"110":0.05031190812587738,"111":2.936255931854248,"112":0.6359629034996033,"113":-1.5365369319915771,"114":-1.0042297840118408,"115":-0.40130558609962463,"116":0.24350222945213318,"117":-0.5879644751548767,"118":0.3326519727706909,"119":1.03281831741333,"120":0.17874763906002045,"121":-1.734670639038086,"122":-0.3238833248615265,"123":0.036686815321445465,"124":-0.07280881702899933,"125":0.3693922758102417,"126":-0.42422157526016235,"127":0.051242340356111526,"128":-0.32119712233543396,"129":-0.15838514268398285,"130":0.3726480305194855,"131":0.42734190821647644,"132":-0.07074008882045746,"133":0.208027645945549,"134":0.15315859019756317,"135":-0.7252132892608643,"136":-0.7703547477722168,"137":-0.36125487089157104,"138":-0.7824274897575378,"139":-0.6434087753295898,"140":0.6080198884010315,"141":0.01419252622872591,"142":0.11325383931398392,"143":-0.6685642004013062,"144":1.79936683177948,"145":-3.667346715927124,"146":1.6877319812774658,"147":-1.7195502519607544,"148":-4.121870517730713,"149":1.469339370727539,"150":1.4668008089065552,"151":0.5416961908340454,"152":1.3484429121017456,"153":-1.3055187463760376,"154":1.5193705558776855,"155":-0.06697780638933182,"156":-0.9926013350486755,"157":1.8839523792266846,"158":-0.521047055721283,"159":0.2596759796142578,"160":-1.3026000261306763,"161":1.1397218704223633,"162":1.2321008443832397,"163":-1.5627532005310059,"164":-0.5353070497512817,"165":0.8722044825553894,"166":0.4475902318954468,"167":-0.42530083656311035,"168":1.0785924196243286,"169":0.5061520934104919,"170":0.03802988678216934,"171":-1.2135374546051025,"172":0.6393216848373413,"173":-0.3196731209754944,"174":-0.9185659289360046,"175":1.9636404514312744,"176":1.0682182312011719,"177":-0.5208700299263,"178":1.2720986604690552,"179":1.3899264335632324,"180":0.3748282194137573,"181":-1.170158863067627,"182":-0.8573890924453735,"183":0.6656001806259155,"184":0.7659122943878174,"185":0.09259971976280212,"186":0.2624887228012085,"187":0.24936872720718384,"188":-0.2941264808177948,"189":0.11813117563724518,"190":0.8649843335151672,"191":-0.7371020317077637,"192":-0.6001920104026794,"193":0.7656715512275696,"194":0.5003851056098938,"195":-0.008742492645978928,"196":-0.8986047506332397,"197":0.14618729054927826,"198":-1.0206362009048462,"199":-0.8575234413146973,"200":1.462217092514038,"201":-0.772043764591217,"202":-0.03871060162782669,"203":0.25221115350723267,"204":-1.2716370820999146,"205":0.38092947006225586,"206":-0.9053462147712708,"207":0.9017466306686401,"208":1.0529016256332397,"209":0.4437571167945862,"210":0.49675896763801575,"211":1.1277881860733032,"212":0.5119569897651672,"213":-2.2256009578704834,"214":-0.694917619228363,"215":0.9030721783638,"216":0.24389825761318207,"217":0.6452869176864624,"218":-0.02337009087204933,"219":-0.35631197690963745,"220":0.0896584540605545,"221":1.9894286394119263,"222":-0.16183160245418549,"223":0.2756831645965576,"224":2.2260637283325195,"225":0.22680902481079102,"226":-1.0866985321044922,"227":0.09111955761909485,"228":-0.8807429075241089,"229":-2.099363088607788,"230":-0.43462252616882324,"231":-1.6556239128112793,"232":-1.2372100353240967,"233":-0.9043716788291931,"234":0.956123411655426,"235":0.5307297706604004,"236":-0.8346148729324341,"237":-1.1109451055526733,"238":-0.837212324142456,"239":-0.7033548355102539,"240":-0.9175736904144287,"241":1.0995104312896729,"242":0.9089105725288391,"243":-0.16927599906921387,"244":-0.1468399614095688,"245":-1.6953620910644531,"246":0.7323781251907349,"247":0.7439135909080505,"248":0.9238441586494446,"249":0.2213168442249298,"250":2.7052741050720215,"251":-1.4521371126174927,"252":-0.9222332835197449,"253":-0.673878014087677,"254":-0.005560253746807575,"255":-2.8214151859283447,"256":-0.058918315917253494,"257":0.3143511414527893,"258":-0.321198046207428,"259":-0.07087276875972748,"260":0.9485652446746826,"261":1.7950210571289062,"262":-0.15233352780342102,"263":0.2368762046098709,"264":-0.03428380936384201,"265":-0.4026462137699127,"266":0.10593793541193008,"267":0.012686732225120068,"268":-0.314413458108902,"269":1.1337428092956543,"270":3.4869916439056396,"271":2.094482183456421,"272":1.0825097560882568,"273":0.4600103795528412,"274":0.25495097041130066,"275":-1.3991777896881104,"276":-0.605277419090271,"277":0.003159260144457221,"278":-1.478824257850647,"279":-0.3681071102619171,"280":-0.6940144896507263,"281":0.40993940830230713,"282":1.9747917652130127,"283":-2.1093549728393555,"284":0.11843179166316986,"285":0.9674505591392517,"286":0.2219439148902893,"287":-0.417533278465271,"288":0.1660662591457367,"289":0.32528236508369446,"290":-0.20478381216526031,"291":-1.5591709613800049,"292":-0.46869945526123047,"293":1.099897861480713,"294":-1.160207986831665,"295":1.0507290363311768,"296":1.1135064363479614,"297":-0.4683595895767212,"298":2.0886659622192383,"299":1.8806416988372803,"300":1.5069785118103027,"301":0.15947218239307404,"302":-0.9032766819000244,"303":0.6379336714744568,"304":-1.1880508661270142,"305":-1.0092705488204956,"306":-0.08020314574241638,"307":1.0596355199813843,"308":0.5934925675392151,"309":0.9700726270675659,"310":0.085000179708004,"311":0.5369336009025574,"312":0.08911122381687164,"313":-2.238217830657959,"314":-0.4323977530002594,"315":-0.9348098635673523,"316":0.41111910343170166,"317":0.25458744168281555,"318":-0.4765942692756653,"319":-0.09461618959903717,"320":2.6826798915863037,"321":0.46590951085090637,"322":2.4325029850006104,"323":-2.4811594486236572,"324":-0.28158849477767944,"325":1.1372662782669067,"326":0.22009001672267914,"327":0.5266165137290955,"328":1.793204426765442,"329":0.10756752640008926,"330":0.03820080682635307,"331":-0.5568150877952576,"332":-1.0259648561477661,"333":-0.1588263213634491,"334":-1.1696341037750244,"335":0.8941597938537598,"336":0.6292970776557922,"337":-0.6791871190071106,"338":1.4978805780410767,"339":2.183293342590332,"340":-1.8397912979125977,"341":-1.7737370729446411,"342":0.5494818091392517,"343":-0.4991835653781891,"344":-0.6228199005126953,"345":-1.3307527303695679,"346":0.4887254238128662,"347":-1.2095897197723389,"348":1.168492078781128,"349":0.8899556994438171,"350":2.494065761566162,"351":0.716029703617096,"352":0.045650217682123184,"353":-0.20978984236717224,"354":-0.7179127335548401,"355":-0.1433466076850891,"356":0.07398548722267151,"357":2.0534098148345947,"358":0.24537788331508636,"359":0.28445306420326233,"360":3.6891896724700928,"361":0.9611882567405701,"362":1.5756624937057495,"363":-1.7290350198745728,"364":-0.8952340483665466,"365":2.6942601203918457,"366":-0.6267316341400146,"367":-0.8963642716407776,"368":2.442599058151245,"369":-0.3266177177429199,"370":-1.3704496622085571,"371":1.2911078929901123,"372":-0.4005263149738312,"373":-0.17140540480613708,"374":-0.9410224556922913,"375":1.1152302026748657,"376":0.5368990898132324,"377":-0.7836544513702393,"378":2.418057441711426,"379":1.7651551961898804,"380":0.28369662165641785,"381":0.005104856099933386,"382":-0.024292726069688797,"383":-0.3729882538318634,"384":0.08221744745969772,"385":2.541916847229004,"386":-0.7020314335823059,"387":-0.6344072818756104,"388":0.5877875089645386,"389":-0.5468676686286926,"390":-1.4393961429595947,"391":-0.7278710007667542,"392":1.5940053462982178,"393":-0.0343603789806366,"394":-0.41824138164520264,"395":1.799170732498169,"396":-0.47085776925086975,"397":-0.961979866027832,"398":1.029468059539795,"399":0.3711640536785126}},"inputBias":{"rows":20,"columns":1,"weights":{"0":-1.8785263299942017,"1":0.1606728732585907,"2":-1.3485113382339478,"3":-1.6274398565292358,"4":0.7271240949630737,"5":-1.071324348449707,"6":0.2595878839492798,"7":-1.053241491317749,"8":0.7825751900672913,"9":0.65037602186203,"10":-1.1377711296081543,"11":0.059547487646341324,"12":1.8146517276763916,"13":0.04305514693260193,"14":-0.37257736921310425,"15":-1.4452159404754639,"16":-0.28514179587364197,"17":-1.6487174034118652,"18":-1.25126051902771,"19":-1.3776994943618774}},"forgetMatrix":{"rows":20,"columns":3,"weights":{"0":0.7082022428512573,"1":0.9598847031593323,"2":1.1581395864486694,"3":1.7544664144515991,"4":1.5509592294692993,"5":1.6083252429962158,"6":1.2531429529190063,"7":0.8232740163803101,"8":1.128602385520935,"9":0.9018699526786804,"10":0.3115638792514801,"11":0.3271787464618683,"12":0.8174768090248108,"13":0.24138598144054413,"14":0.5498735308647156,"15":1.2558133602142334,"16":-0.14366883039474487,"17":0.8172242641448975,"18":0.5567992329597473,"19":0.10376386344432831,"20":0.2876187860965729,"21":1.0109915733337402,"22":0.844068706035614,"23":0.4917045831680298,"24":1.5854123830795288,"25":1.1675406694412231,"26":1.9746801853179932,"27":0.15031717717647552,"28":0.47490984201431274,"29":0.8616020083427429,"30":1.3949538469314575,"31":0.6163581609725952,"32":1.3958662748336792,"33":1.73147714138031,"34":-0.09856010973453522,"35":0.8235021233558655,"36":-1.271500587463379,"37":-0.6827223300933838,"38":-1.2772841453552246,"39":1.2504717111587524,"40":0.22309213876724243,"41":1.4746836423873901,"42":0.5866167545318604,"43":0.4868418574333191,"44":0.3673987090587616,"45":-0.7914162874221802,"46":-0.7363502383232117,"47":-0.6687499284744263,"48":1.209077000617981,"49":0.215544193983078,"50":1.1754913330078125,"51":0.6071718335151672,"52":0.7796763181686401,"53":1.1942098140716553,"54":-0.23703177273273468,"55":-0.5469151139259338,"56":-1.2862467765808105,"57":-0.40024715662002563,"58":-1.0897927284240723,"59":0.7078872919082642}},"forgetHidden":{"rows":20,"columns":20,"weights":{"0":1.7805120944976807,"1":-0.04632191359996796,"2":-0.3393155634403229,"3":0.2674538195133209,"4":0.23974530398845673,"5":-0.5071733593940735,"6":1.0161521434783936,"7":-0.3191187083721161,"8":-0.27417439222335815,"9":0.9068800210952759,"10":-0.16351225972175598,"11":1.5602850914001465,"12":0.5073027014732361,"13":-0.09100237488746643,"14":0.2492123246192932,"15":0.333579957485199,"16":-0.3116452693939209,"17":0.6653836369514465,"18":0.29695847630500793,"19":-0.4359542727470398,"20":0.11015071719884872,"21":0.6482495069503784,"22":-1.5686103105545044,"23":1.494030237197876,"24":0.6025027632713318,"25":0.873823344707489,"26":-3.0514118671417236,"27":0.6972479224205017,"28":-1.5409010648727417,"29":-2.64235258102417,"30":-1.9432545900344849,"31":0.3723493814468384,"32":-0.15205195546150208,"33":-0.19704672694206238,"34":0.5804743766784668,"35":0.24398677051067352,"36":-1.3068821430206299,"37":-2.6434779167175293,"38":-1.2417949438095093,"39":-0.9709425568580627,"40":0.04673536494374275,"41":1.0777562856674194,"42":-0.3522792458534241,"43":0.6096370816230774,"44":1.1387383937835693,"45":0.8683615326881409,"46":-0.5039512515068054,"47":0.5504367351531982,"48":-1.5208022594451904,"49":-0.47454193234443665,"50":-0.552214503288269,"51":-0.15643902122974396,"52":-0.6057553291320801,"53":-1.7389445304870605,"54":1.0257623195648193,"55":-0.21796239912509918,"56":-0.17372319102287292,"57":0.12670916318893433,"58":-0.3729842007160187,"59":-0.8784859776496887,"60":0.14638783037662506,"61":0.3931097686290741,"62":0.24574922025203705,"63":-0.07860499620437622,"64":0.226852685213089,"65":0.7612881064414978,"66":-0.9246614575386047,"67":0.7603067755699158,"68":-0.43901902437210083,"69":-0.5105206370353699,"70":-0.5501561164855957,"71":0.10961572080850601,"72":-0.8051971793174744,"73":-0.9948940873146057,"74":0.22981515526771545,"75":-0.24065791070461273,"76":0.22061128914356232,"77":0.08292551338672638,"78":0.24686741828918457,"79":0.21947212517261505,"80":-0.1795773208141327,"81":0.7383126020431519,"82":-0.7487157583236694,"83":1.2544809579849243,"84":-0.2791256904602051,"85":0.7656476497650146,"86":-0.9352201819419861,"87":0.5467036962509155,"88":-0.4148992896080017,"89":0.33198076486587524,"90":-1.002842664718628,"91":0.2636074125766754,"92":0.9300867915153503,"93":-1.1664488315582275,"94":-0.01925228349864483,"95":0.10222272574901581,"96":-0.25275513529777527,"97":0.3430648744106293,"98":-0.3463769853115082,"99":-0.8081496357917786,"100":-0.08667026460170746,"101":-0.21207353472709656,"102":-0.5707796216011047,"103":0.30825522541999817,"104":-0.7578421235084534,"105":0.565535306930542,"106":-0.8293102979660034,"107":-1.1380178928375244,"108":0.6381061673164368,"109":-0.641661524772644,"110":-1.3729408979415894,"111":-1.4443997144699097,"112":-1.0627336502075195,"113":-0.6099659204483032,"114":-0.3289613425731659,"115":1.6950325965881348,"116":-0.6801117062568665,"117":-0.3182794749736786,"118":0.2577610909938812,"119":-0.1781429648399353,"120":-1.1353285312652588,"121":-0.22561015188694,"122":0.845384418964386,"123":0.16807641088962555,"124":-0.031093573197722435,"125":-0.05387985333800316,"126":0.09904715418815613,"127":0.6039858460426331,"128":-0.5725581645965576,"129":-0.26415541768074036,"130":-0.47366413474082947,"131":-2.713773012161255,"132":0.0419728048145771,"133":0.02495669759809971,"134":0.44160372018814087,"135":-0.857013463973999,"136":-0.034068673849105835,"137":-0.5936533212661743,"138":-0.7648990750312805,"139":-0.9261391758918762,"140":0.8681210279464722,"141":0.5710740089416504,"142":0.4470432698726654,"143":-0.3742687702178955,"144":0.18580210208892822,"145":-0.2682971954345703,"146":0.24859680235385895,"147":0.43437135219573975,"148":-0.35551193356513977,"149":0.1996789574623108,"150":0.025085318833589554,"151":1.3758859634399414,"152":1.081135869026184,"153":-1.2291457653045654,"154":0.3031081259250641,"155":0.1395278126001358,"156":0.0020579162519425154,"157":0.20106656849384308,"158":0.10600793361663818,"159":0.22583818435668945,"160":1.0731608867645264,"161":0.23650313913822174,"162":-1.710691213607788,"163":1.6066211462020874,"164":1.0205061435699463,"165":-1.1231763362884521,"166":-0.6319037675857544,"167":-0.6000258922576904,"168":-1.3987517356872559,"169":-0.1027926430106163,"170":1.0445215702056885,"171":0.4153881371021271,"172":-0.5840494632720947,"173":-0.59239661693573,"174":0.9265190362930298,"175":-0.376708060503006,"176":-1.5511974096298218,"177":-0.2371605932712555,"178":-1.1331231594085693,"179":-1.324390172958374,"180":-0.5982210040092468,"181":-0.8187522888183594,"182":0.13576921820640564,"183":0.021351637318730354,"184":0.11836410313844681,"185":-0.0921066552400589,"186":-0.43332475423812866,"187":-0.03821973502635956,"188":0.3839851915836334,"189":-0.5537605285644531,"190":0.23908089101314545,"191":0.03447491303086281,"192":-0.26854434609413147,"193":1.1699895858764648,"194":0.24984996020793915,"195":-2.015388250350952,"196":-0.45247218012809753,"197":-0.3489695191383362,"198":-0.9266135096549988,"199":-0.2598646581172943,"200":0.08619805425405502,"201":-0.22503116726875305,"202":0.528704047203064,"203":-0.40187954902648926,"204":0.13910040259361267,"205":0.46628519892692566,"206":0.10684596747159958,"207":-1.2089239358901978,"208":-0.811277449131012,"209":-0.2994452714920044,"210":-1.0013147592544556,"211":-0.04079168662428856,"212":-0.3645514249801636,"213":0.17084315419197083,"214":0.38442906737327576,"215":0.3866206109523773,"216":0.23678693175315857,"217":0.34946656227111816,"218":0.45524412393569946,"219":0.2623315751552582,"220":-0.7122431993484497,"221":0.9529421925544739,"222":0.2784885764122009,"223":-0.2534507215023041,"224":-0.0728224664926529,"225":-0.5936112999916077,"226":-0.25661131739616394,"227":0.10614083707332611,"228":0.29111117124557495,"229":-0.09515173733234406,"230":0.81605464220047,"231":-0.9648403525352478,"232":-0.4904269576072693,"233":-0.7565820813179016,"234":-0.02690771222114563,"235":0.6355817914009094,"236":0.32098954916000366,"237":-0.7382693886756897,"238":0.036091819405555725,"239":0.46253353357315063,"240":-0.31905603408813477,"241":-1.1567896604537964,"242":0.10231224447488785,"243":-0.2586923837661743,"244":-0.21280135214328766,"245":0.29395419359207153,"246":-0.7779560685157776,"247":0.33794093132019043,"248":-0.1656416356563568,"249":-0.633411705493927,"250":0.25510039925575256,"251":-0.854047954082489,"252":-0.2064206749200821,"253":0.29746460914611816,"254":-0.2190156877040863,"255":-0.4217277467250824,"256":0.13451269268989563,"257":0.24586880207061768,"258":0.3558529019355774,"259":0.5957835912704468,"260":0.9172909259796143,"261":0.2846561372280121,"262":-0.8319717645645142,"263":0.034961916506290436,"264":-1.1555055379867554,"265":1.1289379596710205,"266":0.18536534905433655,"267":-0.01716024987399578,"268":2.540738821029663,"269":0.35837697982788086,"270":-1.610624074935913,"271":0.425341933965683,"272":1.3381153345108032,"273":0.8437002301216125,"274":-1.111842155456543,"275":0.35098937153816223,"276":0.8927793502807617,"277":0.709174394607544,"278":0.8517531752586365,"279":-0.37389782071113586,"280":-0.02185336872935295,"281":0.6683835983276367,"282":-0.9858303070068359,"283":1.1343413591384888,"284":-0.3306677043437958,"285":0.7914633750915527,"286":-0.8445241451263428,"287":0.6583346724510193,"288":-0.6087866425514221,"289":0.13136999309062958,"290":-1.1454837322235107,"291":-0.12836334109306335,"292":0.9911704063415527,"293":-1.6979681253433228,"294":0.7754133939743042,"295":-0.45521917939186096,"296":-0.7506158351898193,"297":0.4323701858520508,"298":-0.6055304408073425,"299":-0.9657915830612183,"300":-0.3243938684463501,"301":-0.040755219757556915,"302":-0.05587640777230263,"303":-0.008648354560136795,"304":1.215232491493225,"305":-0.4184134006500244,"306":0.012256618589162827,"307":0.4932757318019867,"308":-1.135731816291809,"309":-0.07347666472196579,"310":0.2996072769165039,"311":-0.33923646807670593,"312":-0.2573632597923279,"313":-0.8772216439247131,"314":0.529236912727356,"315":-0.3641047775745392,"316":-0.6469190716743469,"317":0.03435039892792702,"318":0.2376430332660675,"319":-0.22700567543506622,"320":0.3284582793712616,"321":1.7462903261184692,"322":-0.8230047225952148,"323":0.8829748034477234,"324":0.8151541948318481,"325":0.5968316793441772,"326":-1.0222772359848022,"327":0.8470964431762695,"328":-0.987975537776947,"329":-0.7482426166534424,"330":-0.6884203553199768,"331":0.36279296875,"332":0.06878067553043365,"333":-1.5049221515655518,"334":0.9052225947380066,"335":-0.6492729783058167,"336":-0.5469563007354736,"337":0.4176882803440094,"338":-0.6696778535842896,"339":-1.098975419998169,"340":-1.4733480215072632,"341":0.7058432102203369,"342":0.2797755300998688,"343":-0.3298393785953522,"344":-0.10146667063236237,"345":0.7837522029876709,"346":-1.971132755279541,"347":0.009916450828313828,"348":0.2510583698749542,"349":-1.61886465549469,"350":-0.8237040042877197,"351":-0.8590198755264282,"352":-1.372847318649292,"353":0.22965233027935028,"354":-0.3409934639930725,"355":0.5884780883789062,"356":0.2764591574668884,"357":-1.39911949634552,"358":0.36657023429870605,"359":0.39980772137641907,"360":1.8906949758529663,"361":3.05702543258667,"362":-0.5760515332221985,"363":1.3959693908691406,"364":1.3661729097366333,"365":-0.37932610511779785,"366":-0.6704050898551941,"367":1.3627322912216187,"368":1.671535611152649,"369":-0.12051266431808472,"370":0.005157224368304014,"371":1.2663005590438843,"372":0.27579420804977417,"373":-1.2233673334121704,"374":1.3628334999084473,"375":-2.140578508377075,"376":-1.717204213142395,"377":0.23035559058189392,"378":0.06703047454357147,"379":-1.666509747505188,"380":0.12133418023586273,"381":-0.5435953736305237,"382":-0.14735537767410278,"383":0.21064311265945435,"384":-0.04313868284225464,"385":-0.5522398352622986,"386":-0.5925734639167786,"387":0.24259579181671143,"388":0.4859310984611511,"389":-0.43899962306022644,"390":-0.03505133092403412,"391":-0.6155555844306946,"392":-0.9785875678062439,"393":0.6186246871948242,"394":0.07079090923070908,"395":-0.9304751753807068,"396":-0.1663454920053482,"397":0.34924882650375366,"398":-0.22591528296470642,"399":0.06369943171739578}},"forgetBias":{"rows":20,"columns":1,"weights":{"0":0,"1":0,"2":0,"3":0,"4":0,"5":0,"6":0,"7":0,"8":0,"9":0,"10":0,"11":0,"12":0,"13":0,"14":0,"15":0,"16":0,"17":0,"18":0,"19":0}},"outputMatrix":{"rows":20,"columns":3,"weights":{"0":0.111697256565094,"1":0.5250493884086609,"2":0.4694346487522125,"3":1.1416817903518677,"4":1.1118942499160767,"5":2.0297858715057373,"6":-0.021147815510630608,"7":1.478515625,"8":1.5453561544418335,"9":-1.6815924644470215,"10":-0.6425763368606567,"11":-0.5478003025054932,"12":-0.04249292612075806,"13":-1.0806095600128174,"14":-0.5264089703559875,"15":-1.7336887121200562,"16":0.3788069486618042,"17":-0.44205233454704285,"18":-2.029921054840088,"19":-0.023862065747380257,"20":0.5520021319389343,"21":-0.9350907206535339,"22":-0.042092833667993546,"23":-0.9079626202583313,"24":1.617343783378601,"25":1.026516079902649,"26":0.8359741568565369,"27":-0.8949363827705383,"28":-0.07310659438371658,"29":-0.04815362021327019,"30":-1.742350459098816,"31":0.7472845911979675,"32":-0.6760485768318176,"33":1.657294750213623,"34":0.0843668133020401,"35":1.1356724500656128,"36":1.0724705457687378,"37":-0.7048629522323608,"38":-0.4784480333328247,"39":0.047711193561553955,"40":0.7398455142974854,"41":-0.01904505491256714,"42":-1.0244420766830444,"43":-0.49655881524086,"44":-0.05070820823311806,"45":-1.075364351272583,"46":-0.3008350133895874,"47":-1.8926212787628174,"48":-0.34496405720710754,"49":0.24726317822933197,"50":0.4156459867954254,"51":0.1647488921880722,"52":-0.3824388384819031,"53":0.08134404569864273,"54":-1.3206262588500977,"55":0.41819414496421814,"56":-1.3725812435150146,"57":-1.8146896362304688,"58":-0.7447443008422852,"59":-1.1442813873291016}},"outputHidden":{"rows":20,"columns":20,"weights":{"0":2.677802085876465,"1":2.882255792617798,"2":-2.3400299549102783,"3":1.3693968057632446,"4":2.9394257068634033,"5":-2.4980545043945312,"6":-0.7720866799354553,"7":0.5533833503723145,"8":-1.1612857580184937,"9":-0.8108546733856201,"10":2.0750861167907715,"11":1.5687073469161987,"12":0.284650981426239,"13":-0.46185243129730225,"14":2.942617893218994,"15":-2.0996625423431396,"16":-3.547886848449707,"17":0.16307610273361206,"18":-2.460584878921509,"19":-2.023536205291748,"20":-1.7934398651123047,"21":0.15683114528656006,"22":0.7966603636741638,"23":-1.1430182456970215,"24":0.7513577938079834,"25":-0.2339690625667572,"26":0.3949927091598511,"27":-0.014941366389393806,"28":-1.0827980041503906,"29":-0.16502554714679718,"30":-0.008715060539543629,"31":0.27913036942481995,"32":-1.2891039848327637,"33":-0.24372711777687073,"34":-0.023218855261802673,"35":0.5042447447776794,"36":0.11514022946357727,"37":-0.38236236572265625,"38":0.9144258499145508,"39":1.367532730102539,"40":-0.2371218353509903,"41":2.175715446472168,"42":0.825308620929718,"43":-0.5348231792449951,"44":1.9805777072906494,"45":2.1596736907958984,"46":-0.6833944320678711,"47":0.34977129101753235,"48":0.5686644911766052,"49":-1.356734275817871,"50":-3.145529270172119,"51":0.24058419466018677,"52":-0.22347921133041382,"53":-2.2047064304351807,"54":0.8918163776397705,"55":1.9072859287261963,"56":-0.8374231457710266,"57":-1.8819266557693481,"58":0.06800106167793274,"59":0.2880871295928955,"60":0.4656333327293396,"61":0.649929940700531,"62":-0.5502672791481018,"63":-0.10928956419229507,"64":0.3178541660308838,"65":1.5405670404434204,"66":-1.0468785762786865,"67":0.5512086749076843,"68":0.25623923540115356,"69":-1.3333261013031006,"70":-2.7225341796875,"71":-0.37492743134498596,"72":-0.08076880872249603,"73":-1.2341787815093994,"74":0.3387366235256195,"75":1.729296326637268,"76":-0.5538615584373474,"77":-1.3724586963653564,"78":0.33152052760124207,"79":-0.5585086941719055,"80":-0.1983879804611206,"81":0.6903746128082275,"82":1.7413280010223389,"83":-1.8104397058486938,"84":0.1189647689461708,"85":-0.8569596409797668,"86":0.746196985244751,"87":-0.43373000621795654,"88":0.26605507731437683,"89":0.46357956528663635,"90":0.24873033165931702,"91":-1.9699138402938843,"92":-1.2449111938476562,"93":0.7542062997817993,"94":-0.2989247441291809,"95":0.43768787384033203,"96":0.5046593546867371,"97":-0.6419720649719238,"98":2.3156251907348633,"99":1.9609049558639526,"100":1.1654027700424194,"101":-0.4248432219028473,"102":0.5250459313392639,"103":-0.5692436695098877,"104":-1.3716200590133667,"105":2.207803964614868,"106":-0.8845932483673096,"107":-0.49275726079940796,"108":0.30611830949783325,"109":0.21813029050827026,"110":-2.221634864807129,"111":2.3064699172973633,"112":1.0336073637008667,"113":-1.6335748434066772,"114":-1.361104965209961,"115":2.8253390789031982,"116":1.026946783065796,"117":-0.784132182598114,"118":1.7309693098068237,"119":0.3493914306163788,"120":0.6077560186386108,"121":-2.1987528800964355,"122":0.15085019171237946,"123":0.284056693315506,"124":0.29681792855262756,"125":0.9662356376647949,"126":-0.9667771458625793,"127":0.9977943301200867,"128":-0.30792054533958435,"129":-0.9245443344116211,"130":-0.9544872641563416,"131":-0.34946033358573914,"132":0.5920465588569641,"133":1.1437088251113892,"134":0.24415093660354614,"135":0.6678383946418762,"136":-0.726268470287323,"137":-1.103149175643921,"138":-0.9641225934028625,"139":-0.7437378764152527,"140":0.8283052444458008,"141":-0.07708769291639328,"142":0.23864644765853882,"143":-0.9618101716041565,"144":1.8049287796020508,"145":-3.145670175552368,"146":0.12045679986476898,"147":-0.5380592942237854,"148":-3.62849497795105,"149":0.11768713593482971,"150":0.8455525636672974,"151":0.45603352785110474,"152":1.0314310789108276,"153":-1.8934131860733032,"154":1.5320935249328613,"155":-0.49342188239097595,"156":-1.3456718921661377,"157":2.023188352584839,"158":0.022804051637649536,"159":0.17920322716236115,"160":0.4978339970111847,"161":1.0442783832550049,"162":0.42137688398361206,"163":-1.4656710624694824,"164":1.389986276626587,"165":-0.861738920211792,"166":0.40854573249816895,"167":-1.5570815801620483,"168":-0.5056766867637634,"169":-0.47140035033226013,"170":0.06254873424768448,"171":0.25051796436309814,"172":-0.8556157946586609,"173":-0.3169701397418976,"174":-0.093081034719944,"175":3.886289596557617,"176":-0.38263776898384094,"177":-1.5949031114578247,"178":0.939888060092926,"179":1.1871086359024048,"180":0.44353383779525757,"181":-1.3333970308303833,"182":-0.4137450158596039,"183":0.5667162537574768,"184":0.9957285523414612,"185":0.8262242674827576,"186":-0.19263611733913422,"187":0.7360376119613647,"188":-0.1854909360408783,"189":-0.5056426525115967,"190":0.06328293681144714,"191":-1.1252529621124268,"192":-0.4051239788532257,"193":1.5404222011566162,"194":0.807043731212616,"195":0.07004199177026749,"196":-1.052414059638977,"197":-0.3061133623123169,"198":-1.0275617837905884,"199":-0.43873855471611023,"200":2.871755599975586,"201":-0.9253565669059753,"202":-0.07143723964691162,"203":-0.44619280099868774,"204":-1.37478768825531,"205":0.6260443329811096,"206":0.10156287997961044,"207":-1.7025429010391235,"208":0.34053075313568115,"209":1.058797001838684,"210":-0.4196375012397766,"211":0.7563769221305847,"212":0.43227219581604004,"213":-1.4812345504760742,"214":-0.8987477421760559,"215":2.176551103591919,"216":1.0211381912231445,"217":1.0756447315216064,"218":1.364573359489441,"219":-0.1805940568447113,"220":-0.7808169722557068,"221":1.058157205581665,"222":0.3097919225692749,"223":0.02484116330742836,"224":0.7856748700141907,"225":-0.7079380750656128,"226":-0.5550620555877686,"227":1.4055955410003662,"228":0.3215181827545166,"229":-0.7805635929107666,"230":0.3521728813648224,"231":-1.3201409578323364,"232":-0.3133526146411896,"233":-1.2202987670898438,"234":-0.2485540211200714,"235":-0.26872798800468445,"236":0.12388144433498383,"237":-1.19853937625885,"238":-0.36406564712524414,"239":0.28499841690063477,"240":-0.8313041925430298,"241":1.3524351119995117,"242":2.212367057800293,"243":-0.4980204403400421,"244":0.5257386565208435,"245":-1.7992055416107178,"246":0.7871332168579102,"247":0.6193728446960449,"248":-0.1887848824262619,"249":-0.2652929425239563,"250":2.8039467334747314,"251":-1.1937676668167114,"252":-1.1802048683166504,"253":-0.989210844039917,"254":0.49459293484687805,"255":-2.578495740890503,"256":-0.016435563564300537,"257":0.5330216884613037,"258":0.00982746109366417,"259":-0.009841136634349823,"260":1.1370110511779785,"261":1.4290655851364136,"262":0.9277559518814087,"263":0.00824571680277586,"264":0.0696931704878807,"265":-0.9416496157646179,"266":0.02435264363884926,"267":0.5403432846069336,"268":-0.06442426890134811,"269":0.9961150884628296,"270":4.280522346496582,"271":2.0868771076202393,"272":0.9473998546600342,"273":0.9726659655570984,"274":-0.09868481010198593,"275":-2.8262643814086914,"276":-0.3272339999675751,"277":0.6398981809616089,"278":-0.5485622882843018,"279":0.34904393553733826,"280":-0.6706355810165405,"281":0.6209439039230347,"282":1.7259691953659058,"283":-1.7784826755523682,"284":-0.05455334112048149,"285":-0.09664253145456314,"286":0.022702625021338463,"287":-0.11003068089485168,"288":0.537818431854248,"289":0.1500517725944519,"290":-0.874823808670044,"291":-1.1467258930206299,"292":-0.624846875667572,"293":0.5608993768692017,"294":-1.2795865535736084,"295":0.4178721308708191,"296":1.1312291622161865,"297":-0.8372235298156738,"298":1.566789984703064,"299":1.8212194442749023,"300":1.5099602937698364,"301":0.12387854605913162,"302":-1.172571063041687,"303":0.7757053971290588,"304":-0.9893754720687866,"305":-0.9860621094703674,"306":-0.2051655352115631,"307":1.075178623199463,"308":0.7178133726119995,"309":0.9920973777770996,"310":0.08166905492544174,"311":0.512596070766449,"312":0.13170558214187622,"313":-2.522409439086914,"314":-0.23215647041797638,"315":-0.8947579860687256,"316":0.31891289353370667,"317":0.0046205366961658,"318":-0.4807533621788025,"319":-0.4011279046535492,"320":1.5191552639007568,"321":2.021413564682007,"322":2.6373343467712402,"323":-2.6428494453430176,"324":0.843854546546936,"325":0.5343442559242249,"326":-0.10083366930484772,"327":0.3645693361759186,"328":0.68943852186203,"329":-0.28899914026260376,"330":-1.1597906351089478,"331":-0.17362068593502045,"332":-1.983783483505249,"333":-0.7486217617988586,"334":-0.01070834044367075,"335":0.4934682846069336,"336":0.2893505394458771,"337":-1.7298012971878052,"338":1.1645138263702393,"339":2.647714376449585,"340":-1.8597407341003418,"341":-1.4229940176010132,"342":0.13514238595962524,"343":-0.12805140018463135,"344":0.05348760262131691,"345":-0.728314220905304,"346":-0.11982343345880508,"347":0.82205730676651,"348":0.8337418437004089,"349":0.13772259652614594,"350":0.8612089157104492,"351":0.21234871447086334,"352":0.30528023838996887,"353":-0.4573848843574524,"354":-0.2700710594654083,"355":-0.17364037036895752,"356":-0.18758733570575714,"357":1.506721019744873,"358":0.05616530030965805,"359":0.14582791924476624,"360":2.335611343383789,"361":1.5143747329711914,"362":1.6981374025344849,"363":-1.4108996391296387,"364":-0.5009977221488953,"365":2.786174774169922,"366":-0.6695564389228821,"367":-0.3374533951282501,"368":1.4308470487594604,"369":-0.5182501077651978,"370":-1.9890621900558472,"371":1.346091628074646,"372":-0.5038871765136719,"373":-1.0350292921066284,"374":-0.18975375592708588,"375":1.4381427764892578,"376":0.5586007237434387,"377":-1.2261860370635986,"378":1.4645379781723022,"379":1.5652201175689697,"380":0.4226694405078888,"381":0.08731351047754288,"382":-0.3456187844276428,"383":0.038377344608306885,"384":0.23599457740783691,"385":2.1865732669830322,"386":-1.0420843362808228,"387":-0.1719621866941452,"388":0.21666425466537476,"389":-0.8903738856315613,"390":-2.1779634952545166,"391":-0.5358874797821045,"392":0.9360626339912415,"393":-0.3663478493690491,"394":-0.4578460156917572,"395":1.2034531831741333,"396":-0.5677891373634338,"397":-0.8678985834121704,"398":0.3641064167022705,"399":-0.19627755880355835}},"outputBias":{"rows":20,"columns":1,"weights":{"0":-1.8885235786437988,"1":-0.20861244201660156,"2":-1.4425557851791382,"3":-1.6869820356369019,"4":0.5177441835403442,"5":-1.0796786546707153,"6":0.22209830582141876,"7":-1.054114818572998,"8":0.9122599363327026,"9":0.5505898594856262,"10":-1.1428945064544678,"11":0.0002267558011226356,"12":1.7703226804733276,"13":0.027814164757728577,"14":-0.5799455046653748,"15":-1.4277138710021973,"16":-0.5494020581245422,"17":-1.5897833108901978,"18":-1.3219382762908936,"19":-1.407914638519287}},"cellActivationMatrix":{"rows":20,"columns":3,"weights":{"0":-0.05214768648147583,"1":0.09986631572246552,"2":0.40767747163772583,"3":-0.3232696056365967,"4":0.16522565484046936,"5":-0.1894734501838684,"6":0.6409826278686523,"7":0.717045247554779,"8":-0.9430846571922302,"9":0.0704551637172699,"10":0.11740392446517944,"11":-0.02882278338074684,"12":-0.679747998714447,"13":0.7541547417640686,"14":0.7516109347343445,"15":-0.4773643910884857,"16":-0.8999624848365784,"17":-0.9473947286605835,"18":1.2547216415405273,"19":1.2139455080032349,"20":1.366159200668335,"21":-0.3015844523906708,"22":-1.1895031929016113,"23":-0.026372946798801422,"24":0.2288445681333542,"25":-1.8021619319915771,"26":-0.5439720153808594,"27":1.4194022417068481,"28":0.3193022906780243,"29":0.5566376447677612,"30":0.018158702179789543,"31":0.5838010311126709,"32":-0.03752278536558151,"33":1.8723552227020264,"34":0.5257723331451416,"35":-0.1786317676305771,"36":1.665591835975647,"37":-0.06741813570261002,"38":0.671275794506073,"39":-1.2278443574905396,"40":-0.16340519487857819,"41":-0.2924793064594269,"42":-0.21572977304458618,"43":0.6773496866226196,"44":0.5331266522407532,"45":0.500145435333252,"46":0.8303767442703247,"47":-0.2937086224555969,"48":0.14197826385498047,"49":-0.8957287669181824,"50":-0.06735885888338089,"51":0.24035325646400452,"52":0.08070395141839981,"53":0.6580403447151184,"54":-0.6743349432945251,"55":-1.2866984605789185,"56":0.44475775957107544,"57":-0.22789539396762848,"58":-0.4293595850467682,"59":-0.4034775197505951}},"cellActivationHidden":{"rows":20,"columns":20,"weights":{"0":0.23141446709632874,"1":0.37855419516563416,"2":-1.659184455871582,"3":0.3183188736438751,"4":1.7644453048706055,"5":-1.4313523769378662,"6":0.2786369323730469,"7":1.3250722885131836,"8":-0.41565704345703125,"9":0.04240436851978302,"10":0.9507262706756592,"11":1.7245945930480957,"12":-0.5986030101776123,"13":-1.1645901203155518,"14":1.2635626792907715,"15":-1.5981725454330444,"16":-1.008682370185852,"17":0.3802468776702881,"18":0.2576119005680084,"19":-0.20271345973014832,"20":-0.4836091697216034,"21":-0.5929422378540039,"22":1.6555217504501343,"23":-1.7762632369995117,"24":-1.6241111755371094,"25":-2.0012476444244385,"26":0.9413332939147949,"27":1.3784191608428955,"28":1.8548955917358398,"29":0.6985401511192322,"30":-0.3016212284564972,"31":0.25569459795951843,"32":1.2116721868515015,"33":-0.391075998544693,"34":-1.6828497648239136,"35":-0.27274349331855774,"36":2.378368616104126,"37":0.960430383682251,"38":2.509868621826172,"39":1.5944294929504395,"40":1.7777104377746582,"41":0.6295243501663208,"42":-0.8416623473167419,"43":0.7593824863433838,"44":0.2921225428581238,"45":1.7719241380691528,"46":-1.038088321685791,"47":0.3415733873844147,"48":-0.7011745572090149,"49":-0.8344025611877441,"50":-2.2141003608703613,"51":-0.13786426186561584,"52":0.3590112328529358,"53":-1.849313735961914,"54":0.27102532982826233,"55":1.18061363697052,"56":-0.6533151865005493,"57":-0.6742168664932251,"58":-0.6913444995880127,"59":-0.36033162474632263,"60":-1.639784812927246,"61":-0.3835850954055786,"62":0.6528297066688538,"63":-0.5206382274627686,"64":-0.20016366243362427,"65":-1.6169888973236084,"66":0.9593706130981445,"67":-0.12363958358764648,"68":1.1818251609802246,"69":0.8515766859054565,"70":1.9030375480651855,"71":0.8204396963119507,"72":0.581361711025238,"73":1.1180734634399414,"74":-0.4862590432167053,"75":-1.2297395467758179,"76":0.5201134085655212,"77":0.6679526567459106,"78":0.41948026418685913,"79":0.11588587611913681,"80":-2.300215482711792,"81":0.016691625118255615,"82":1.3130124807357788,"83":-1.4046800136566162,"84":-0.14928044378757477,"85":-1.8834112882614136,"86":0.8023574352264404,"87":-0.26772332191467285,"88":0.5242147445678711,"89":0.3207896947860718,"90":3.2019004821777344,"91":0.8756433725357056,"92":0.07732246071100235,"93":-0.06128479167819023,"94":-0.6601195931434631,"95":-0.6838575601577759,"96":0.860130786895752,"97":-0.1400955617427826,"98":0.7912696003913879,"99":1.1371575593948364,"100":2.0738465785980225,"101":-0.4671802818775177,"102":0.2616335451602936,"103":-0.7131531834602356,"104":-0.8027216792106628,"105":-1.572357416152954,"106":-0.12450353056192398,"107":-0.04231865331530571,"108":1.8830223083496094,"109":-0.10648081451654434,"110":1.254683017730713,"111":3.162569999694824,"112":1.384617567062378,"113":0.06291221082210541,"114":-1.1040875911712646,"115":-1.4722179174423218,"116":0.05421806871891022,"117":0.4512341320514679,"118":-3.613877773284912,"119":1.341428518295288,"120":1.1657452583312988,"121":0.22473110258579254,"122":-1.2246227264404297,"123":0.19797565042972565,"124":0.43996745347976685,"125":0.9045140147209167,"126":-0.5824008584022522,"127":0.6337928175926208,"128":0.10829875618219376,"129":-0.7223172783851624,"130":-0.968302845954895,"131":-1.5229389667510986,"132":-1.2387628555297852,"133":0.9972575902938843,"134":0.5842556953430176,"135":0.976213812828064,"136":-0.45737671852111816,"137":-2.2197864055633545,"138":-0.40796148777008057,"139":-0.42751967906951904,"140":-1.1231440305709839,"141":-0.9591881036758423,"142":-0.34364232420921326,"143":0.2350936383008957,"144":-0.08948429673910141,"145":1.278821349143982,"146":-0.8771393299102783,"147":-0.44344624876976013,"148":0.8729052543640137,"149":-0.8892843723297119,"150":-0.5342833995819092,"151":-2.0362725257873535,"152":-0.3425796926021576,"153":2.1090199947357178,"154":0.30714553594589233,"155":-0.5574237704277039,"156":-0.013176452368497849,"157":0.45214518904685974,"158":-0.08379650115966797,"159":-0.12121065706014633,"160":0.3545556664466858,"161":-0.5819816589355469,"162":-0.8299245834350586,"163":0.7733615636825562,"164":0.43943607807159424,"165":-0.14160893857479095,"166":-1.0007835626602173,"167":-0.6419315934181213,"168":-1.273215413093567,"169":-1.1787759065628052,"170":-0.05061336234211922,"171":-1.059511423110962,"172":-0.5544552206993103,"173":2.982731580734253,"174":0.8184782862663269,"175":-0.4547657370567322,"176":-0.6451390981674194,"177":-0.7674772143363953,"178":-1.800652027130127,"179":-0.4223037660121918,"180":-0.34075313806533813,"181":-0.07223224639892578,"182":-1.0048936605453491,"183":0.29399752616882324,"184":0.6828905344009399,"185":0.9031015038490295,"186":-0.4174201786518097,"187":0.3141615390777588,"188":-0.6076513528823853,"189":-0.915233314037323,"190":-0.7287407517433167,"191":-1.2612109184265137,"192":-0.9937543869018555,"193":1.2460708618164062,"194":0.5422261953353882,"195":0.0950072705745697,"196":-0.7142725586891174,"197":-1.8682303428649902,"198":-0.4792872667312622,"199":-0.2094622105360031,"200":-1.9427188634872437,"201":1.1230300664901733,"202":-1.2090107202529907,"203":0.8873711824417114,"204":1.0076193809509277,"205":3.452355146408081,"206":-0.7613950967788696,"207":1.0299296379089355,"208":-2.3498833179473877,"209":-0.729658305644989,"210":-1.2638230323791504,"211":-1.3537492752075195,"212":-2.0104949474334717,"213":0.9482036232948303,"214":0.791473925113678,"215":0.2751977741718292,"216":-0.6983774304389954,"217":-1.478954553604126,"218":-0.11361263692378998,"219":-0.3983672261238098,"220":0.16474826633930206,"221":0.5913342833518982,"222":-0.13808372616767883,"223":0.12406674772500992,"224":0.06829803436994553,"225":-0.44747909903526306,"226":0.35752615332603455,"227":0.011761754751205444,"228":-0.7928938269615173,"229":0.05021476745605469,"230":0.2849072813987732,"231":-0.8196574449539185,"232":-0.5693497657775879,"233":0.6620664596557617,"234":0.23504047095775604,"235":0.5963017344474792,"236":-0.18868856132030487,"237":-0.6304529905319214,"238":0.31565043330192566,"239":-0.3306647837162018,"240":-0.017720699310302734,"241":-0.10404252260923386,"242":0.0658952072262764,"243":0.12012329697608948,"244":-0.39300015568733215,"245":1.8102104663848877,"246":-0.7061620950698853,"247":1.4432162046432495,"248":0.2708810567855835,"249":-0.12267819792032242,"250":-1.3312478065490723,"251":-1.3390566110610962,"252":-0.8647169470787048,"253":0.792141854763031,"254":-0.4289075434207916,"255":-0.0515473298728466,"256":0.08379130810499191,"257":0.34743446111679077,"258":0.08376192301511765,"259":-0.18779581785202026,"260":0.9236143827438354,"261":0.933350682258606,"262":-0.7566899061203003,"263":0.4259231686592102,"264":1.6180686950683594,"265":-0.6421681642532349,"266":-0.8764874935150146,"267":-0.4228002429008484,"268":-2.771428346633911,"269":-0.46897196769714355,"270":1.339773416519165,"271":1.4984877109527588,"272":-0.7211403846740723,"273":-0.24830932915210724,"274":1.2698860168457031,"275":-0.9559854865074158,"276":-0.8231440186500549,"277":-0.07879795879125595,"278":-0.151907816529274,"279":-0.2789628803730011,"280":-1.1512209177017212,"281":-0.29801154136657715,"282":0.9219443202018738,"283":-1.0711828470230103,"284":0.1823042929172516,"285":-1.3400545120239258,"286":1.0329254865646362,"287":-0.37196940183639526,"288":-0.11521793901920319,"289":0.473422646522522,"290":1.992266058921814,"291":1.1475799083709717,"292":-0.20165295898914337,"293":1.4677670001983643,"294":-0.775866687297821,"295":-0.6472471952438354,"296":0.37560591101646423,"297":0.1805362105369568,"298":0.33917689323425293,"299":0.9293162226676941,"300":1.4314625263214111,"301":0.7087993621826172,"302":-1.0162670612335205,"303":0.7844988107681274,"304":-0.37338900566101074,"305":0.08217108249664307,"306":0.14764747023582458,"307":0.35455551743507385,"308":0.9618651270866394,"309":0.8522593379020691,"310":0.15508393943309784,"311":1.4013971090316772,"312":1.3913583755493164,"313":-1.7770754098892212,"314":0.4059670567512512,"315":-1.068794846534729,"316":-0.4291522800922394,"317":0.5259279012680054,"318":-0.571155309677124,"319":-1.014951467514038,"320":2.397949457168579,"321":0.7288670539855957,"322":-1.3542455434799194,"323":1.1998988389968872,"324":0.35136720538139343,"325":1.3016914129257202,"326":-0.8914811015129089,"327":0.007636131253093481,"328":0.42657363414764404,"329":-0.6870788335800171,"330":-1.7158466577529907,"331":-1.6448720693588257,"332":-0.29496729373931885,"333":-0.4966098666191101,"334":0.7557329535484314,"335":0.5945515632629395,"336":-0.8745458126068115,"337":0.534935474395752,"338":-0.6442228555679321,"339":-0.847560703754425,"340":-0.3882533013820648,"341":1.4413340091705322,"342":-0.4560518264770508,"343":0.4519590437412262,"344":0.7262163758277893,"345":0.41504475474357605,"346":0.14735811948776245,"347":-0.8438892364501953,"348":-0.796489417552948,"349":0.15158338844776154,"350":-0.7849499583244324,"351":-2.1010265350341797,"352":-2.3279473781585693,"353":0.4713413715362549,"354":0.4967210292816162,"355":0.1824353039264679,"356":-0.34410524368286133,"357":-0.49770575761795044,"358":-0.5098252296447754,"359":-0.38314199447631836,"360":3.0687062740325928,"361":-0.8008994460105896,"362":-1.2475119829177856,"363":0.6395118832588196,"364":-0.14723345637321472,"365":1.3416643142700195,"366":-0.9794488549232483,"367":-0.06362897902727127,"368":0.4249282479286194,"369":-0.7476999759674072,"370":-2.1985838413238525,"371":-2.448831558227539,"372":-0.40961140394210815,"373":-1.3916255235671997,"374":0.5893117189407349,"375":0.5849146246910095,"376":-0.43213948607444763,"377":0.32558998465538025,"378":1.7631807327270508,"379":0.18761232495307922,"380":1.1198173761367798,"381":0.5178970694541931,"382":-0.7200356721878052,"383":0.6523166298866272,"384":0.910108208656311,"385":1.5297613143920898,"386":-0.9236428141593933,"387":-0.41122129559516907,"388":-0.9871171712875366,"389":-0.7459924817085266,"390":-1.7746692895889282,"391":-0.8255765438079834,"392":-0.7300683856010437,"393":-0.7918988466262817,"394":0.7659866213798523,"395":1.3599817752838135,"396":-0.7835280299186707,"397":-0.6504991054534912,"398":-0.28415489196777344,"399":-0.29509902000427246}},"cellActivationBias":{"rows":20,"columns":1,"weights":{"0":0.47036105394363403,"1":0.1562744826078415,"2":0.05391379073262215,"3":0.13209916651248932,"4":-1.3286393880844116,"5":-0.24776610732078552,"6":0.4527435302734375,"7":0.5147218108177185,"8":1.3730261325836182,"9":0.9571849703788757,"10":0.22236761450767517,"11":0.7695361971855164,"12":1.889121651649475,"13":-0.9827902317047119,"14":-0.6664634943008423,"15":-0.11733508855104446,"16":1.0453941822052002,"17":0.5981037020683289,"18":0.49535617232322693,"19":0.2608989179134369}}},{"inputMatrix":{"rows":20,"columns":20,"weights":{"0":0.14512431621551514,"1":-0.46838414669036865,"2":0.6593021154403687,"3":-0.784772515296936,"4":-0.31030896306037903,"5":-0.0875915139913559,"6":1.0546581745147705,"7":2.1708486080169678,"8":-0.3540390729904175,"9":0.8493764400482178,"10":-0.10179239511489868,"11":0.09214892983436584,"12":0.7137579917907715,"13":-1.2600904703140259,"14":0.14929544925689697,"15":1.8633888959884644,"16":1.9132392406463623,"17":0.26954689621925354,"18":2.8275907039642334,"19":0.43177974224090576,"20":-0.7685335874557495,"21":1.0429307222366333,"22":-1.0746837854385376,"23":0.2714554965496063,"24":0.48217645287513733,"25":-0.23548687994480133,"26":0.2964535355567932,"27":0.5729897618293762,"28":-0.8995029926300049,"29":0.19886884093284607,"30":0.3732556700706482,"31":-1.0054800510406494,"32":-0.3390612006187439,"33":-0.831916868686676,"34":0.24060456454753876,"35":-0.6175146698951721,"36":0.12957294285297394,"37":-1.6653205156326294,"38":0.17039363086223602,"39":-0.518433690071106,"40":-0.24283011257648468,"41":0.4846982955932617,"42":-1.0125272274017334,"43":0.46920546889305115,"44":0.4904991686344147,"45":0.6711341142654419,"46":0.6319167017936707,"47":1.1927679777145386,"48":-0.9856677651405334,"49":0.314135879278183,"50":-0.2595745027065277,"51":-0.5011984705924988,"52":0.5923121571540833,"53":-0.5232380032539368,"54":0.5193084478378296,"55":-0.06202325224876404,"56":-0.4456847906112671,"57":-0.6217795610427856,"58":-0.2289733588695526,"59":-0.782355546951294,"60":-3.24534273147583,"61":-0.6737575531005859,"62":-0.8168338537216187,"63":0.2975793480873108,"64":-0.6673431992530823,"65":0.05479516088962555,"66":-0.6411662697792053,"67":-0.5344054698944092,"68":-1.5161892175674438,"69":-0.7984659671783447,"70":0.6779173612594604,"71":-2.6937882900238037,"72":-3.9216384887695312,"73":3.18107271194458,"74":-1.3561837673187256,"75":-1.5618900060653687,"76":-2.311964273452759,"77":1.2288124561309814,"78":-3.621720552444458,"79":0.5276066064834595,"80":2.9380593299865723,"81":1.8740636110305786,"82":0.5838274955749512,"83":-1.1559381484985352,"84":2.525468587875366,"85":0.7291403412818909,"86":-0.4296554625034332,"87":-1.6822316646575928,"88":0.1650984287261963,"89":-1.0441418886184692,"90":-1.048316240310669,"91":0.7004985809326172,"92":-0.9118635058403015,"93":0.9357302188873291,"94":0.7456749677658081,"95":0.7704219818115234,"96":-1.348953127861023,"97":-1.5566563606262207,"98":-0.5861141681671143,"99":0.42107093334198,"100":0.0025373403914272785,"101":0.1498500257730484,"102":-0.6936588287353516,"103":0.37226781249046326,"104":0.6554490923881531,"105":-1.8754312992095947,"106":1.7190877199172974,"107":-3.7266674041748047,"108":-1.559736967086792,"109":2.194056749343872,"110":2.0464887619018555,"111":-1.4359568357467651,"112":-1.0051742792129517,"113":1.2186444997787476,"114":0.1320446878671646,"115":2.006669282913208,"116":-0.7147878408432007,"117":1.454744815826416,"118":0.03227943181991577,"119":0.12140671163797379,"120":1.811759114265442,"121":0.6029389500617981,"122":-0.04470856487751007,"123":-1.025883436203003,"124":3.1999945640563965,"125":0.9674884080886841,"126":0.4937610328197479,"127":-4.004934787750244,"128":-2.169313669204712,"129":0.641122043132782,"130":-0.5299860239028931,"131":-0.4921567142009735,"132":-1.3111448287963867,"133":1.6734561920166016,"134":1.170337438583374,"135":0.8361409902572632,"136":-2.101200580596924,"137":1.1240371465682983,"138":-0.7843909859657288,"139":2.1141645908355713,"140":0.25511887669563293,"141":-0.33209139108657837,"142":-1.1579591035842896,"143":1.9772659540176392,"144":2.125297784805298,"145":1.3434789180755615,"146":-0.6536219716072083,"147":1.7270519733428955,"148":-3.5280582904815674,"149":-0.5350298285484314,"150":-0.5694813132286072,"151":-0.24441343545913696,"152":-1.9438493251800537,"153":0.2828518748283386,"154":1.719024419784546,"155":-0.03796602785587311,"156":-1.6034846305847168,"157":-0.3461623787879944,"158":-1.2287688255310059,"159":-1.6533969640731812,"160":-0.7916527986526489,"161":-0.6755496859550476,"162":1.0776934623718262,"163":-0.4929604232311249,"164":-0.3931000530719757,"165":1.854915976524353,"166":-0.9379479289054871,"167":0.0943339467048645,"168":-0.5916143655776978,"169":-1.0292924642562866,"170":-1.4469568729400635,"171":-1.1412698030471802,"172":-0.20900897681713104,"173":-0.5602035522460938,"174":-0.4935792088508606,"175":1.6945706605911255,"176":0.6708731651306152,"177":-0.08136343210935593,"178":0.06420436501502991,"179":0.32210567593574524,"180":2.2771878242492676,"181":1.1179519891738892,"182":-2.28430438041687,"183":0.7420185804367065,"184":0.7764503359794617,"185":4.4439568519592285,"186":-3.3258490562438965,"187":-0.4575810432434082,"188":0.5318049788475037,"189":-3.1425068378448486,"190":-3.2145485877990723,"191":-1.0875486135482788,"192":-0.38907718658447266,"193":2.4751908779144287,"194":1.4179362058639526,"195":1.1650621891021729,"196":-2.493433952331543,"197":-3.6754727363586426,"198":-2.9314050674438477,"199":-0.7513924241065979,"200":0.10036451369524002,"201":-0.8560852408409119,"202":1.024610996246338,"203":-1.0453730821609497,"204":0.22913311421871185,"205":-0.8041084408760071,"206":-0.13429175317287445,"207":-1.603009819984436,"208":-4.245655059814453,"209":-0.9059492945671082,"210":0.21879106760025024,"211":-0.9980169534683228,"212":-1.4304600954055786,"213":2.213442802429199,"214":0.12417349219322205,"215":0.9504647254943848,"216":1.1606804132461548,"217":-0.8559278249740601,"218":2.505857229232788,"219":0.30929994583129883,"220":1.0776549577713013,"221":1.415307641029358,"222":-2.5783581733703613,"223":2.6154162883758545,"224":1.301725149154663,"225":1.935693621635437,"226":-2.4095327854156494,"227":0.4053926169872284,"228":-0.6163880825042725,"229":-2.2452173233032227,"230":-1.4175482988357544,"231":1.40483820438385,"232":-0.4049018919467926,"233":2.085562229156494,"234":1.126016616821289,"235":-0.13891024887561798,"236":-3.3401124477386475,"237":-1.576623558998108,"238":-4.364958763122559,"239":-1.3929005861282349,"240":1.8170360326766968,"241":0.4739118218421936,"242":-0.5509155988693237,"243":-0.36632242798805237,"244":0.7555234432220459,"245":0.2850772440433502,"246":-0.24070605635643005,"247":3.490291118621826,"248":1.2973579168319702,"249":-1.7933769226074219,"250":-0.8819752335548401,"251":0.6942033767700195,"252":-1.0834351778030396,"253":-0.20226013660430908,"254":0.12684381008148193,"255":-0.8145447373390198,"256":-0.25202837586402893,"257":-0.984308123588562,"258":0.9508908987045288,"259":0.7175658345222473,"260":-0.1659097820520401,"261":1.170212745666504,"262":-0.4814126789569855,"263":0.5059797167778015,"264":2.3749947547912598,"265":2.125706434249878,"266":-0.7653587460517883,"267":-1.6073424816131592,"268":-1.2937111854553223,"269":-0.5048367381095886,"270":-1.1682301759719849,"271":-0.14148326218128204,"272":-0.21476247906684875,"273":0.45117807388305664,"274":2.031608819961548,"275":0.8399065732955933,"276":-1.8118776082992554,"277":-0.6669230461120605,"278":-0.5815361142158508,"279":-0.5208142995834351,"280":-0.4026144742965698,"281":-1.0172467231750488,"282":-0.5908823609352112,"283":0.4434168338775635,"284":0.38193371891975403,"285":0.3023357093334198,"286":-1.518584132194519,"287":0.06773289293050766,"288":-0.4043987989425659,"289":-1.6917996406555176,"290":-0.7844195365905762,"291":-0.44294920563697815,"292":0.04864545911550522,"293":-0.12616673111915588,"294":0.35462480783462524,"295":-0.6501371264457703,"296":-0.2320367693901062,"297":-0.6933755278587341,"298":-0.09690702706575394,"299":-0.2043638974428177,"300":-0.06126800552010536,"301":-1.180092215538025,"302":0.17816264927387238,"303":-0.5089508295059204,"304":0.4902056157588959,"305":-0.6207543611526489,"306":0.1698119044303894,"307":0.502471923828125,"308":0.21535401046276093,"309":-0.20190781354904175,"310":0.39954623579978943,"311":-0.29348620772361755,"312":-0.2993866503238678,"313":-0.9477726817131042,"314":0.019826166331768036,"315":-0.4750186800956726,"316":0.586697518825531,"317":1.041200876235962,"318":1.2239736318588257,"319":0.7326713800430298,"320":0.8322106003761292,"321":-0.20896711945533752,"322":-0.4673106074333191,"323":0.12117777019739151,"324":-0.8076452612876892,"325":-0.20974978804588318,"326":-0.6698035597801208,"327":0.7059252858161926,"328":0.1284502148628235,"329":-0.73387211561203,"330":-0.036318909376859665,"331":0.4405200183391571,"332":1.2356703281402588,"333":0.3569827079772949,"334":-0.7073626518249512,"335":0.06938114762306213,"336":-0.26372072100639343,"337":-0.804284393787384,"338":0.501346230506897,"339":0.22110052406787872,"340":-1.113166332244873,"341":0.1188620924949646,"342":0.9167622327804565,"343":-3.8704652786254883,"344":0.26953595876693726,"345":-0.12649033963680267,"346":-0.8070141673088074,"347":-0.02086685411632061,"348":-0.4575245678424835,"349":-0.7708881497383118,"350":-0.2910214066505432,"351":-1.0140246152877808,"352":-0.48572683334350586,"353":0.08145780861377716,"354":-0.7162178754806519,"355":0.3320336937904358,"356":1.7538402080535889,"357":0.049200717359781265,"358":3.28904390335083,"359":3.55438494682312,"360":-0.33826395869255066,"361":0.06261922419071198,"362":-0.8283224105834961,"363":-0.40710827708244324,"364":0.8042195439338684,"365":-0.18595173954963684,"366":0.6855820417404175,"367":-0.5405179858207703,"368":-1.5222811698913574,"369":0.8437008857727051,"370":0.16539834439754486,"371":-0.6881422400474548,"372":-1.3768163919448853,"373":-1.074277639389038,"374":0.6572552919387817,"375":0.1748003214597702,"376":-0.4210842251777649,"377":0.5074401497840881,"378":0.25891849398612976,"379":-0.09627600014209747,"380":1.080001950263977,"381":0.11314508318901062,"382":-0.517880380153656,"383":0.4715178608894348,"384":1.7987662553787231,"385":-0.05963950976729393,"386":0.5104079246520996,"387":0.258184552192688,"388":-0.9412053227424622,"389":0.5063639879226685,"390":0.8114998936653137,"391":-0.4658954441547394,"392":-1.5350401401519775,"393":-0.7947742938995361,"394":1.4519684314727783,"395":-1.2442032098770142,"396":-0.8294602632522583,"397":-0.4588550925254822,"398":-0.42186254262924194,"399":-1.3257921934127808}},"inputHidden":{"rows":20,"columns":20,"weights":{"0":1.4458062648773193,"1":-0.7731330394744873,"2":2.1212708950042725,"3":-0.5942951440811157,"4":-0.5783352851867676,"5":1.6284775733947754,"6":-0.4037548899650574,"7":2.211646556854248,"8":0.1910293847322464,"9":-0.5706226825714111,"10":-0.4535704553127289,"11":0.8792069554328918,"12":0.31612980365753174,"13":-0.8439241647720337,"14":-1.7331292629241943,"15":-1.4921575784683228,"16":4.045586109161377,"17":-1.7288645505905151,"18":0.7693579792976379,"19":1.346426010131836,"20":-0.37161552906036377,"21":-0.7515223622322083,"22":-0.5636420249938965,"23":-1.5559180974960327,"24":-2.227318286895752,"25":-1.7649495601654053,"26":-0.9917364716529846,"27":-0.0996447205543518,"28":-2.471215009689331,"29":-1.8622052669525146,"30":-2.7283403873443604,"31":1.096716046333313,"32":2.7375011444091797,"33":-0.6994624137878418,"34":-1.6063534021377563,"35":0.45497244596481323,"36":1.4929829835891724,"37":-0.8800205588340759,"38":-0.7780750393867493,"39":-0.5439988374710083,"40":0.4363810420036316,"41":-1.4152987003326416,"42":0.7725780606269836,"43":0.7835761308670044,"44":-0.929215133190155,"45":1.146126627922058,"46":-0.6166075468063354,"47":1.09207022190094,"48":0.3151228129863739,"49":-1.1374773979187012,"50":-0.33010631799697876,"51":0.8718495965003967,"52":0.5836747288703918,"53":0.3232116997241974,"54":-2.0322978496551514,"55":-0.9245969653129578,"56":5.402339935302734,"57":0.41644880175590515,"58":0.6285317540168762,"59":0.7733425498008728,"60":3.161978006362915,"61":-1.383670687675476,"62":1.7084020376205444,"63":-0.6356787085533142,"64":1.7294740676879883,"65":5.7789106369018555,"66":3.6836626529693604,"67":1.7807884216308594,"68":0.28416508436203003,"69":0.532014012336731,"70":0.4810319244861603,"71":2.3280961513519287,"72":-6.253036022186279,"73":1.3724840879440308,"74":-0.3579663634300232,"75":-2.8430373668670654,"76":0.6678482294082642,"77":-2.4608941078186035,"78":-0.6115341186523438,"79":1.5030157566070557,"80":-1.332727074623108,"81":1.667892575263977,"82":-1.758104920387268,"83":0.07744695991277695,"84":1.4676463603973389,"85":-0.5466201901435852,"86":1.424866795539856,"87":-1.9757319688796997,"88":-0.2654901444911957,"89":1.3708136081695557,"90":2.924906015396118,"91":-2.290181875228882,"92":-2.146167278289795,"93":0.7986298203468323,"94":1.967893123626709,"95":1.6563630104064941,"96":-2.309670925140381,"97":-0.12691260874271393,"98":-1.3662179708480835,"99":-1.5405267477035522,"100":2.136563777923584,"101":0.2085588127374649,"102":1.1658674478530884,"103":1.7926017045974731,"104":-0.44016316533088684,"105":2.089097023010254,"106":-0.10840663313865662,"107":0.05351552367210388,"108":4.1708574295043945,"109":-0.7804515361785889,"110":0.6631268262863159,"111":1.1480464935302734,"112":0.4726526737213135,"113":0.7718002200126648,"114":0.34228774905204773,"115":-1.5376741886138916,"116":-0.42091646790504456,"117":3.0651748180389404,"118":-1.0400376319885254,"119":-0.12922915816307068,"120":-0.04869319498538971,"121":-0.20495924353599548,"122":0.33665162324905396,"123":-1.1295490264892578,"124":0.6406200528144836,"125":-0.48649922013282776,"126":0.05635609105229378,"127":-1.757006049156189,"128":-1.138524055480957,"129":-2.469238519668579,"130":2.4004857540130615,"131":0.6415924429893494,"132":-3.052886724472046,"133":2.9316904544830322,"134":-1.3739116191864014,"135":0.9176087975502014,"136":-0.555808961391449,"137":-1.169137954711914,"138":0.28318092226982117,"139":-0.9799748659133911,"140":0.7008358240127563,"141":-0.8629279136657715,"142":2.149928569793701,"143":1.0719645023345947,"144":-0.10859104990959167,"145":0.9473473429679871,"146":-0.6067978739738464,"147":0.996525764465332,"148":0.37281689047813416,"149":-1.0606904029846191,"150":-0.012015536427497864,"151":0.2373865395784378,"152":0.13050156831741333,"153":-0.6142981052398682,"154":-1.3093270063400269,"155":-1.7258929014205933,"156":5.720531463623047,"157":-0.2857512831687927,"158":0.7323923707008362,"159":1.1445798873901367,"160":-0.31313666701316833,"161":0.5559391975402832,"162":-0.06808426231145859,"163":-1.699562668800354,"164":-1.1233456134796143,"165":0.5201677680015564,"166":-2.452260732650757,"167":1.0981837511062622,"168":1.5755640268325806,"169":-1.7531440258026123,"170":0.26008832454681396,"171":1.4177775382995605,"172":0.23610565066337585,"173":-0.912100613117218,"174":-0.1317649930715561,"175":0.9655275940895081,"176":0.16603653132915497,"177":2.4502177238464355,"178":0.85679030418396,"179":1.6298696994781494,"180":-1.2120710611343384,"181":1.3369934558868408,"182":-1.1153147220611572,"183":1.763026475906372,"184":0.6167934536933899,"185":0.7480486631393433,"186":0.3780727684497833,"187":-1.080950379371643,"188":1.851874589920044,"189":1.1047765016555786,"190":-0.7333269119262695,"191":-0.02068379521369934,"192":1.7809456586837769,"193":2.4139928817749023,"194":0.44862109422683716,"195":0.7968827486038208,"196":-1.683174729347229,"197":-1.2979766130447388,"198":-0.7366333603858948,"199":-0.5253201723098755,"200":1.946406364440918,"201":0.20205269753932953,"202":2.4600183963775635,"203":0.6006532907485962,"204":0.7145248055458069,"205":3.0710391998291016,"206":0.935986340045929,"207":0.4596252143383026,"208":4.817445755004883,"209":1.2674897909164429,"210":2.9799962043762207,"211":-1.1479201316833496,"212":-1.7911533117294312,"213":0.23059822618961334,"214":0.6408997178077698,"215":-1.8292583227157593,"216":-0.2913531959056854,"217":0.13775195181369781,"218":0.28353041410446167,"219":1.6042656898498535,"220":-1.9011685848236084,"221":1.236626386642456,"222":-1.670095443725586,"223":-0.4820963144302368,"224":0.15214303135871887,"225":0.5675258636474609,"226":0.6427582502365112,"227":-1.2505823373794556,"228":0.38138845562934875,"229":1.6034530401229858,"230":0.4585941731929779,"231":-0.09882564097642899,"232":-0.08563381433486938,"233":1.0750802755355835,"234":0.29194673895835876,"235":1.016643762588501,"236":-0.15922079980373383,"237":-0.17053371667861938,"238":-1.0193357467651367,"239":-1.5751770734786987,"240":1.3145369291305542,"241":1.0200250148773193,"242":0.8244048953056335,"243":0.676057755947113,"244":2.664332389831543,"245":2.6316096782684326,"246":1.8398135900497437,"247":2.093096971511841,"248":4.334071159362793,"249":2.197053909301758,"250":1.7466621398925781,"251":-1.1889808177947998,"252":-2.3163764476776123,"253":-0.10724203288555145,"254":1.4556083679199219,"255":-1.67045259475708,"256":-1.8446632623672485,"257":0.5340139865875244,"258":1.860124111175537,"259":3.742375612258911,"260":3.498319149017334,"261":-0.8299405574798584,"262":2.6752853393554688,"263":-2.6456851959228516,"264":0.5424579977989197,"265":3.7588982582092285,"266":-0.9920875430107117,"267":1.5113637447357178,"268":2.3247230052948,"269":-0.4728427231311798,"270":1.0283513069152832,"271":0.30079415440559387,"272":-0.37624573707580566,"273":0.6969732046127319,"274":-2.36203932762146,"275":-3.3345632553100586,"276":1.208497166633606,"277":-0.33878082036972046,"278":0.9316472411155701,"279":2.68029522895813,"280":-2.0421805381774902,"281":0.103483185172081,"282":-2.1834847927093506,"283":-0.7716372609138489,"284":-0.10631568729877472,"285":0.771393358707428,"286":-0.6647281050682068,"287":0.08418470621109009,"288":-0.7384949326515198,"289":-1.0305581092834473,"290":-0.44102075695991516,"291":0.7002836465835571,"292":1.2124594449996948,"293":-0.3954826593399048,"294":-1.3910526037216187,"295":2.388455390930176,"296":0.7197175025939941,"297":0.30202123522758484,"298":-0.22831766307353973,"299":-0.05415578931570053,"300":-0.12089746445417404,"301":-0.5368989109992981,"302":0.5512375831604004,"303":1.0919040441513062,"304":-0.4394873380661011,"305":0.7606238126754761,"306":-0.5428059101104736,"307":-0.15211234986782074,"308":-0.02422565408051014,"309":-0.3079278767108917,"310":-0.35743802785873413,"311":1.5470716953277588,"312":0.32395803928375244,"313":-0.3335238993167877,"314":-1.1080577373504639,"315":-0.6155573129653931,"316":1.736984372138977,"317":0.7882182002067566,"318":0.8265846371650696,"319":-0.15437711775302887,"320":0.3127497732639313,"321":-0.10781235247850418,"322":-2.1432390213012695,"323":-0.25262150168418884,"324":0.2926526963710785,"325":0.21453674137592316,"326":0.2609272599220276,"327":-0.5199676752090454,"328":-0.5994907021522522,"329":-0.2514347434043884,"330":-0.1428735852241516,"331":-0.019876575097441673,"332":-0.04484254866838455,"333":0.35515058040618896,"334":0.12035858631134033,"335":1.7729843854904175,"336":3.978774309158325,"337":0.23935765027999878,"338":-0.46226435899734497,"339":-1.3481547832489014,"340":0.7333317399024963,"341":-0.03663976863026619,"342":0.6471354961395264,"343":1.064322829246521,"344":-1.4328476190567017,"345":-0.006750904023647308,"346":-1.768389105796814,"347":0.33290135860443115,"348":0.889769434928894,"349":-0.2901328504085541,"350":-0.9260134100914001,"351":0.7923852801322937,"352":1.074681282043457,"353":-0.5351352095603943,"354":-0.4570067822933197,"355":-0.39345937967300415,"356":-0.21557477116584778,"357":1.0522340536117554,"358":0.14467257261276245,"359":-0.03005015105009079,"360":0.7109183669090271,"361":-0.5989190340042114,"362":1.1061315536499023,"363":-0.5946572422981262,"364":-1.5605064630508423,"365":0.21371707320213318,"366":-1.0899962186813354,"367":-0.3113674819469452,"368":1.3916412591934204,"369":-1.6413441896438599,"370":-1.305098295211792,"371":1.1034302711486816,"372":1.400335669517517,"373":-0.662085771560669,"374":-1.069901466369629,"375":-0.3586669862270355,"376":0.1960027515888214,"377":0.2749473452568054,"378":0.8775327801704407,"379":-0.11208974570035934,"380":0.9932607412338257,"381":-1.4408988952636719,"382":1.3173599243164062,"383":0.8005746603012085,"384":-0.23164084553718567,"385":-0.23569706082344055,"386":-0.39276593923568726,"387":2.381760358810425,"388":-0.06292617321014404,"389":-0.5067946910858154,"390":0.21473942697048187,"391":0.2195323258638382,"392":0.1693168729543686,"393":0.5633132457733154,"394":-0.8418670892715454,"395":-0.3507295250892639,"396":5.177881240844727,"397":-0.19195929169654846,"398":0.5531531572341919,"399":2.0222620964050293}},"inputBias":{"rows":20,"columns":1,"weights":{"0":1.3388229608535767,"1":0.3537163734436035,"2":0.6176601052284241,"3":-2.2815070152282715,"4":-2.337327003479004,"5":-1.9912010431289673,"6":-0.9099149703979492,"7":-1.289595603942871,"8":-1.3063044548034668,"9":-1.085110068321228,"10":-1.7862951755523682,"11":-0.8431702256202698,"12":-2.733476400375366,"13":-2.069655179977417,"14":-0.24810746312141418,"15":-1.8164490461349487,"16":0.6425113677978516,"17":-1.747024655342102,"18":-1.0483993291854858,"19":-1.4395546913146973}},"forgetMatrix":{"rows":20,"columns":20,"weights":{"0":1.270909070968628,"1":0.3438284695148468,"2":-2.123425245285034,"3":1.8802895545959473,"4":1.5473237037658691,"5":0.6641002893447876,"6":-2.9761850833892822,"7":-1.9222325086593628,"8":-1.080862045288086,"9":-1.7977372407913208,"10":-1.2575973272323608,"11":1.782754898071289,"12":-0.21161344647407532,"13":-0.32663339376449585,"14":1.8602033853530884,"15":-0.418016642332077,"16":-2.0341999530792236,"17":-1.0740054845809937,"18":-2.2237377166748047,"19":-1.722807765007019,"20":-0.9028528332710266,"21":-0.4125460982322693,"22":-0.10364092141389847,"23":-0.2687331736087799,"24":-0.34428671002388,"25":2.254067897796631,"26":-1.6853445768356323,"27":0.3338368833065033,"28":-1.0360506772994995,"29":-1.1345899105072021,"30":-2.0510239601135254,"31":-0.16050200164318085,"32":0.2650202810764313,"33":1.6138505935668945,"34":-0.33199790120124817,"35":2.1481587886810303,"36":0.20522521436214447,"37":-1.3373689651489258,"38":0.16701914370059967,"39":-0.062165286391973495,"40":0.3639833331108093,"41":0.7885171175003052,"42":-0.16462697088718414,"43":0.02023431658744812,"44":0.7194014191627502,"45":0.6599264144897461,"46":-1.5729010105133057,"47":-0.5717980861663818,"48":-0.9299620389938354,"49":-1.0128836631774902,"50":-1.308435082435608,"51":1.0431078672409058,"52":0.12980447709560394,"53":0.4117061495780945,"54":-0.018391020596027374,"55":1.363396167755127,"56":-0.15112514793872833,"57":-0.7019494771957397,"58":-0.11787781119346619,"59":0.0157136432826519,"60":0.16852322220802307,"61":0.6541308164596558,"62":-0.45688238739967346,"63":-0.13845311105251312,"64":0.05319521203637123,"65":0.04823703691363335,"66":-1.344323992729187,"67":-0.19272711873054504,"68":0.5320419073104858,"69":-0.26053640246391296,"70":0.4105800986289978,"71":-1.0842175483703613,"72":-1.030670166015625,"73":-0.4942202568054199,"74":-0.5300147533416748,"75":-0.899379312992096,"76":0.27440017461776733,"77":-1.8051929473876953,"78":-0.16730833053588867,"79":0.05553729087114334,"80":-1.9482293128967285,"81":-0.749181866645813,"82":2.6655044555664062,"83":-2.492629051208496,"84":-0.6792002320289612,"85":-3.706537961959839,"86":2.732550621032715,"87":0.0326082780957222,"88":0.3978124260902405,"89":1.7463407516479492,"90":0.10828034579753876,"91":-0.08054021745920181,"92":2.6566429138183594,"93":-3.1210720539093018,"94":-0.8454663157463074,"95":0.8788906931877136,"96":4.938778877258301,"97":0.6510241627693176,"98":4.836942672729492,"99":1.585597038269043,"100":0.5341963171958923,"101":-0.4927650988101959,"102":-0.370303750038147,"103":0.37527918815612793,"104":0.3561317026615143,"105":-0.33401790261268616,"106":-0.38003724813461304,"107":-0.4444022476673126,"108":-0.9248730540275574,"109":-0.10277967154979706,"110":0.12334604561328888,"111":1.484893560409546,"112":0.5454814434051514,"113":0.44679924845695496,"114":0.2825443744659424,"115":-0.6095607280731201,"116":-0.5165043473243713,"117":1.2365549802780151,"118":-0.3932328522205353,"119":-0.30195316672325134,"120":0.29372963309288025,"121":0.9346222877502441,"122":-5.638426303863525,"123":1.939041256904602,"124":2.7880568504333496,"125":-0.8653160333633423,"126":-4.649970531463623,"127":2.0467519760131836,"128":-4.655007839202881,"129":-3.5240094661712646,"130":-0.08370805531740189,"131":-0.3007141649723053,"132":-1.9060606956481934,"133":-1.3223921060562134,"134":3.028841972351074,"135":-1.013279914855957,"136":-4.282994270324707,"137":0.13269752264022827,"138":-3.875253200531006,"139":-2.5781452655792236,"140":0.48947757482528687,"141":0.68304443359375,"142":-0.5616085529327393,"143":0.549168050289154,"144":0.5370125770568848,"145":1.6778465509414673,"146":-0.8990890979766846,"147":0.1447950303554535,"148":-0.5622259974479675,"149":-0.8956912755966187,"150":-1.7602945566177368,"151":0.1675039380788803,"152":-0.1752905547618866,"153":-0.47083020210266113,"154":0.6611382961273193,"155":0.6883971691131592,"156":-0.42518287897109985,"157":-0.8633303046226501,"158":-0.496071994304657,"159":-0.48440486192703247,"160":-0.6458522081375122,"161":-0.10188653320074081,"162":0.03492775559425354,"163":-0.17638276517391205,"164":0.24750970304012299,"165":1.2571361064910889,"166":-1.437614917755127,"167":-0.3071783483028412,"168":-0.7805843949317932,"169":-1.0050380229949951,"170":-0.9540711045265198,"171":-1.0336215496063232,"172":0.1636250615119934,"173":0.07097016274929047,"174":0.09852147847414017,"175":1.2610758543014526,"176":-0.09694859385490417,"177":-0.4736621379852295,"178":0.08412578701972961,"179":0.15510627627372742,"180":3.845540761947632,"181":1.9460679292678833,"182":-2.4704790115356445,"183":0.13990570604801178,"184":0.3812393546104431,"185":3.176412343978882,"186":-0.4264571964740753,"187":-0.5917883515357971,"188":4.639233112335205,"189":0.2564133107662201,"190":-0.6431361436843872,"191":0.3309306204319,"192":-0.6356979608535767,"193":3.358424663543701,"194":0.2357766479253769,"195":0.29441037774086,"196":-2.021101951599121,"197":-1.54556143283844,"198":-3.1095776557922363,"199":-0.004696456249803305,"200":0.368672251701355,"201":0.19508393108844757,"202":0.16035600006580353,"203":-0.3552735447883606,"204":0.06189212203025818,"205":-3.8642423152923584,"206":0.7773429155349731,"207":1.6222200393676758,"208":1.3490550518035889,"209":-0.010662391781806946,"210":0.41906338930130005,"211":1.319206714630127,"212":3.185346841812134,"213":-3.337594509124756,"214":0.18220777809619904,"215":-1.0855287313461304,"216":2.8203275203704834,"217":1.6953797340393066,"218":3.4953980445861816,"219":-0.0255278367549181,"220":1.2192121744155884,"221":2.425373077392578,"222":-1.2377923727035522,"223":0.8765584230422974,"224":1.7348687648773193,"225":4.253390789031982,"226":-3.99741268157959,"227":-0.8301969766616821,"228":-2.278412342071533,"229":-3.0041873455047607,"230":-2.5333847999572754,"231":0.30695071816444397,"232":-1.2544008493423462,"233":2.5755131244659424,"234":1.8332159519195557,"235":1.4728665351867676,"236":-0.8934106826782227,"237":-2.5379159450531006,"238":-1.8229552507400513,"239":-0.9083825349807739,"240":-1.7735824584960938,"241":-1.0599396228790283,"242":0.5898638963699341,"243":-0.872072696685791,"244":0.462299644947052,"245":-0.5339818596839905,"246":2.405846357345581,"247":-1.0530458688735962,"248":-0.6647876501083374,"249":2.115267753601074,"250":-3.196045160293579,"251":-0.25930723547935486,"252":1.955689549446106,"253":-2.2695634365081787,"254":0.08472148329019547,"255":2.2363741397857666,"256":2.878166437149048,"257":2.4583895206451416,"258":4.081728935241699,"259":0.8349468111991882,"260":0.5714633464813232,"261":0.9639677405357361,"262":-0.18443730473518372,"263":0.4311820864677429,"264":0.7000474333763123,"265":1.6017909049987793,"266":-1.1987287998199463,"267":-0.5520853996276855,"268":-0.8637569546699524,"269":-0.6654363870620728,"270":-1.1670711040496826,"271":1.912976861000061,"272":0.8210767507553101,"273":0.9836868643760681,"274":0.4443195164203644,"275":-0.35641348361968994,"276":-0.7998138666152954,"277":-0.5004330277442932,"278":-0.7000877261161804,"279":-0.7212420701980591,"280":0.7812667489051819,"281":0.4111083745956421,"282":-1.7390923500061035,"283":1.5851160287857056,"284":1.1185641288757324,"285":0.03808584809303284,"286":-0.46640288829803467,"287":-0.14319632947444916,"288":-1.4574487209320068,"289":-0.37513846158981323,"290":0.22033479809761047,"291":0.3780463933944702,"292":0.29220283031463623,"293":0.6486139893531799,"294":1.1525439023971558,"295":0.010892901569604874,"296":-1.7288798093795776,"297":-0.42402195930480957,"298":-1.801335096359253,"299":-1.2870278358459473,"300":-0.09029386937618256,"301":-0.3777643144130707,"302":-0.26612022519111633,"303":0.21550042927265167,"304":0.21948087215423584,"305":-0.35857531428337097,"306":-0.27364808320999146,"307":-0.41815173625946045,"308":-0.41148316860198975,"309":-0.12570151686668396,"310":0.09774982929229736,"311":1.7142808437347412,"312":-0.36355143785476685,"313":0.22271697223186493,"314":0.12634608149528503,"315":0.06022097170352936,"316":-0.27617406845092773,"317":1.2989429235458374,"318":-0.09017340838909149,"319":-0.15096653997898102,"320":0.4660519063472748,"321":-1.3623237609863281,"322":-0.3354652523994446,"323":-0.3654385805130005,"324":0.44573432207107544,"325":0.8090485334396362,"326":-0.646760880947113,"327":-0.07360293716192245,"328":0.22929167747497559,"329":-0.6440675854682922,"330":-0.7031019330024719,"331":2.269076108932495,"332":0.14118272066116333,"333":0.016965217888355255,"334":0.4045902490615845,"335":1.0651928186416626,"336":-0.34129995107650757,"337":-0.6748932600021362,"338":-1.050460696220398,"339":0.27101072669029236,"340":-0.7346192002296448,"341":-0.3098050355911255,"342":2.1434943675994873,"343":-2.1188530921936035,"344":-1.7607320547103882,"345":-2.4628775119781494,"346":0.6108657121658325,"347":0.31343528628349304,"348":0.5051141977310181,"349":0.8320673704147339,"350":1.4054319858551025,"351":1.3946278095245361,"352":-0.3777545988559723,"353":-4.439095497131348,"354":-2.3360047340393066,"355":-0.68675297498703,"356":2.2045340538024902,"357":1.7582582235336304,"358":3.179413318634033,"359":1.2940809726715088,"360":-0.3597499430179596,"361":0.1451241374015808,"362":-0.3479929268360138,"363":0.3428117334842682,"364":0.5603724718093872,"365":1.318570613861084,"366":-1.1858030557632446,"367":0.10841387510299683,"368":-1.145896315574646,"369":-1.049272060394287,"370":-1.431888222694397,"371":-0.9645333290100098,"372":-0.394853413105011,"373":-0.4959748685359955,"374":0.43887948989868164,"375":0.8560805320739746,"376":-0.3256191611289978,"377":-0.8101248145103455,"378":-0.2691015899181366,"379":-0.39761286973953247,"380":1.3193424940109253,"381":0.696709930896759,"382":0.7008689045906067,"383":0.08303005993366241,"384":0.1829523891210556,"385":1.484176754951477,"386":-1.1133151054382324,"387":0.058896567672491074,"388":-0.2482074648141861,"389":-0.8062254190444946,"390":-1.066249966621399,"391":-0.1940211057662964,"392":-0.4344177842140198,"393":-0.45542415976524353,"394":0.2082924097776413,"395":0.42343616485595703,"396":0.24127238988876343,"397":-0.478364497423172,"398":-0.1466294825077057,"399":-0.13531649112701416}},"forgetHidden":{"rows":20,"columns":20,"weights":{"0":-1.769227385520935,"1":0.6602633595466614,"2":-1.7486708164215088,"3":-1.8281883001327515,"4":-0.3224906027317047,"5":-0.6904698014259338,"6":-0.09154549241065979,"7":-1.4751291275024414,"8":-0.8222891688346863,"9":-0.47872716188430786,"10":0.13652750849723816,"11":0.923475980758667,"12":-0.2258656620979309,"13":-0.9180309772491455,"14":-0.22985568642616272,"15":1.284919023513794,"16":0.6983481049537659,"17":0.08261674642562866,"18":-1.0295518636703491,"19":-1.6788641214370728,"20":-0.033497609198093414,"21":0.779534637928009,"22":-1.2709307670593262,"23":0.023587804287672043,"24":0.9391088485717773,"25":0.5641372203826904,"26":0.040886592119932175,"27":-0.8946088552474976,"28":0.485601007938385,"29":1.2383614778518677,"30":0.4448743164539337,"31":-0.5369938611984253,"32":-0.3139628469944,"33":-0.7705096006393433,"34":1.6144037246704102,"35":0.4398926794528961,"36":-4.52353048324585,"37":1.1758443117141724,"38":-0.5820105671882629,"39":-0.8440592885017395,"40":-1.8709501028060913,"41":1.4469236135482788,"42":-1.7276489734649658,"43":-0.4883047938346863,"44":1.1258245706558228,"45":-0.7835556864738464,"46":0.6956865787506104,"47":-1.3850505352020264,"48":-0.4785444140434265,"49":-0.25512513518333435,"50":1.1230412721633911,"51":-1.2775828838348389,"52":-0.5302882790565491,"53":1.6307334899902344,"54":1.0922627449035645,"55":1.7402303218841553,"56":-0.5402384400367737,"57":0.2599075436592102,"58":-1.1186643838882446,"59":-1.248381495475769,"60":-0.29035261273384094,"61":-0.8749139308929443,"62":0.2272297888994217,"63":0.233343705534935,"64":-1.6613891124725342,"65":1.3130087852478027,"66":-0.2266259789466858,"67":-0.024352671578526497,"68":1.4055386781692505,"69":-0.7654370069503784,"70":-1.3432636260986328,"71":0.8591893315315247,"72":1.2920911312103271,"73":0.18453754484653473,"74":-1.948622226715088,"75":0.02019820734858513,"76":-0.3207542300224304,"77":1.4062166213989258,"78":0.03544722497463226,"79":-0.11142420768737793,"80":2.9159114360809326,"81":-0.541403591632843,"82":3.2840044498443604,"83":-0.7220913767814636,"84":0.513497531414032,"85":0.38636940717697144,"86":-1.0715723037719727,"87":0.3464230000972748,"88":-1.1121054887771606,"89":-0.8611476421356201,"90":1.5701284408569336,"91":-0.232099249958992,"92":-0.41721639037132263,"93":-1.9531898498535156,"94":-1.7530008554458618,"95":-1.3699259757995605,"96":1.3697222471237183,"97":-0.4977380335330963,"98":-0.1633600890636444,"99":-0.729035496711731,"100":-0.39365050196647644,"101":1.4379088878631592,"102":-0.9046742916107178,"103":1.1187858581542969,"104":0.14207176864147186,"105":0.7554370760917664,"106":0.7233228087425232,"107":0.02771010622382164,"108":1.015044093132019,"109":0.1915547251701355,"110":-0.03797526657581329,"111":-0.1738758385181427,"112":0.07749414443969727,"113":-0.4018327295780182,"114":0.28058329224586487,"115":0.1328650861978531,"116":-0.36087191104888916,"117":2.246124029159546,"118":-0.06254828721284866,"119":-0.050264857709407806,"120":-1.5912623405456543,"121":0.21637296676635742,"122":-2.1313252449035645,"123":-0.52651047706604,"124":-0.3565044701099396,"125":1.094443440437317,"126":0.9498289227485657,"127":1.1549267768859863,"128":-4.861656188964844,"129":-0.6723166704177856,"130":-1.3192412853240967,"131":-0.24225270748138428,"132":2.623469114303589,"133":0.5432891249656677,"134":-0.9766620397567749,"135":2.530264377593994,"136":0.5751466155052185,"137":-1.2087143659591675,"138":0.509916365146637,"139":1.4182472229003906,"140":0.4289572238922119,"141":-0.3100239634513855,"142":0.553138792514801,"143":0.16236402094364166,"144":0.3920442461967468,"145":0.0948929712176323,"146":0.2971375286579132,"147":1.3455626964569092,"148":1.446211576461792,"149":1.4505244493484497,"150":0.6255823969841003,"151":-0.05637294799089432,"152":-0.5050541162490845,"153":0.13212649524211884,"154":-1.7987014055252075,"155":-0.14769984781742096,"156":2.2960667610168457,"157":0.1647733896970749,"158":0.9281153082847595,"159":0.8585804104804993,"160":0.7097507119178772,"161":0.08454272896051407,"162":0.5721763968467712,"163":0.06513718515634537,"164":-0.0810462236404419,"165":0.05259064584970474,"166":-0.9665200710296631,"167":0.9968215227127075,"168":1.8475691080093384,"169":0.11267620325088501,"170":0.12273550033569336,"171":0.7502985596656799,"172":0.02169451117515564,"173":0.03740542754530907,"174":-0.039266787469387054,"175":-0.8530720472335815,"176":-0.1561586707830429,"177":2.479379653930664,"178":0.6707196235656738,"179":1.5633769035339355,"180":4.129006862640381,"181":0.01551413256675005,"182":1.9053105115890503,"183":-0.7496634721755981,"184":0.0802188366651535,"185":0.619467556476593,"186":0.09428331255912781,"187":0.5997394919395447,"188":1.0557655096054077,"189":0.37301105260849,"190":0.3940555155277252,"191":1.3304096460342407,"192":-1.116204857826233,"193":2.622502088546753,"194":-2.45987868309021,"195":-4.000600814819336,"196":0.5982651114463806,"197":-0.49422264099121094,"198":1.0115512609481812,"199":0.7654497027397156,"200":0.9027633666992188,"201":-0.5080469250679016,"202":2.2025673389434814,"203":-0.9000899195671082,"204":0.48370200395584106,"205":-1.2991089820861816,"206":-1.2622236013412476,"207":0.7865620255470276,"208":0.8473973870277405,"209":-0.5995609760284424,"210":0.44254738092422485,"211":0.15181556344032288,"212":-0.09552513808012009,"213":-1.5632603168487549,"214":-0.9911642074584961,"215":-1.5399885177612305,"216":0.4303431212902069,"217":0.46245020627975464,"218":-0.1955559402704239,"219":0.0908043161034584,"220":-0.12608332931995392,"221":0.14638954401016235,"222":-0.048661746084690094,"223":-1.8662859201431274,"224":0.018421698361635208,"225":0.17751291394233704,"226":0.23379912972450256,"227":-1.0855650901794434,"228":-0.2507573664188385,"229":1.1342512369155884,"230":0.17658421397209167,"231":-0.09722774475812912,"232":-0.06791981309652328,"233":0.552405834197998,"234":0.4253378212451935,"235":-0.5959680080413818,"236":-0.2126026600599289,"237":-0.1593603789806366,"238":-0.8610894680023193,"239":-0.8701879382133484,"240":3.190472364425659,"241":-0.600521981716156,"242":2.82189679145813,"243":0.10846884548664093,"244":0.059257298707962036,"245":1.5962660312652588,"246":-0.3103192448616028,"247":1.1993635892868042,"248":0.29838910698890686,"249":-0.8642394542694092,"250":0.5692065358161926,"251":0.860028862953186,"252":0.12503404915332794,"253":-0.8522865176200867,"254":-0.9975480437278748,"255":-2.0658652782440186,"256":1.7443069219589233,"257":-0.4450419545173645,"258":-0.23992004990577698,"259":1.2357250452041626,"260":1.3222993612289429,"261":0.5271646976470947,"262":0.5071176886558533,"263":-0.15326322615146637,"264":0.9935012459754944,"265":0.9561704993247986,"266":0.36458107829093933,"267":0.11781855672597885,"268":1.7963837385177612,"269":0.1953829675912857,"270":0.8924285173416138,"271":-0.5689114928245544,"272":-0.932023286819458,"273":0.47199395298957825,"274":-0.2245347946882248,"275":-0.7364824414253235,"276":0.2647661566734314,"277":-0.6279947757720947,"278":-0.7378252744674683,"279":0.48985978960990906,"280":-0.9377579689025879,"281":1.055698275566101,"282":-2.5505194664001465,"283":1.499854564666748,"284":-0.08042120933532715,"285":-0.9207596778869629,"286":1.089608907699585,"287":-0.6400874853134155,"288":-2.1077663898468018,"289":-0.21249690651893616,"290":-1.1316536664962769,"291":-0.6613925099372864,"292":0.16943059861660004,"293":0.3234032690525055,"294":0.7063347697257996,"295":2.2600977420806885,"296":-0.04534250870347023,"297":-0.43786701560020447,"298":-0.14856024086475372,"299":-0.36858147382736206,"300":-1.6964349746704102,"301":1.3758947849273682,"302":-1.5683964490890503,"303":-0.36038053035736084,"304":1.5101062059402466,"305":-0.673780620098114,"306":0.9503943920135498,"307":-1.1240670680999756,"308":-0.8644694685935974,"309":0.30680131912231445,"310":1.3843899965286255,"311":-0.5607613325119019,"312":-1.4670690298080444,"313":0.6552571058273315,"314":0.6799700856208801,"315":0.6607343554496765,"316":-0.5931023955345154,"317":0.08044783771038055,"318":-0.7793064117431641,"319":-0.8388983011245728,"320":-1.7285165786743164,"321":2.6721203327178955,"322":-2.350553035736084,"323":0.32537204027175903,"324":1.2223409414291382,"325":-0.5275730490684509,"326":0.3802015483379364,"327":-0.03273705393075943,"328":-0.37638822197914124,"329":0.665138304233551,"330":0.9556525945663452,"331":-0.8677857518196106,"332":-1.1464368104934692,"333":-0.1507510244846344,"334":1.4342693090438843,"335":1.019608497619629,"336":-0.3610485792160034,"337":-1.2893116474151611,"338":-0.6286313533782959,"339":-0.0792195200920105,"340":-2.707576036453247,"341":0.15077908337116241,"342":-1.9688252210617065,"343":1.2930690050125122,"344":-0.5643218755722046,"345":-2.1178860664367676,"346":0.14243295788764954,"347":-0.330518513917923,"348":-1.953947901725769,"349":1.316238284111023,"350":-1.5676414966583252,"351":-0.81844562292099,"352":1.5952390432357788,"353":-1.1155200004577637,"354":0.3976757824420929,"355":2.740469217300415,"356":-0.47725793719291687,"357":-0.43800804018974304,"358":-0.7570652961730957,"359":-0.7048907279968262,"360":0.5320419669151306,"361":-0.7478775978088379,"362":0.43104368448257446,"363":0.13518458604812622,"364":-0.4840119779109955,"365":0.11555761098861694,"366":-0.5669440627098083,"367":1.081955909729004,"368":0.8087782859802246,"369":1.1716997623443604,"370":0.03792800009250641,"371":0.6166933178901672,"372":0.10654910653829575,"373":0.003327395301312208,"374":-1.2420639991760254,"375":-0.3430284857749939,"376":0.7242317795753479,"377":0.41850337386131287,"378":0.9980730414390564,"379":1.054925560951233,"380":-0.4341470003128052,"381":-0.1916886270046234,"382":-0.07982548326253891,"383":0.09436195343732834,"384":0.162522092461586,"385":0.43003425002098083,"386":0.9171919226646423,"387":-0.37417834997177124,"388":0.2196686863899231,"389":0.6298763155937195,"390":0.3621659278869629,"391":-0.5602630376815796,"392":-0.21172960102558136,"393":-0.03042297251522541,"394":-0.3162321150302887,"395":0.2222861498594284,"396":1.6275818347930908,"397":-0.21968449652194977,"398":0.05561136081814766,"399":-0.49605438113212585}},"forgetBias":{"rows":20,"columns":1,"weights":{"0":0,"1":0,"2":0,"3":0,"4":0,"5":0,"6":0,"7":0,"8":0,"9":0,"10":0,"11":0,"12":0,"13":0,"14":0,"15":0,"16":0,"17":0,"18":0,"19":0}},"outputMatrix":{"rows":20,"columns":20,"weights":{"0":0.5379647016525269,"1":0.2067871242761612,"2":0.05293525755405426,"3":-0.19844865798950195,"4":0.17840954661369324,"5":2.512033700942993,"6":-0.5793875455856323,"7":0.4837506413459778,"8":0.0570637583732605,"9":-0.4467771053314209,"10":-1.3243112564086914,"11":0.7067353129386902,"12":1.340268850326538,"13":-1.4604605436325073,"14":0.11984047293663025,"15":0.6616963148117065,"16":0.8368146419525146,"17":0.20551618933677673,"18":0.06963161379098892,"19":0.15157179534435272,"20":-0.7501491904258728,"21":0.005658849608153105,"22":-0.30127716064453125,"23":0.047022756189107895,"24":0.23243001103401184,"25":1.4951679706573486,"26":-0.5585689544677734,"27":0.6903892755508423,"28":-0.36058273911476135,"29":-0.5196489691734314,"30":-1.1531842947006226,"31":0.5509381294250488,"32":1.1172555685043335,"33":0.40490755438804626,"34":-0.12414665520191193,"35":0.6455936431884766,"36":-0.02064444310963154,"37":-1.509262204170227,"38":-0.05833425372838974,"39":-0.07972586154937744,"40":1.2292894124984741,"41":0.7072210907936096,"42":-0.9177209734916687,"43":0.810305118560791,"44":0.7710052728652954,"45":-0.06161830201745033,"46":-0.4617863595485687,"47":0.20408892631530762,"48":-0.5920220017433167,"49":-0.37751856446266174,"50":0.35458746552467346,"51":0.700450599193573,"52":0.010475832968950272,"53":0.031015193089842796,"54":0.7953885793685913,"55":-0.8091011047363281,"56":-0.8165991902351379,"57":-0.2653760612010956,"58":-0.813323974609375,"59":-0.9151038527488708,"60":-1.3157879114151,"61":0.026964453980326653,"62":0.1097882017493248,"63":-1.4399769306182861,"64":-0.5730205774307251,"65":-0.12697578966617584,"66":-0.6380986571311951,"67":-0.4972968101501465,"68":-0.5905930995941162,"69":-0.7041606903076172,"70":-0.060112275183200836,"71":-1.4427287578582764,"72":-2.0587944984436035,"73":0.6339060068130493,"74":-0.8430350422859192,"75":-0.23204530775547028,"76":0.42138996720314026,"77":0.8697455525398254,"78":-0.033763352781534195,"79":0.895692765712738,"80":1.7140895128250122,"81":1.375733494758606,"82":1.1822588443756104,"83":-2.370934009552002,"84":-0.7300959229469299,"85":-0.7338054180145264,"86":0.35130026936531067,"87":0.07576543837785721,"88":1.9428942203521729,"89":0.2938549220561981,"90":0.8648311495780945,"91":1.4168241024017334,"92":0.03027431108057499,"93":0.9467229843139648,"94":-1.21724271774292,"95":-0.8708342909812927,"96":0.2514975368976593,"97":-1.1463478803634644,"98":-0.31769859790802,"99":1.3146122694015503,"100":-0.08851504325866699,"101":0.2447681576013565,"102":-0.6905834674835205,"103":0.452945739030838,"104":0.7655542492866516,"105":-1.8463894128799438,"106":1.3170818090438843,"107":-3.1555440425872803,"108":-1.4789108037948608,"109":1.7743083238601685,"110":1.8981050252914429,"111":-1.1596585512161255,"112":-1.1718049049377441,"113":1.0015689134597778,"114":0.14046308398246765,"115":1.0590029954910278,"116":-0.6178690791130066,"117":1.7838414907455444,"118":-0.22697831690311432,"119":0.15368472039699554,"120":0.6571794152259827,"121":0.6095969676971436,"122":1.0273972749710083,"123":-1.212759256362915,"124":1.4807257652282715,"125":0.5827187299728394,"126":-1.3513894081115723,"127":-0.60526043176651,"128":-1.7824801206588745,"129":-1.2375181913375854,"130":-0.48963305354118347,"131":-0.7791353464126587,"132":-1.5406843423843384,"133":1.185205101966858,"134":0.7056912183761597,"135":-0.4987815022468567,"136":-0.5623992681503296,"137":0.01446409523487091,"138":1.4653892517089844,"139":2.2865896224975586,"140":-0.08160144835710526,"141":0.18884915113449097,"142":-1.1710845232009888,"143":2.1182711124420166,"144":2.224557399749756,"145":1.0370736122131348,"146":-0.7336550951004028,"147":2.7861030101776123,"148":-2.515408515930176,"149":-0.5284900069236755,"150":-0.5709352493286133,"151":0.5953783392906189,"152":-1.5305100679397583,"153":-0.3143859803676605,"154":1.671733021736145,"155":-0.8078758120536804,"156":-1.4432625770568848,"157":-0.27650484442710876,"158":-1.1262980699539185,"159":-1.64794921875,"160":-0.8029801249504089,"161":-0.6931021213531494,"162":0.42860665917396545,"163":-0.03829034045338631,"164":-0.01516081765294075,"165":2.000429153442383,"166":-1.2951470613479614,"167":-0.2963394224643707,"168":-0.7476896643638611,"169":-1.3143994808197021,"170":-1.6640512943267822,"171":-0.8313243389129639,"172":-0.7388724088668823,"173":-0.47786006331443787,"174":-0.16410064697265625,"175":1.2551851272583008,"176":0.26015278697013855,"177":0.096111960709095,"178":-0.43371349573135376,"179":0.059668153524398804,"180":2.884101152420044,"181":1.0522440671920776,"182":-2.1059272289276123,"183":1.3127747774124146,"184":0.9224510192871094,"185":4.600869655609131,"186":-3.9388434886932373,"187":0.12650153040885925,"188":-1.0304385423660278,"189":-3.7221603393554688,"190":-3.6459767818450928,"191":-0.7024466395378113,"192":-0.7215341925621033,"193":3.1040992736816406,"194":1.3004980087280273,"195":1.0159305334091187,"196":-2.8805034160614014,"197":-3.5138602256774902,"198":-3.7175486087799072,"199":-0.8839811086654663,"200":1.2179697751998901,"201":0.30739259719848633,"202":0.7645586133003235,"203":-1.0254619121551514,"204":-0.3619345426559448,"205":0.8459400534629822,"206":0.19005997478961945,"207":3.360496997833252,"208":-0.6885022521018982,"209":-0.7656875848770142,"210":-0.6816021203994751,"211":1.0144565105438232,"212":-0.2659626007080078,"213":0.06440088152885437,"214":-0.24663285911083221,"215":0.7647578120231628,"216":0.7915745973587036,"217":-0.6851540207862854,"218":1.220320463180542,"219":0.35078954696655273,"220":1.3329975605010986,"221":2.2424652576446533,"222":0.38106900453567505,"223":0.36206236481666565,"224":0.9687262177467346,"225":6.109866142272949,"226":-3.890355348587036,"227":-2.0183486938476562,"228":-1.8344229459762573,"229":-3.4184017181396484,"230":-3.110368013381958,"231":-0.17805825173854828,"232":-3.588939905166626,"233":4.425394535064697,"234":1.180027723312378,"235":2.158867835998535,"236":0.05965060740709305,"237":-2.1328911781311035,"238":-1.614654541015625,"239":0.09638812392950058,"240":1.265321969985962,"241":0.2503308951854706,"242":0.1207735687494278,"243":-0.27753913402557373,"244":0.8810613751411438,"245":0.573093593120575,"246":-0.9679104685783386,"247":2.2087714672088623,"248":0.9926356077194214,"249":-1.6116523742675781,"250":-1.9326571226119995,"251":1.399745225906372,"252":-0.04283760488033295,"253":-0.41168975830078125,"254":0.3349350392818451,"255":0.5883820056915283,"256":-0.13946211338043213,"257":-0.7292143702507019,"258":1.2010729312896729,"259":0.27461597323417664,"260":0.3630904257297516,"261":1.4240858554840088,"262":-0.34416818618774414,"263":-0.27257251739501953,"264":2.1421568393707275,"265":1.2542333602905273,"266":-0.41784238815307617,"267":-1.202803611755371,"268":-1.0122803449630737,"269":-0.4280144274234772,"270":-0.7169313430786133,"271":1.14618718624115,"272":0.09221550822257996,"273":1.6129263639450073,"274":1.7054733037948608,"275":-0.4048774838447571,"276":-1.6808886528015137,"277":-0.6797347068786621,"278":-0.29614779353141785,"279":0.15566426515579224,"280":0.1386709213256836,"281":0.9508088827133179,"282":-2.2593886852264404,"283":1.5930376052856445,"284":1.6579411029815674,"285":0.2389809787273407,"286":-1.0165143013000488,"287":-0.5762847661972046,"288":-2.5112662315368652,"289":-1.1641087532043457,"290":-0.11825931817293167,"291":-0.6323899030685425,"292":-0.7681397795677185,"293":0.8107261657714844,"294":1.363587737083435,"295":0.17255564033985138,"296":-1.9917948246002197,"297":-1.6089398860931396,"298":-1.70183265209198,"299":-1.437748908996582,"300":-0.05549677461385727,"301":-0.34880685806274414,"302":-0.25184932351112366,"303":0.09765218943357468,"304":0.9234442114830017,"305":-0.33630380034446716,"306":-0.29664793610572815,"307":-0.028494276106357574,"308":-0.5119430422782898,"309":-0.5904236435890198,"310":0.24533015489578247,"311":-0.04990852251648903,"312":-1.6574093103408813,"313":-0.8195682168006897,"314":0.17771410942077637,"315":-0.6219254732131958,"316":-0.025628771632909775,"317":0.41586583852767944,"318":0.3599531650543213,"319":0.12323067337274551,"320":0.6598288416862488,"321":-1.123395562171936,"322":0.26779499650001526,"323":-0.4790349304676056,"324":0.2993561327457428,"325":0.7064399719238281,"326":-0.7196411490440369,"327":-0.7372992038726807,"328":-0.26996660232543945,"329":-0.6150718331336975,"330":-0.6739037036895752,"331":1.6791865825653076,"332":0.7173802852630615,"333":0.9865725040435791,"334":0.3863573670387268,"335":1.117823839187622,"336":-0.1913580298423767,"337":-0.32969385385513306,"338":0.05503438040614128,"339":0.7812451124191284,"340":0.41276922821998596,"341":0.5971853733062744,"342":0.47808292508125305,"343":-2.300961971282959,"344":1.224029779434204,"345":-0.18804268538951874,"346":-0.605172872543335,"347":0.7349733710289001,"348":-1.6216015815734863,"349":-0.5355098843574524,"350":-0.22545158863067627,"351":0.16461654007434845,"352":-0.29348525404930115,"353":-0.8547517657279968,"354":0.6778360605239868,"355":0.10354471951723099,"356":0.32439056038856506,"357":0.9606714844703674,"358":1.8572568893432617,